tree
version=v4
num_class=1
num_tree_per_iteration=1
label_index=0
max_feature_idx=17
objective=regression
feature_names=lag_1 lag_2 lag_3 lag_6 lag_12 rolling_mean_3 rolling_mean_6 rolling_mean_12 rolling_std_3 mes_do_ano trimestre is_recesso is_pandemia mes_sin mes_cos area_civel COMARCA SERVENTIA
feature_infos=[0:11046] [0:11131] [0:11131] [0:11131] [0:11131] [0:8021] [0:5157.666666666667] [0:3042.6666666666665] [0:6366.1826081255322] [1:12] [1:4] [0:1] [0:1] [-1:1] [-1:1] [0:1] -1:47:6:21:7:24:67:96:63:98:120:94:27:39:44:71:113:60:116:28:45:53:117:52:74:90:102:105:46:56:81:95:2:32:51:54:65:66:68:70:76:86:92:104:109:114:1:3:4:5:8:9:11:12:14:22:23:25:26:29:30:31:33:34:36:37:38:40:41:42:43:48:49:50:55:57:58:59:61:62:64:69:72:75:77:78:80:83:85:88:91:97:99:100:101:107:108:110:111:112:118:119:0:13:16:17:18:19:20:35:73:79:82:84:87:89:93:103:106:115:15 -1:175:0:1:2:3:4:5:6:7:8:9:10:11:12:13:14:15:16:17:18:19:20:21:22:23:24:25:26:27:28:29:30:31:32:33:34:35:36:37:38:39:40:41:42:43:44:45:46:47:48:49:50:51:52:53:54:55:56:57:58:59:60:61:62:63:64:65:66:67:68:69:70:71:72:73:74:75:76:77:78:79:80:81:82:83:84:85:86:87:88:89:90:91:92:93:94:95:96:97:98:99:100:101:102:103:104:105:106:107:108:109:110:111:112:113:114:115:116:117:118:119:120:121:122:123:124:125:126:127:128:129:130:131:132:133:134:135:136:137:138:139:140:141:142:143:144:145:146:147:148:149:150:151:152:153:154:155:156:157:158:159:160:161:162:163:164:165:166:167:168:169:170:171:172:173:174:176:177:178:179:180:181:182:183:184:185:186:187:188:189:190:191:192:193:194:195:196:197:198:199:200:201:202:203:204:205:206:207:208:209:210:211:212:213:214:215:216:217:218:219:220:221:222:223:224:225:226:227:228:229:230:231:232:233:234:235:236:237:238:239:240:241:242:243:244:245:246:247:248:249:250:251:252:253:254:255:256:257:258:259:260:261:262:263:264:265:266:267:268:269:270:271:272:273:274:275:276:277:278:279:280:281:282:283:284:285:286:287:288:289:290:291:292:293:294:295:296:297:298:299:300:301:302:303:304:305:306:307:308:309:310:311:312:313:314:315:316:317:318:319:320:321:322:323:324:325:326:327:328:329:330:331:332:333:334:335:336:337:338:339:340:341:342:343:344:345:346:347:348:349:350:351:352:353:354:355:356:357:358:359:360:361:362:363:364:365:366:367:368:369:370:371:372:373:374:375:376:377:378:379:380:381:382:383:384:385:386:387:388:389:390:391:392:393:394:395:396:397:398:399:400:401:402:403:404:405:406:407:408:409:410:411:412:413:414:415:416:417:418:419:420:421:422:423:424:425:426:427:428:429:430:431:432:433:434:435:436:437:438:439:440:441:442:443:444:445:446:447:448:449:450:451:452:453:454:455:456:457:458:459:460:461:462:463:464:465:466:467:468:469:470:471:472:473:474:475:476:477:478:479:480:481:482:483:484:485:486:487:488:489:490:491:492:493:494:495:496:497:498:499:500:501:502:503:504:505:506:507:508:509:510:511:512:513:514:515:516:517:518:519:520:521:522:523:524:525:526:527:528:529:530:531:532:533:534:535:536:537:538:539:540:541:542:543:544:545:546:547:548:549:550:551:552:553:554:555:556:557:558:559:560:561:562:563:564:565:566:567:568:569:570:571:572:573:574:575:576:577:578:579:580:581:582:583:584:585:586:587:588:589:590:591:592:593:594:595:596:597:598:599:600:601:602:603:604:605:606:607:608:609:610:611:612:613:614:615:616:617:618:619:620:621:622:623:624:625:626:627:628:629:630:631:632:633:634:635:636:637:638:639:640:641:642:643:644:645:646:647:648:649:650:651:652:653:654:655:656:657:658:659:660:661:662:663:664:665:666:667:668:669:670:671:672:673:674:675:676:677:678:679:680:681:682:683:684:685:686:687:688:689:690:691:692:693:694:695:696:697:698:699:700:701:702:703:704:705:706:707:708:709:710:711:712:713:714:715:716:717:718:719:720:721:722:723:724:725:726:727:728:729:730:731:732:733:734:735:736:737:738:739:740:741:742:743:744:745:746:747:748:749:750:751:752:753:754:755:756:757:758:759:760:761:762:763:764:765:766:767:768:769:770:771:772:773:774:775:776:777:778:779:780:781:782:783:784:785:786:787:788:789:790:791:792:793:794:795:796:797:798:799:800:801:802:803:804:805:806:807:808:809:810:811:812:813:814:815:816:817:818:819:820:821:822:823:824:825:826:827:828:829:830:831:832:833:834:835:836:837:838:839:840:841:842:843:844:845:846:847:848:849:850:851:852:853:854:855:856:857:858:859:860:861:862:863:864:865:866:867:868:869:870:871:872:873:874:875:876:877:878:879:880:881:882:883:884:885:886:887:888:889:890:891:892:893:894:895:896:897:898:899:900:901:902:903:904:905:906:907:908:909:910:911:912:913:914:915:916:917:918:919:920:921:922:923:924:925:926:927:928:929:930:931:932:933:934:935:936:937:938:939:940:941:942:943:944:945:946:947:948:949:950:951:952:953:954:955:956:957:958:959:960:961:962:963:964:965:966:967:968:969:970:971:972:973:974:975:976:977:978:979:980:981:982:983:984:985:986:987:988:989:990:991:992:993:994:995:996:997:998:999:1000:1001:1002:1003:1004:1005:1006:1007:1008:1009:1010:1011:1012:1013:1014:1015:1016:1017:1018:1019:1020:1021:1022:1023:1024:1025:1026:1027:1028:1029:1030:1031:1032:1033:1034:1035:1036:1037:1038:1039:1040:1041:1042:1043:1044:1045:1046:1047:1048:1049:1050:1051:1052:1053:1054:1055:1056:1057:1058:1059:1060:1061:1062:1063:1064:1065:1066:1067:1068:1069:1070:1071:1072:1073:1074:1075:1076:1077:1078:1079:1080:1081:1082:1083:1084:1085:1086:1087:1088:1089:1090:1091:1092:1093:1094:1095:1096:1097:1098:1099:1100:1101:1102:1103:1104:1105:1106:1107:1108:1109:1110:1111:1112:1113:1114:1115:1116:1117:1118:1119:1120:1121:1122:1123:1124:1125:1126:1127:1128:1129:1130:1131:1132:1133:1134:1135:1136:1137:1138:1139:1140:1141:1142:1143:1144:1145:1146:1147:1148:1149:1150:1151:1152:1153:1154:1155:1156:1157:1158:1159:1160:1161:1162:1163:1164:1165:1166:1167:1168:1169:1170:1171:1172:1173:1174:1175:1176:1177:1178:1179:1180:1181:1182:1183:1184:1185:1186:1187:1188:1189:1190:1191:1192:1193:1194:1195:1196:1197:1198:1199:1200:1201:1202:1203:1204:1205:1206:1207:1208:1209:1210:1211:1212:1213:1214:1215:1216:1217:1218:1219:1220:1221:1222:1223:1224:1225:1226:1227:1228:1229:1230:1231:1232:1233:1234:1235:1236:1237:1238:1239:1240:1241:1242:1243:1244:1245:1246:1247:1248:1249:1250:1251:1252:1253:1254:1255:1256:1257:1258:1259:1260:1261:1262:1263:1264:1265:1266:1267:1268:1269:1270:1271:1272:1273:1274:1275:1276:1277:1278:1279:1280:1281:1282:1283:1284:1285:1286:1287:1288:1289:1290:1291:1292:1293:1294:1295:1296:1297:1298:1299:1300:1301:1302:1303:1304:1305:1306:1307:1308:1309:1310:1311:1312:1313:1314:1315:1316:1317:1318:1319:1320:1321:1322:1323:1324:1325:1326:1327:1328:1329:1330:1331:1332:1333:1334:1335:1336:1337:1338:1339:1340:1341:1342:1343:1344:1345:1346:1347:1348:1349:1350:1351:1352:1353:1354:1355:1356:1357:1358:1359:1360:1361:1362:1363:1364:1365:1366:1367:1368:1369:1370:1371:1372:1373:1374:1375:1376:1377:1378:1379:1380:1381:1382:1383:1384:1385:1386:1387:1388:1389:1390:1391:1392:1393:1394:1395:1396:1397:1398:1399:1400:1401:1402:1403:1404:1405:1406:1407:1408:1409:1410:1411:1412:1413:1414:1415:1416:1417:1418:1419:1420:1421:1422:1423:1424:1425:1426:1427:1428:1429:1430:1431:1432:1433:1434:1435:1436:1437:1438:1439:1440:1441:1442:1443:1444:1445:1446:1447:1448:1449:1450:1451:1452:1453:1454:1455:1456:1457:1458:1459:1460:1461:1462:1463:1464:1465:1466:1467:1468:1469:1470:1471:1472:1473:1474:1475:1476:1477:1478:1479:1480:1481:1482:1483:1484:1485:1486:1487:1488:1489:1490:1491:1492:1493:1494:1495:1496:1497:1498:1499:1500:1501:1502:1503:1504:1505:1506:1507:1508:1509:1510:1511:1512:1513:1514:1515:1516:1517:1518:1519:1520:1521:1522:1523:1524:1525:1526:1527:1528:1529:1530:1531:1532:1533:1534:1535:1536:1537:1538:1539:1540:1541:1542:1543:1544:1545:1546:1547:1548:1549:1550:1551:1552:1553:1554:1555:1556:1557:1558:1559:1560:1561:1562:1563:1564:1565:1566:1567:1568:1569:1570:1571:1572:1573:1574:1575:1576:1577:1578:1579:1580:1581:1582:1583
tree_sizes=5384 5287 5410 5297 5314 5379 5418 5365 5389 5424 5393 5464 5628 5404 5602 5297 5531 5456 5557 5767 5300 5296 6062 5930 6672 6142 5927 6329 6113 6301 6606 6139 6491 6181 6560 5430 6397 6754 6598 5338 5452 7098 6825 5517 5431 5528 5428 4465 6775 5165 5274 7141 6581 6677 6521 5702 7060 6292 6458 4983 6590 4355 4318 4110 2958 4471 2874 3923 2931 2556 2700 5938 3759 2763 3624 2791 3173 1745 2253 2957 6317

Tree=0
num_leaves=63
num_cat=1
split_feature=0 0 0 7 0 0 1 0 0 0 7 7 0 17 0 0 0 9 0 7 7 2 7 14 0 7 7 8 7 0 1 7 15 0 2 2 0 7 0 9 14 1 0 1 0 1 1 2 1 0 13 7 14 1 13 0 2 7 1 0 9 2
split_gain=5.30441e+08 1.71547e+08 1.08273e+08 3.20371e+07 2.25638e+07 2.06762e+07 1.0854e+07 7.65648e+06 3.6711e+06 3.28799e+06 3.16204e+06 2.83296e+06 2.44293e+06 2.41727e+06 5.40731e+06 2.18715e+06 1.66055e+06 1.40141e+06 1.07069e+06 1.05148e+06 939346 905288 838278 709457 598265 557349 513122 494961 448704 409448 402340 340078 297703 264242 252896 234167 214583 208687 200155 193488 182954 182750 176995 171814 163588 159239 158955 158104 149884 147963 147098 143313 140412 136881 115380 113996 111193 106355 90356.3 87216.4 83625 145577
threshold=482.50000000000006 112.50000000000001 1169.5000000000002 21.708333333333339 1959.0000000000002 246.50000000000003 739.50000000000011 58.500000000000007 7.5000000000000009 151.50000000000003 39.125000000000007 567.37500000000011 334.50000000000006 0 7.5000000000000009 968.50000000000011 1414.5000000000002 6.5000000000000009 35.500000000000007 73.708333333333357 388.79166666666669 1044.0000000000002 170.29166666666671 -0.24999999999999994 20.500000000000004 3.3750000000000004 120.62500000000001 98.573148649357165 220.58333333333334 804.00000000000011 313.50000000000006 45.041666666666679 1.0000000180025095e-35 46.500000000000007 493.50000000000006 192.50000000000003 85.500000000000014 12.04166666666667 201.50000000000003 11.500000000000002 0.6830127018922193 52.500000000000007 651.50000000000011 29.500000000000004 294.50000000000006 166.50000000000003 80.500000000000014 151.50000000000003 551.50000000000011 1293.0000000000002 -0.5 101.12500000000001 1.0000000180025095e-35 297.50000000000006 -0.24999999999999997 11.500000000000002 246.50000000000003 285.62500000000006 151.50000000000003 77.500000000000014 2.5000000000000004 436.50000000000006
decision_type=2 2 2 2 2 2 2 2 2 2 2 2 2 9 2 2 2 2 2 2 2 2 2 2 2 2 2 2 2 2 2 2 2 2 2 2 2 2 2 2 2 2 2 2 2 2 2 2 2 2 2 2 2 2 2 2 2 2 2 2 2 2
left_child=1 3 6 8 16 9 11 13 25 26 -11 30 28 14 -5 21 49 -18 43 41 35 29 47 -6 37 -1 46 42 53 54 -2 -20 -17 -26 -22 -14 -21 -10 56 44 48 -9 -13 55 -30 -28 -3 58 -32 -4 -31 -38 -29 -7 -8 -15 -24 -46 -12 -43 -37 -62
right_child=2 5 4 7 23 12 15 19 24 10 22 27 20 18 -16 32 17 -19 31 36 34 -23 38 -25 33 -27 45 52 39 50 40 -33 -34 -35 -36 60 51 -39 -40 -41 -42 59 -44 -45 57 -47 -48 -49 -50 -51 -52 -53 -54 -55 -56 -57 -58 -59 -60 -61 61 -63
leaf_value=17.994442648795538 37.40783413933319 22.12182325584741 79.335416385120183 44.335227878748128 137.8390149393268 29.610279007725605 56.713140861469839 20.623808807089919 18.440063979069553 41.536859766307423 24.726559763853096 48.356060636625713 32.104763036909866 18.597633971869467 20.709021349129308 74.674999718453506 104.13278957352597 86.67844180963516 19.882442290565535 22.088541072887054 38.562252397016266 68.229924030235878 27.146166435861836 125.40833386241002 19.026156474974073 18.269657948607264 24.841358225680089 54.525462794444543 32.100817961300706 63.003833051786842 43.791779884392156 20.643963931001064 67.401715494485614 20.335111628624986 43.626603378058881 32.490834501371808 22.591403438006722 18.73396637613358 28.939409343129604 29.867501244332416 41.163401691593641 21.221773123268658 52.815833119603681 19.57400561690844 32.897044255085106 26.49196858107884 23.825338707734637 26.68479238956148 47.426268296720266 84.887499718453512 58.039076336270057 23.614541466818274 59.976785432739227 32.971548776186957 52.259469689965812 19.244928758350085 28.82063772727205 35.076716900687728 26.217521323576506 21.935597179872786 35.512625593618125 39.743561642318625
leaf_weight=91031 25 177 24 33 22 225 26 933 15094 39 262 44 56 778 91 24 23 23 4133 1138 67 22 452 24 5435 23055 592 27 301 25 74 2272 34 415 39 20 835 10069 428 60 37 1172 45 4336 124 194 605 403 46 24 37 580 21 35 33 5410 127 102 166 674 268 22
leaf_count=91031 25 177 24 33 22 225 26 933 15094 39 262 44 56 778 91 24 23 23 4133 1138 67 22 452 24 5435 23055 592 27 301 25 74 2272 34 415 39 20 835 10069 428 60 37 1172 45 4336 124 194 605 403 46 24 37 580 21 35 33 5410 127 102 166 674 268 22
internal_value=18.8904 18.7189 63.6293 18.4528 102.659 28.0748 53.1213 20.2134 18.1812 26.0366 27.4484 47.3872 33.3983 19.6963 26.3917 62.2217 88.6171 95.4056 19.6424 21.8671 36.2808 58.9 27.1495 131.353 18.6636 18.0501 24.3466 52.8181 31.7919 57.2037 43.2991 20.1526 70.4114 19.119 40.4256 35.0804 22.5997 18.5577 28.1195 32.5578 44.2372 21.1941 50.611 19.3327 32.8641 25.2488 23.4398 25.9741 45.185 82.1115 60.041 23.0108 56.9104 30.0628 54.2221 19.1635 27.5135 33.8808 25.3048 21.4824 35.6179 35.8336
internal_weight=172908 172248 660 167484 140 4764 520 22385 145099 3445 1877 319 1319 17053 124 201 94 46 16929 5332 472 143 1838 46 31013 114086 1568 137 847 121 182 6405 58 5850 106 366 2553 25163 1007 587 157 2779 89 10524 527 786 782 831 120 48 62 1415 48 260 59 6188 579 226 428 1846 310 290
internal_count=172908 172248 660 167484 140 4764 520 22385 145099 3445 1877 319 1319 17053 124 201 94 46 16929 5332 472 143 1838 46 31013 114086 1568 137 847 121 182 6405 58 5850 106 366 2553 25163 1007 587 157 2779 89 10524 527 786 782 831 120 48 62 1415 48 260 59 6188 579 226 428 1846 310 290
cat_boundaries=0 31
cat_threshold=0 0 0 0 128 0 0 0 0 1 0 0 0 0 0 0 0 0 0 0 0 4 0 0 0 0 0 0 0 0 4096
is_linear=0
shrinkage=1


Tree=1
num_leaves=63
num_cat=0
split_feature=0 0 0 5 0 0 5 4 5 5 0 6 5 4 6 5 7 4 7 5 5 4 15 5 5 2 5 9 6 6 2 1 13 0 9 5 8 0 9 13 6 5 4 5 4 0 13 0 0 9 9 12 6 4 0 4 1 4 2 6 7 9
split_gain=4.78723e+08 1.54821e+08 9.77163e+07 3.00526e+07 2.03638e+07 1.86603e+07 1.16033e+07 1.01819e+07 5.54558e+06 5.1092e+06 2.96741e+06 3.39823e+06 2.59663e+06 1.99441e+06 4.47401e+06 1.91655e+06 1.81474e+06 1.73776e+06 1.38203e+06 822218 778609 747524 743489 650193 611789 569870 522578 493605 488099 474040 454325 399205 372958 369672 249482 223877 204562 189058 188873 181479 165656 150131 147150 140212 134900 131845 257014 126577 121008 116513 113458 116898 102937 95858.3 95424.6 93218.4 88038.5 83748.1 90638.7 83739.3 80441.8 79702.2
threshold=482.50000000000006 112.50000000000001 1169.5000000000002 30.166666666666668 1959.0000000000002 246.50000000000003 750.00000000000011 1589.0000000000002 10.16666666666667 65.833333333333357 151.50000000000003 51.083333333333336 341.83333333333343 120.50000000000001 20.416666666666668 866.83333333333337 567.37500000000011 1589.0000000000002 324.58333333333343 184.83333333333334 3.166666666666667 1472.0000000000002 1.0000000180025095e-35 44.166666666666679 18.500000000000004 1187.5000000000002 120.50000000000001 7.5000000000000009 90.416666666666671 232.75 493.50000000000006 313.50000000000006 -0.5 604.50000000000011 11.500000000000002 147.16666666666671 98.573148649357165 66.500000000000014 1.5000000000000002 0.93301270189221952 160.08333333333334 310.50000000000006 357.50000000000006 79.833333333333357 231.50000000000003 304.50000000000006 -0.6830127018922193 52.500000000000007 70.500000000000014 1.5000000000000002 5.5000000000000009 1.0000000180025095e-35 122.75000000000001 656.50000000000011 651.50000000000011 912.50000000000011 606.50000000000011 346.50000000000006 528.50000000000011 24.750000000000004 7.8750000000000009 8.5000000000000018
decision_type=2 2 2 2 2 2 2 2 2 2 2 2 2 2 2 2 2 2 2 2 2 2 2 2 2 2 2 2 2 2 2 2 2 2 2 2 2 2 2 2 2 2 2 2 2 2 2 2 2 2 2 2 2 2 2 2 2 2 2 2 2 2
left_child=1 3 6 8 17 10 16 -6 20 23 26 -12 29 24 -15 53 31 25 28 35 -1 22 -17 -5 -10 -4 43 -27 48 45 38 -2 -24 57 39 -13 54 -30 -14 41 -28 -31 -32 -3 49 -7 -47 -25 -11 -21 -40 -52 -39 -8 -18 -55 -38 -33 -59 -26 -22 -56
right_child=2 5 4 9 7 12 15 -9 13 18 11 19 30 14 -16 21 36 -19 -20 44 60 -23 32 47 59 27 40 -29 37 34 42 33 -34 -35 -36 -37 56 52 50 -41 -42 -43 -44 -45 -46 46 -48 -49 -50 -51 51 -53 -54 55 61 -57 -58 58 -60 -61 -62 -63
leaf_value=-0.85202475169676772 17.59160817527771 2.1447466826137109 55.63426254106605 0.81902431886244609 80.018815207481396 10.10457750612551 33.504764059315555 127.47156392610992 -0.21673110578190521 2.2320958030572564 24.284470848739147 5.6679605265458433 11.82833517074585 28.408187192976477 0.42690873430669313 50.167968559265141 27.992423733797938 77.234747314453131 15.964422818592617 6.8257365557551388 -0.6122677386397597 53.705915304330681 45.940075683593754 1.3260189154795698 0.15254449784506299 71.163820953369154 5.5741601131203273 60.625267089843753 2.295068280465443 12.667805652667191 17.948980767386299 21.519370636285522 37.555593125025432 28.768799591064454 10.214234693122634 7.3395963907913426 31.4200664173473 3.8099204002367943 18.59289548632125 16.06220076243083 7.1335711345337991 14.623572013214346 23.164229443198757 4.3882313321845059 10.032547524967026 16.303862380981446 10.11951384771438 1.8499208527948519 2.9429345716193254 8.8679476864554658 15.785484102289514 18.760775718688965 4.9204227439368786 38.898751746283637 33.242065620422366 34.823713883109711 35.756912338256839 22.55982089996338 26.099805011171284 0.43314300463789918 -0.43175995665497918 29.075606259432703
leaf_weight=91018 25 79 23 6912 20 222 23 26 17284 923 32 279 20 20 50 32 44 26 21 80 23496 26 21 2327 7416 20 673 25 179 391 21 51 36 37 66 710 22 1074 71 60 228 131 38 588 226 28 42 2285 1704 550 189 40 259 36 24 23 25 40 33 4145 8371 22
leaf_count=91018 25 79 23 6912 20 222 23 26 17284 923 32 279 20 20 50 32 44 26 21 80 23496 26 21 2327 7416 20 673 25 179 391 21 51 36 37 66 710 22 1074 71 60 228 131 38 588 226 28 42 2285 1704 550 189 40 259 36 24 23 25 40 33 4145 8371 22
internal_value=9.86454e-09 -0.162854 42.502 -0.415672 79.5803 8.72525 32.5194 106.84 -0.630959 1.66801 6.78895 8.13019 13.7825 -0.00794824 8.42156 42.0832 26.6864 66.2404 3.17002 7.85001 -0.777554 46.2476 44.0687 1.12581 -0.0284047 62.0367 5.1834 65.3091 3.10511 12.3738 17.2763 23.4699 40.6446 24.3827 13.1276 6.86802 31.0533 3.82081 16.533 13.458 5.96877 13.1586 21.308 4.12251 8.98456 10.7012 12.5933 1.58558 2.69318 8.60862 16.8466 16.3052 4.02569 36.2428 29.6571 37.3102 33.7269 23.074 24.1601 0.253148 -0.564851 31.2494
internal_weight=172908 172248 660 167484 140 4764 520 46 151800 15684 3445 1877 1319 28915 70 197 323 94 4160 1845 122885 115 89 11524 28845 68 1568 45 4139 940 379 186 57 161 648 989 137 1512 320 582 901 522 59 667 856 292 70 4612 2627 630 300 229 1333 82 90 59 47 124 73 11561 31867 46
internal_count=172908 172248 660 167484 140 4764 520 46 151800 15684 3445 1877 1319 28915 70 197 323 94 4160 1845 122885 115 89 11524 28845 68 1568 45 4139 940 379 186 57 161 648 989 137 1512 320 582 901 522 59 667 856 292 70 4612 2627 630 300 229 1333 82 90 59 47 124 73 11561 31867 46
is_linear=0
shrinkage=0.05


Tree=2
num_leaves=63
num_cat=1
split_feature=5 5 1 5 5 4 5 1 6 3 6 5 5 5 5 17 2 4 14 6 1 5 1 4 5 5 5 5 14 4 5 9 9 14 5 5 9 14 2 2 5 2 3 14 2 13 9 2 2 3 13 9 1 2 6 9 5 6 13 4 13 13
split_gain=4.23558e+08 1.3685e+08 7.62373e+07 2.41845e+07 1.92074e+07 1.82769e+07 1.44787e+07 9.54046e+06 4.70584e+06 4.48159e+06 4.0562e+06 3.6735e+06 3.40431e+06 3.0474e+06 2.02445e+06 1.38585e+06 5.14937e+06 1.23078e+06 821506 751300 884177 741639 725250 711864 701548 574568 565808 534096 520702 398442 365338 359235 324967 306008 271452 238476 212921 199787 230968 196203 192950 187869 196961 180144 169766 162419 156529 147296 132155 126686 113800 107999 106540 89796.5 88462.5 87666.6 95896.1 86230.1 83969.9 80851.2 75575.1 69248.3
threshold=454.16666666666669 83.166666666666671 1186.5000000000002 193.5 18.166666666666668 1472.0000000000002 866.83333333333337 1609.5000000000002 52.750000000000007 838.50000000000011 595.75000000000011 45.166666666666679 299.83333333333343 122.50000000000001 5.166666666666667 0 25.500000000000004 1472.0000000000002 -0.24999999999999994 232.75 159.50000000000003 1476.8333333333337 946.50000000000011 20.500000000000004 750.00000000000011 163.50000000000003 30.500000000000004 62.166666666666679 1.0000000180025095e-35 1044.0000000000002 357.16666666666669 9.5000000000000018 2.5000000000000004 0.6830127018922193 10.833333333333334 107.83333333333336 11.500000000000002 0.6830127018922193 43.500000000000007 414.50000000000006 1.5000000000000002 403.50000000000006 156.50000000000003 0.6830127018922193 114.50000000000001 0.93301270189221952 10.500000000000002 254.50000000000003 19.500000000000004 496.50000000000006 -0.24999999999999997 4.5000000000000009 126.50000000000001 59.500000000000007 24.750000000000004 3.5000000000000004 648.83333333333337 218.91666666666669 0.93301270189221952 656.50000000000011 0.93301270189221952 -0.24999999999999997
decision_type=2 2 2 2 2 2 2 2 2 2 2 2 2 2 2 9 2 2 2 2 2 2 2 2 2 2 2 2 2 2 2 2 2 2 2 2 2 2 2 2 2 2 2 2 2 2 2 2 2 2 2 2 2 2 2 2 2 2 2 2 2 2
left_child=1 4 6 8 14 9 10 -7 -3 -4 23 15 19 35 40 16 -6 22 -9 43 -21 -11 28 -2 31 37 54 -13 -8 -24 36 55 -32 45 -16 60 41 38 -15 -25 -1 42 -14 44 -5 -22 49 52 -29 -41 -45 -34 -27 -37 -17 -12 -57 -52 -50 -26 -10 -35
right_child=2 3 5 12 11 7 17 18 13 21 24 27 30 25 34 26 -18 -19 -20 20 33 -23 29 39 59 47 -28 48 -30 -31 32 -33 51 61 -36 53 -38 -39 -40 46 -42 -43 -44 50 -46 -47 -48 -49 58 -51 57 -53 -54 -55 -56 56 -58 -59 -60 -61 -62 -63
leaf_value=-0.82968436180906058 14.388406049051595 27.42614385563369 35.560852886381603 13.613602418484897 29.368144042938948 65.885042339822519 44.075353349958149 113.02563302176338 3.2423814733139134 57.814955444335943 32.191702742803663 1.4760093963854501 18.873907942998979 11.085726801554364 -0.4682127192732975 0.13471212229715579 1.0028615776449443 55.2442190023569 98.866307945251478 21.598674689531329 11.23310388326645 69.901330219615588 51.063613673618867 27.25576690673828 32.04561972845169 10.981469678878785 0.79919489858418347 5.4177309913767715 33.29443366130193 42.550800860369648 11.219243543075793 24.807414852044523 19.124531745910645 10.635692501068116 -0.19095503001057215 7.542268625172702 9.8288509368896495 4.4966232632817071 5.7878673852963924 21.386187518270393 -0.67493231903029383 9.9215400082724443 13.848172259330751 9.062553489071199 9.2194635873360014 13.968252109345935 18.677779100681175 3.135268036524455 2.2863509103889434 24.48907575936153 5.9477844725372968 16.076405895709993 7.2816797056570026 4.2973494432283488 0.41427722082638596 26.905585083594691 30.806133804321291 9.0306161499023432 3.3897906254696588 35.650330556233726 4.5046221956493353 8.5173017087482634
leaf_weight=75647 31 23 21 23 20 23 21 21 1790 30 42 3769 21 21 21742 7935 80 26 20 20 392 22 28 20 21 20 6924 36 24 27 33 39 34 56 14863 22 37 339 1011 76 27452 28 272 87 496 63 29 21 2360 58 93 200 718 690 4398 26 40 30 186 60 127 124
leaf_count=75647 31 23 21 23 20 23 21 21 1790 30 42 3769 21 21 21742 7935 80 26 20 20 392 22 28 20 21 20 6924 36 24 27 33 39 34 56 14863 22 37 339 1011 76 27452 28 272 87 496 63 29 21 2360 58 93 200 718 690 4398 26 40 30 186 60 127 124
internal_value=-1.63126e-09 -0.158341 38.6763 6.79813 -0.443939 72.1553 30.6012 91.6597 4.86413 55.0556 26.339 0.812065 11.4016 4.75509 -0.675066 0.469709 6.06902 45.5528 106.119 10.0185 11.2475 62.9284 43.033 21.395 30.9794 6.16075 0.437253 1.85552 38.3255 46.8846 14.4644 28.9206 15.8642 10.9215 -0.355636 3.61622 13.4205 5.54974 5.89567 22.5819 -0.788479 13.8344 14.2084 8.91423 9.41419 11.6118 22.0084 7.26445 2.4095 22.7292 7.67859 16.5193 7.38195 4.39761 0.234406 30.4059 29.2696 6.69969 2.36696 34.7158 3.326 9.17636
internal_weight=172908 172203 705 6791 165412 137 568 64 4782 73 442 25708 2009 4759 139704 19357 100 126 41 1384 655 52 100 214 228 2130 19257 6351 45 55 625 147 267 635 36605 2629 358 1371 1032 183 103099 321 293 729 519 455 163 759 2582 134 210 234 738 712 12333 108 66 123 2546 81 1917 180
internal_count=172908 172203 705 6791 165412 137 568 64 4782 73 442 25708 2009 4759 139704 19357 100 126 41 1384 655 52 100 214 228 2130 19257 6351 45 55 625 147 267 635 36605 2629 358 1371 1032 183 103099 321 293 729 519 455 163 759 2582 134 210 234 738 712 12333 108 66 123 2546 81 1917 180
cat_boundaries=0 47
cat_threshold=0 0 0 0 128 0 0 0 0 0 0 0 0 0 0 0 0 0 0 0 0 0 0 0 0 0 0 0 0 0 0 0 0 0 0 0 0 0 0 0 0 16 0 0 0 0 1024
is_linear=0
shrinkage=0.05


Tree=3
num_leaves=63
num_cat=0
split_feature=0 0 0 5 0 4 5 0 5 5 3 7 0 6 5 4 1 0 0 7 3 5 5 5 5 0 5 5 6 2 1 0 7 9 3 9 5 4 9 13 3 0 6 3 5 4 5 4 0 13 0 15 9 7 9 0 9 1 5 0 2 0
split_gain=3.91178e+08 1.26274e+08 8.09326e+07 2.43822e+07 1.52763e+07 1.35799e+07 1.26679e+07 8.32366e+06 4.55773e+06 4.06655e+06 3.08052e+06 3.0414e+06 2.43223e+06 3.08422e+06 2.09476e+06 1.9878e+06 4.08131e+06 1.92766e+06 1.05021e+06 1.04884e+06 680735 641412 573779 563975 528713 524567 446367 416422 380943 364499 334833 312969 215924 206459 203964 202091 185313 168134 159306 149009 146249 143712 132118 124811 119787 119656 115846 112014 110979 222928 108013 101150 99413.5 94592.1 92831.7 90810.4 89326.5 134426 79709.3 79527.8 77243.6 74379.8
threshold=482.50000000000006 112.50000000000001 1293.0000000000002 28.166666666666668 246.50000000000003 1589.0000000000002 866.83333333333337 1959.0000000000002 62.166666666666679 9.5000000000000018 1144.5000000000002 567.37500000000011 151.50000000000003 51.083333333333336 341.83333333333343 120.50000000000001 26.500000000000004 1587.5000000000002 1095.0000000000002 324.58333333333343 1263.0000000000002 184.83333333333334 750.00000000000011 2.8333333333333335 40.833333333333336 81.500000000000014 17.166666666666668 120.50000000000001 232.75 493.50000000000006 313.50000000000006 604.50000000000011 89.208333333333357 6.5000000000000009 898.50000000000011 11.500000000000002 147.16666666666671 590.00000000000011 1.5000000000000002 0.93301270189221952 247.50000000000003 45.500000000000007 160.08333333333334 345.50000000000006 310.50000000000006 357.50000000000006 79.833333333333357 231.50000000000003 304.50000000000006 -0.6830127018922193 47.500000000000007 1.0000000180025095e-35 1.5000000000000002 69.041666666666671 10.500000000000002 804.00000000000011 6.5000000000000009 656.50000000000011 163.50000000000003 339.50000000000006 632.50000000000011 968.50000000000011
decision_type=2 2 2 2 2 2 2 2 2 2 2 2 2 2 2 2 2 2 2 2 2 2 2 2 2 2 2 2 2 2 2 2 2 2 2 2 2 2 2 2 2 2 2 2 2 2 2 2 2 2 2 2 2 2 2 2 2 2 2 2 2 2
left_child=1 3 6 9 12 10 11 -7 24 23 -4 30 27 -14 28 26 -17 -12 20 25 34 36 37 -1 -5 41 -11 46 48 38 -2 40 -27 -20 -8 39 -15 -13 -16 44 -32 -10 -29 -40 -30 -31 -3 52 -6 -50 -26 -33 -23 -43 -42 -24 60 -58 -34 -45 -39 -36
right_child=2 4 5 8 14 7 18 -9 19 15 17 22 13 21 29 16 -18 -19 33 -21 -22 47 55 -25 50 32 -28 42 35 45 31 51 58 -35 61 -37 -38 56 43 -41 54 53 -44 59 -46 -47 -48 -49 49 -51 -52 -53 -54 -55 -56 -57 57 -59 -60 -61 -62 -63
leaf_value=-0.77283631206293169 15.941277057647705 1.9294832972786093 47.750821590423584 0.63128235315916736 9.1434934190801673 73.651917957124269 35.278994368016718 115.97523715679463 0.93062173281458849 -0.23482897511010781 59.811440774668817 25.482982404287473 22.731918324157597 5.1160210417162988 10.607053375244142 0.14017286466997722 27.479680244252087 80.513634699041191 53.620433807373047 13.887194850331262 48.683423843383792 6.087800799012185 31.761513960988896 -0.52872332617654116 1.047905245822673 2.7896940855149897 0.16086666853105694 5.0228991591558412 11.453673899326178 16.175788461594355 17.259500221584155 28.056942616338315 3.7188304815253979 46.674317799443784 38.611749134893003 9.2439015012798897 6.6368849029003743 32.558315101036662 14.222815762556994 14.523126665751139 22.430500812295044 1.9651364240022593 6.4155393867116235 13.564621104364811 13.200644621230266 20.878652311626237 3.968736719497207 9.0322042428286746 14.882564626421249 9.1228908958889203 1.502234078615732 23.257330067952477 7.9742133739644832 2.6096672586179226 18.626669540405274 35.218208393297701 24.711050996326264 30.438741226196289 6.6961659846098529 16.767861631439953 28.740009590431498 42.780949401855473
leaf_weight=88589 25 79 24 7183 222 21 32 26 207 17280 23 43 32 279 20 43 20 22 20 21 20 80 38 32282 2444 1168 12130 673 391 21 23 23 994 23 23 66 710 26 154 60 81 1075 228 23 131 38 588 226 28 42 2815 21 550 1210 20 38 21 20 23 123 27 20
leaf_count=88589 25 79 24 7183 222 21 32 26 207 17280 23 43 32 279 20 43 20 22 20 21 20 80 38 32282 2444 1168 12130 673 391 21 23 23 994 23 23 66 710 26 154 60 81 1075 228 23 131 38 588 226 28 42 2815 21 550 1210 20 38 21 20 23 123 27 20
internal_value=1.40039e-08 -0.147212 38.4198 -0.375536 7.87975 76.3365 30.3346 97.0648 1.41119 -0.579231 62.2171 25.8863 6.12781 7.34209 12.4555 -0.0526214 8.81938 69.9325 43.4218 2.73805 40.4872 7.07516 30.0056 -0.707639 0.910173 2.68799 -0.0716264 4.67424 11.1903 15.5936 21.34 22.1434 3.2535 49.9051 38.3016 11.866 6.20784 28.0728 14.9278 12.1633 20.8578 2.19216 5.37531 15.2158 11.8921 19.2048 3.72721 8.07724 9.69085 11.4268 1.2911 25.7662 7.73467 2.30644 21.6773 33.4899 29.2575 27.505 3.78616 16.2632 30.6131 40.5509
internal_weight=172908 172248 660 167484 4764 116 544 47 17140 150344 69 406 3445 1877 1319 29473 63 45 138 4698 95 1845 213 120871 12442 4677 29410 1568 940 379 193 168 2185 43 75 648 989 137 320 582 124 2492 901 300 522 59 667 856 292 70 5259 44 630 2285 101 76 94 41 1017 146 53 43
internal_count=172908 172248 660 167484 4764 116 544 47 17140 150344 69 406 3445 1877 1319 29473 63 45 138 4698 95 1845 213 120871 12442 4677 29410 1568 940 379 193 168 2185 43 75 648 989 137 320 582 124 2492 901 300 522 59 667 856 292 70 5259 44 630 2285 101 76 94 41 1017 146 53 43
is_linear=0
shrinkage=0.05


Tree=4
num_leaves=63
num_cat=0
split_feature=0 0 0 5 0 4 5 0 5 5 5 0 0 5 4 8 2 2 2 4 5 5 0 15 5 0 5 5 4 2 9 15 0 1 12 5 4 8 0 0 9 5 0 15 11 14 0 9 12 14 14 4 1 4 2 2 0 5 5 4 0 0
split_gain=3.53038e+08 1.13963e+08 7.30417e+07 2.20049e+07 1.37869e+07 1.22559e+07 1.14327e+07 7.5121e+06 4.11515e+06 3.68281e+06 2.40232e+06 2.19509e+06 2.68347e+06 1.89052e+06 1.65897e+06 4.03996e+06 1.64589e+06 948008 935177 648751 596014 550304 510816 437015 432128 378872 375821 351462 331783 328961 328185 320355 331519 277462 286129 264207 255903 197446 185008 180997 176676 153293 150584 144496 148198 140401 130504 117967 117041 115901 113271 107691 104953 101714 95865 95414.5 92135 122863 91741.1 85756.2 80054.9 76315.1
threshold=482.50000000000006 112.50000000000001 1293.0000000000002 28.166666666666668 246.50000000000003 1589.0000000000002 866.83333333333337 1959.0000000000002 60.833333333333336 7.8333333333333348 648.83333333333337 151.50000000000003 152.50000000000003 341.83333333333343 120.50000000000001 11.503622617824943 1348.5000000000002 1044.0000000000002 503.50000000000006 535.50000000000011 163.50000000000003 16.500000000000004 81.500000000000014 1.0000000180025095e-35 40.833333333333336 1169.5000000000002 120.50000000000001 1.8333333333333337 590.00000000000011 493.50000000000006 7.5000000000000009 1.0000000180025095e-35 604.50000000000011 511.00000000000006 1.0000000180025095e-35 273.50000000000006 1199.5000000000002 225.36345027393392 804.00000000000011 201.50000000000003 11.500000000000002 101.16666666666667 9.5000000000000018 1.0000000180025095e-35 1.0000000180025095e-35 0.6830127018922193 294.50000000000006 3.5000000000000004 1.0000000180025095e-35 0.6830127018922193 0.25000000000000017 15.500000000000002 46.500000000000007 57.500000000000007 340.50000000000006 243.50000000000003 206.50000000000003 111.83333333333336 141.50000000000003 231.50000000000003 45.500000000000007 316.50000000000006
decision_type=2 2 2 2 2 2 2 2 2 2 2 2 2 2 2 2 2 2 2 2 2 2 2 2 2 2 2 2 2 2 2 2 2 2 2 2 2 2 2 2 2 2 2 2 2 2 2 2 2 2 2 2 2 2 2 2 2 2 2 2 2 2
left_child=1 3 6 9 11 16 10 -7 24 27 19 26 -13 35 21 -16 -4 23 22 31 56 -11 42 -8 -5 30 52 -1 -12 43 -19 32 49 -21 -35 45 -18 -33 48 55 61 -24 -10 -15 54 46 -6 -31 -30 -2 -25 -48 -3 -44 -45 -22 57 -14 -28 -41 -26 -37
right_child=2 4 5 8 13 7 17 -9 18 14 28 12 20 29 15 -17 36 25 -20 33 39 -23 41 50 60 -27 58 -29 38 47 -32 37 -34 34 -36 40 -38 -39 -40 59 -42 -43 53 44 -46 -47 51 -49 -50 -51 -52 -53 -54 -55 -56 -57 -58 -59 -60 -61 -62 -63
leaf_value=-0.74577724973415993 21.196108660490619 1.4276562622299902 49.474891945167826 0.59971823324880469 9.5971213545622653 69.969323149181548 42.733926656971811 110.17647118201624 -1.2522961153703578 -0.27224144284496454 25.796117584521955 20.690034502574377 2.9213405210050674 15.083203686950029 -0.27729490527084899 25.934696851457872 61.395032501220705 39.334085365577984 13.089384090332757 21.424706476384944 6.5055960140344666 0.13573632937952629 2.8004697278416111 36.66831741333008 0.96631357278701724 51.194124145507814 4.6070259583389364 -0.55670465053080442 30.417443621600114 21.143950340964579 47.560947903719814 18.860209392365956 27.058139953613285 31.240839354197188 23.520068740844728 11.250432066518472 69.200756981259303 13.175139528512956 33.303083652403295 7.6176503878295279 8.7412926727870737 3.7016239691089994 1.7493236658817193 16.249227852656926 9.7656246777238529 7.9345858835038685 14.854710635684786 16.520525071427627 26.158282338018001 16.849044011986773 31.701352535594594 10.882448862280164 3.7269993674502291 2.3713088366414703 12.870222179513229 7.9245064103925564 7.7054718795575603 5.4235900635761318 5.6161424273332674 9.0429302054391787 1.37136090266836 12.622434425354005
leaf_weight=79478 46 54 27 7183 270 21 23 26 34 21958 52 35 55 186 49 21 21 27 21 33 594 13255 1522 24 2079 20 455 35583 54 22 22 42 20 24 24 251 21 24 41 411 53 684 1178 29 29 84 21 37 23 23 22 91 613 1487 76 148 38 454 446 142 2952 170
leaf_count=79478 46 54 27 7183 270 21 23 26 34 21958 52 35 55 186 49 21 21 27 21 33 594 13255 1522 24 2079 20 455 35583 54 22 22 42 20 24 24 251 21 24 41 411 53 684 1178 29 29 84 21 37 23 23 22 91 613 1487 76 148 38 454 446 142 2952 170
internal_value=2.29169e-09 -0.139852 36.4988 -0.356759 7.48577 72.5196 28.8179 92.2116 1.34063 -0.55027 24.5919 5.82142 6.97498 11.8328 -0.103383 7.5863 59.1063 41.2507 2.56057 21.3276 6.71438 -0.118669 2.51549 37.1065 0.848616 45.3948 4.44052 -0.687306 29.1236 14.8139 43.0278 19.4325 21.39 24.954 27.3805 10.6308 65.2979 16.7929 30.5899 7.29892 11.4619 3.07988 2.05419 14.1814 12.9296 9.78536 10.1923 18.2445 29.1452 19.7471 34.2928 11.6272 3.54085 2.09638 13.8035 6.78861 5.33051 5.15321 5.10654 7.98364 1.20398 11.8044
internal_weight=172908 172248 660 167484 4764 116 544 47 17140 150344 406 3445 1877 1319 35283 70 69 138 4926 236 1842 35213 4905 69 12214 69 1568 115061 170 379 49 155 89 81 48 940 42 66 118 1295 474 2206 2699 320 134 466 382 59 77 69 46 112 667 2665 105 742 547 509 901 553 5031 421
internal_count=172908 172248 660 167484 4764 116 544 47 17140 150344 406 3445 1877 1319 35283 70 69 138 4926 236 1842 35213 4905 69 12214 69 1568 115061 170 379 49 155 89 81 48 940 42 66 118 1295 474 2206 2699 320 134 466 382 59 77 69 46 112 667 2665 105 742 547 509 901 553 5031 421
is_linear=0
shrinkage=0.05


Tree=5
num_leaves=63
num_cat=1
split_feature=0 0 0 5 0 0 5 5 5 7 0 5 5 17 8 9 7 0 9 3 5 7 5 5 5 0 5 2 1 7 0 9 13 3 8 7 0 9 9 0 5 3 3 9 13 3 5 3 0 1 0 5 9 9 0 0 9 5 1 8 2 7
split_gain=3.18617e+08 1.02851e+08 6.59201e+07 1.98794e+07 1.24426e+07 1.09592e+07 1.0318e+07 3.77816e+06 3.29925e+06 2.49799e+06 1.98107e+06 2.63144e+06 1.7062e+06 1.18245e+06 4.75022e+06 1.11122e+06 881037 869838 622017 585176 556028 549208 476446 413734 388968 343924 339178 296887 283647 281368 257663 187129 180848 248148 163523 155801 150811 141709 136775 134859 133291 124458 108811 106465 103540 102184 97097.6 87123.2 86211 83552 92867.7 80869.6 78312.5 77292.1 74080.7 74078.2 72432.2 70737.9 67461.4 67414.2 66446.1 65258.7
threshold=482.50000000000006 112.50000000000001 1293.0000000000002 30.500000000000004 246.50000000000003 1959.0000000000002 866.83333333333337 10.500000000000002 65.833333333333357 567.37500000000011 151.50000000000003 84.500000000000014 341.83333333333343 0 16.703293088490117 7.5000000000000009 324.58333333333343 1095.0000000000002 6.5000000000000009 1263.0000000000002 3.8333333333333335 170.29166666666671 750.00000000000011 45.166666666666679 19.166666666666668 85.500000000000014 120.50000000000001 493.50000000000006 313.50000000000006 242.625 604.50000000000011 6.5000000000000009 -0.5 898.50000000000011 98.573148649357165 97.458333333333357 44.500000000000007 11.500000000000002 1.5000000000000002 211.50000000000003 147.16666666666671 247.50000000000003 345.50000000000006 3.5000000000000004 0.93301270189221952 194.50000000000003 79.833333333333357 19.500000000000004 50.500000000000007 257.50000000000006 334.50000000000006 1.1666666666666667 5.5000000000000009 10.500000000000002 804.00000000000011 651.50000000000011 11.500000000000002 310.50000000000006 606.50000000000011 119.10988608322738 217.50000000000003 75.875000000000014
decision_type=2 2 2 2 2 2 2 2 2 2 2 2 2 9 2 2 2 2 2 2 2 2 2 2 2 2 2 2 2 2 2 2 2 2 2 2 2 2 2 2 2 2 2 2 2 2 2 2 2 2 2 2 2 2 2 2 2 2 2 2 2 2
left_child=1 3 6 7 10 15 9 20 23 28 26 -12 29 14 -9 -4 25 19 -7 32 51 40 34 -5 -15 36 46 38 -2 49 41 -19 -8 -34 55 -27 -10 44 -14 56 -13 -30 -40 -29 57 47 -3 -28 -25 50 -6 -1 -44 -43 -24 -11 -23 -31 -36 -32 -37 -38
right_child=2 4 5 8 12 18 17 13 16 22 11 21 27 24 -16 -17 -18 31 -20 -21 -22 39 54 48 -26 35 45 43 30 37 59 -33 33 -35 58 60 61 -39 42 -41 -42 53 52 -45 -46 -47 -48 -49 -50 -51 -52 -53 -54 -55 -56 -57 -58 -59 -60 -61 -62 -63
leaf_value=-0.71587681394190716 14.273231396436692 1.7179678967481928 61.733489766935023 0.69037811784892811 8.2641981529778459 81.222769393920899 37.672032873971119 0.60243795212913076 0.64813632490286921 22.619287352128463 20.409692330921398 4.4927592060638473 9.4687739086151126 -0.15896956533331502 27.437373142242436 48.944762183879988 12.789879834084283 48.625654487609864 92.951431949322057 44.116647949218752 -0.43676300155866116 6.9125643613637457 28.709560856066254 1.0525214619644745 0.22343739582528124 2.672150248731636 1.4506881152590116 20.086752891540527 15.495726577095363 10.47330567987435 25.055418205261233 42.012686422596808 28.884698386814286 36.152536137898764 25.70540611960671 3.5389634898402216 1.9764883334838368 8.544632516588484 12.812043016607113 7.9909081604422596 5.8523840005342151 20.258414807731725 16.371832656860352 15.694498649803368 13.183515634207891 6.1140909462728921 3.5849274720464437 4.7163517673169419 1.5073634589670468 10.026155148311096 11.062275045058307 -0.61031326846820022 13.906768074814156 16.78752628326416 31.831654036672489 25.488952603547471 5.0503134376124335 11.954924654753313 29.50174784088135 21.124886856079101 6.2718852250472361 2.5233327946461088
leaf_weight=71210 25 79 41 7004 232 20 28 94 161 44 34 263 20 17220 20 29 21 20 26 20 28330 622 38 1806 10833 1091 21 22 23 269 24 23 23 24 22 674 1160 56 154 328 573 81 48 37 58 136 588 744 2462 176 34 24345 98 20 38 46 57 115 25 20 23 1030
leaf_count=71210 25 79 41 7004 232 20 28 94 161 44 34 263 20 17220 20 29 21 20 26 20 28330 622 38 1806 10833 1091 21 22 23 269 24 23 23 24 22 674 1160 56 154 328 573 81 48 37 58 136 588 744 2462 176 34 24345 98 20 38 46 57 115 25 20 23 1030
internal_value=2.40243e-09 -0.132859 34.6738 -0.338921 7.11148 68.8937 27.377 -0.512461 1.37098 23.3623 5.53035 6.62623 11.2411 0.0102396 4.88207 56.4353 2.57441 39.1881 87.852 36.5175 -0.631305 6.37195 27.0956 0.926844 -0.0112945 2.52258 4.2185 14.0732 19.2422 10.0992 19.9816 45.0885 34.491 32.5959 25.3343 3.04521 2.1251 10.9142 13.4723 7.15839 5.42466 18.8152 13.7392 17.3323 11.2144 4.85122 3.3638 4.62671 1.3149 9.18103 8.62185 -0.688982 14.7172 19.5711 30.2706 24.086 6.75623 10.917 27.7247 23.2688 3.62915 2.23368
internal_weight=172908 172248 660 167484 4764 116 544 152052 15432 406 3445 1877 1319 28167 114 70 4160 138 46 95 123885 1843 213 11272 28053 4139 1568 379 193 940 168 43 75 47 137 1788 2351 498 320 1007 836 124 300 59 442 901 667 765 4268 442 266 95555 146 101 76 90 679 384 47 44 697 2190
internal_count=172908 172248 660 167484 4764 116 544 152052 15432 406 3445 1877 1319 28167 114 70 4160 138 46 95 123885 1843 213 11272 28053 4139 1568 379 193 940 168 43 75 47 137 1788 2351 498 320 1007 836 124 300 59 442 901 667 765 4268 442 266 95555 146 101 76 90 679 384 47 44 697 2190
cat_boundaries=0 31
cat_threshold=0 0 0 0 2684354688 0 0 0 0 67108864 0 0 0 0 0 0 0 0 0 0 0 0 0 0 0 0 0 0 0 0 8388608
is_linear=0
shrinkage=0.05


Tree=6
num_leaves=63
num_cat=1
split_feature=0 5 0 0 0 6 5 4 6 5 5 0 5 6 5 4 17 4 3 14 4 0 7 0 5 7 14 5 5 7 5 5 0 14 5 9 0 6 14 0 4 4 8 14 0 2 0 5 8 5 6 2 4 8 6 9 0 9 8 4 4 8
split_gain=2.87573e+08 9.1137e+07 6.13475e+07 1.63173e+07 1.28123e+07 1.27476e+07 7.37633e+06 6.75823e+06 3.7888e+06 3.22821e+06 2.1067e+06 1.86386e+06 1.68877e+06 1.27377e+06 1.09241e+06 1.06973e+06 993697 5.04964e+06 816874 593868 509875 506255 472411 446643 437308 424538 377418 363980 312818 258197 242818 241532 241481 237321 206414 198266 183233 174619 140931 125404 122160 120138 111784 108035 105242 103032 101847 99768.4 98525.2 95539.8 89822.3 81061.2 75783.7 75668.6 74025.9 69113.5 67575.3 99306.8 64342.9 60907.6 82305.1 58975
threshold=469.00000000000006 83.166666666666671 1169.5000000000002 223.50000000000003 1959.0000000000002 20.083333333333339 750.00000000000011 1589.0000000000002 54.583333333333336 141.50000000000003 49.833333333333336 312.50000000000006 6.166666666666667 595.75000000000011 866.83333333333337 1589.0000000000002 0 77.500000000000014 550.00000000000011 0.25000000000000017 1589.0000000000002 968.50000000000011 324.58333333333343 122.50000000000001 35.166666666666679 204.04166666666669 0.6830127018922193 107.83333333333336 501.83333333333337 170.29166666666671 13.833333333333334 454.16666666666669 66.500000000000014 1.0000000180025095e-35 247.5 9.5000000000000018 257.50000000000006 1.7500000000000002 0.6830127018922193 169.50000000000003 50.500000000000007 27.500000000000004 59.503501231619261 0.6830127018922193 33.500000000000007 291.50000000000006 122.50000000000001 273.50000000000006 149.05759384809718 325.16666666666669 27.083333333333339 300.50000000000006 53.500000000000007 119.10988608322738 111.25000000000001 11.500000000000002 628.50000000000011 3.5000000000000004 41.581245772583458 656.50000000000011 912.50000000000011 63.793938892064062
decision_type=2 2 2 2 2 2 2 2 2 2 2 2 2 2 2 2 9 2 2 2 2 2 2 2 2 2 2 2 2 2 2 2 2 2 2 2 2 2 2 2 2 2 2 2 2 2 2 2 2 2 2 2 2 2 2 2 2 2 2 2 2 2
left_child=1 5 6 8 15 12 13 -6 -3 27 16 25 37 26 59 19 17 40 23 48 21 43 38 34 50 -5 28 55 -2 -25 -14 51 52 -30 -11 56 -27 -1 41 54 -7 -13 -28 -16 -32 -40 61 -43 -4 -38 -18 -24 58 -23 -34 -10 -15 -58 -12 -8 -61 -29
right_child=2 3 4 11 7 10 14 -9 9 18 32 22 30 35 20 -17 24 -19 -20 -21 -22 53 31 29 -26 36 42 46 33 -31 44 -33 39 -35 -36 -37 49 -39 45 -41 -42 47 -44 -45 -46 -47 -48 -49 -50 -51 -52 -53 -54 -55 -56 -57 57 -59 -60 60 -62 -63
leaf_value=-0.67501690089505928 17.051105764816548 24.89784379222203 49.385475463867188 7.1620275647365137 61.60801333427429 0.32259687839564188 25.880650893501617 100.26818354679989 2.8025600360035896 3.878419903129529 1.2130809342118032 14.307572503523396 -0.32365951929509573 23.561827825245103 32.585690798078268 59.881810760498048 0.16149732557277177 28.104143850803379 15.535831524076919 42.372729274204801 42.872592582702637 36.077513415996847 16.121848640441893 5.2244522633546024 0.81865197595968076 8.2104156391961247 16.329221666776217 3.4612119349859714 19.761440525054933 6.4486637697636597 -0.072802748940370435 17.151662982593884 1.9821661728300441 26.121659393310548 -1.2929357410831885 20.915998797946507 9.7586029411554343 -0.53305823834916433 6.6935866323010673 5.9906440162658692 4.4270881666378541 8.9689531644185383 11.543949798915698 27.841499328613281 0.66433497359242855 10.515373149447973 4.2172526964313759 11.587240379735043 54.348469390869141 12.557708220048385 0.4339674709472025 12.78098838922336 1.6447001074220482 40.168283691406252 4.9659138214020508 1.788109727476233 29.042016092936201 24.847269688096159 0.0068527179167551149 30.406693098280165 26.577614626677139 1.4102341124334852
leaf_weight=77844 87 22 20 325 20 103 23 26 1725 157 1558 33 23827 38 28 26 6961 20 21 28 20 26 20 821 5427 224 26 665 55 906 10339 44 2053 20 22 36 400 30015 29 20 22 45 23 21 508 45 663 190 20 33 5349 197 1226 20 21 186 21 43 119 36 23 37
leaf_count=77844 87 22 20 325 20 103 23 26 1725 157 1558 33 23827 38 28 26 6961 20 21 28 20 26 20 821 5427 224 26 665 55 906 10339 44 2053 20 22 36 400 30015 29 20 22 45 23 21 508 45 663 190 20 33 5349 197 1226 20 21 186 21 43 119 36 23 37
internal_value=-4.30882e-09 -0.128693 32.3086 5.54 61.837 -0.362072 24.7373 83.4594 4.19199 4.10444 0.733497 9.98375 -0.53793 20.371 32.4725 51.2558 0.479868 4.46907 5.72833 47.9576 35.6166 34.089 12.1718 5.62027 0.444486 8.64016 17.9281 3.14925 19.0911 5.86668 -0.234385 13.7738 1.64112 21.4575 3.24283 24.1061 9.37135 -0.635513 10.9492 2.05037 1.04499 11.4826 14.0831 30.5525 -0.0382802 9.01765 3.77284 11.0859 51.867 9.97193 0.279892 13.0889 1.34592 37.8561 2.01238 2.70382 25.232 26.2237 1.12749 28.0632 28.914 3.35311
internal_weight=172908 172222 686 6810 140 165412 546 46 5225 5203 22879 1585 142533 349 197 94 17882 145 1927 68 115 95 603 1906 17737 982 211 3276 162 1727 34674 261 4997 75 179 138 657 107859 342 2094 125 268 49 49 10847 74 1365 235 40 433 12310 217 2903 46 2074 1911 102 64 1677 82 59 702
internal_count=172908 172222 686 6810 140 165412 546 46 5225 5203 22879 1585 142533 349 197 94 17882 145 1927 68 115 95 603 1906 17737 982 211 3276 162 1727 34674 261 4997 75 179 138 657 107859 342 2094 125 268 49 49 10847 74 1365 235 40 433 12310 217 2903 46 2074 1911 102 64 1677 82 59 702
cat_boundaries=0 42
cat_threshold=0 0 0 0 128 0 0 0 0 1 0 0 0 0 0 0 0 0 0 0 32768 4 0 0 0 0 0 0 0 0 0 0 0 0 0 0 0 0 0 0 0 16
is_linear=0
shrinkage=0.05


Tree=7
num_leaves=63
num_cat=1
split_feature=6 6 1 6 4 6 1 1 17 14 6 3 6 6 6 1 1 1 8 14 1 6 15 8 6 4 3 14 6 13 9 1 3 8 14 1 1 4 3 6 4 13 1 6 6 8 6 1 15 1 3 13 3 6 6 15 6 1 3 13 9 1
split_gain=2.54353e+08 8.08594e+07 4.50732e+07 1.52697e+07 1.12151e+07 1.0932e+07 6.42703e+06 6.22301e+06 5.38531e+06 9.28567e+06 3.46312e+06 2.60297e+06 2.17145e+06 1.63998e+06 1.51998e+06 1.39375e+06 1.27621e+06 817979 780736 682382 632619 505206 473179 417179 377009 358449 342799 309583 298627 297279 285832 279051 312285 278672 249829 233254 209305 327491 190081 187314 173462 172402 168946 168564 163768 156239 148895 144290 141030 138960 126330 109769 105325 115374 98243.7 94063.3 93128.7 91315.9 87620.7 80765.3 68882 66044.6
threshold=463.16666666666674 100.08333333333336 1186.5000000000002 20.083333333333339 1472.0000000000002 218.91666666666669 772.50000000000011 1609.5000000000002 0 -0.5 52.750000000000007 838.50000000000011 595.75000000000011 153.41666666666671 6.2500000000000009 329.50000000000006 946.50000000000011 97.500000000000014 225.36345027393392 -0.24999999999999994 532.00000000000011 35.083333333333336 1.0000000180025095e-35 119.10988608322738 381.58333333333343 1472.0000000000002 140.50000000000003 0.6830127018922193 70.916666666666671 -0.6830127018922193 9.5000000000000018 107.50000000000001 36.500000000000007 149.05759384809718 0.6830127018922193 496.50000000000006 551.50000000000011 365.50000000000006 898.50000000000011 12.250000000000002 703.50000000000011 -0.5 146.50000000000003 119.25000000000001 1.9166666666666667 119.10988608322738 38.416666666666679 21.500000000000004 1.0000000180025095e-35 439.50000000000006 250.50000000000003 -0.24999999999999997 48.500000000000007 184.41666666666669 136.25000000000003 1.0000000180025095e-35 27.083333333333339 52.500000000000007 496.50000000000006 -0.24999999999999997 3.5000000000000004 121.50000000000001
decision_type=2 2 2 2 2 2 2 2 9 2 2 2 2 2 2 2 2 2 2 2 2 2 2 2 2 2 2 2 2 2 2 2 2 2 2 2 2 2 2 2 2 2 2 2 2 2 2 2 2 2 2 2 2 2 2 2 2 2 2 2 2 2
left_child=1 3 6 14 11 13 12 -6 9 -5 21 -4 36 31 44 17 38 -7 20 -9 -14 56 -13 28 33 48 -19 42 -12 -25 45 47 41 49 50 60 37 -2 51 -16 58 43 -28 -33 -1 -22 -11 -3 -18 55 52 -8 -15 -54 -34 -17 -10 -30 -39 -29 -26 -52
right_child=2 5 4 8 7 15 16 19 10 46 23 22 18 34 39 24 25 26 -20 -21 30 -23 -24 29 35 -27 27 59 57 -31 -32 32 54 -35 -36 -37 -38 40 -40 -41 -42 -43 -44 -45 -46 -47 -48 -49 -50 -51 61 -53 53 -55 -56 -57 -58 -59 -60 -61 -62 -63
leaf_value=-0.63980848454286188 9.7504672088623057 -0.59716646013588748 27.578507146835332 34.238372523030812 50.857697694197952 -1.2600214367821103 28.241228841145837 89.646803792317712 0.16773406618725833 -0.74210959052046144 1.491017036180577 44.034230745755707 14.799470782279968 9.9094751346111298 -0.31710737045889337 11.93538245313308 36.868664957682292 13.802133086323739 32.526018540755565 76.742009963989261 24.085609486228542 0.83485127813766613 53.573409210718594 9.5775261330604557 10.197129321098329 41.706343286687684 5.0515262451171878 8.2165437680199034 1.0672580360187383 2.3457150536554834 20.354186807027677 6.0714040148258208 3.6051840392465468 5.8926877627005947 4.7214558462110849 17.706145095825196 18.630621029780464 15.649237218499184 30.827020662481136 -0.07892062898984481 12.1885817527771 4.648997627883344 9.2348938992581022 12.48527241661435 -0.50039564094884159 28.399351396231818 4.0983246977024894 3.0006126775502828 32.226872995164662 15.113015088168058 2.3715726452214376 23.963982734680176 5.7953229676648448 6.8799597130185948 4.5022525063777676 10.110876703850266 0.4437915604120366 2.3069110645482716 19.321197810317532 6.4567433847937483 13.447840976715089 5.2631448731493595
leaf_weight=79607 25 29 20 34 23 21 30 21 7187 24 2788 26 22 20 20432 136 30 32 23 20 76 6277 26 30 20 22 25 105 158 27 41 20 1012 26 416 32 52 32 33 13849 20 37 697 21 28645 29 47 714 36 22 28 30 591 419 437 147 5314 2485 33 172 88 67
leaf_count=79607 25 29 20 34 23 21 30 21 7187 24 2788 26 22 20 20432 136 30 32 23 20 76 6277 26 30 20 22 25 105 158 27 41 20 1012 26 416 32 52 32 33 13849 20 37 697 21 28645 29 47 714 36 22 28 30 591 419 437 147 5314 2485 33 172 88 67
internal_value=6.44857e-09 -0.119606 30.7474 -0.313277 56.445 5.94047 24.2026 71.6742 0.843298 11.6427 0.791444 42.9079 20.2748 4.50952 -0.511034 9.52112 31.8631 8.50904 23.8864 83.3518 22.7036 0.468856 48.8038 1.89667 11.7816 36.1792 8.70803 8.54485 1.85201 6.15193 23.8946 3.65493 4.04163 10.8617 5.76839 13.9568 16.0167 14.781 27.779 -0.220884 16.2606 7.12348 9.09004 9.35656 -0.602918 25.277 2.46212 2.86019 34.3368 11.2852 6.15552 26.1026 6.31644 6.24529 3.87573 10.9877 0.285082 2.2328 17.5135 7.12382 12.8459 4.41089
internal_weight=172908 172238 670 166904 136 5334 534 64 24371 105 24266 72 353 3811 142533 1523 181 1052 191 41 168 18778 52 5488 471 88 1031 999 5431 57 146 2270 1527 331 1541 140 162 110 93 34281 85 78 722 41 108252 105 71 743 66 305 1125 60 1030 1010 1449 283 12501 2643 65 277 108 95
internal_count=172908 172238 670 166904 136 5334 534 64 24371 105 24266 72 353 3811 142533 1523 181 1052 191 41 168 18778 52 5488 471 88 1031 999 5431 57 146 2270 1527 331 1541 140 162 110 93 34281 85 78 722 41 108252 105 71 743 66 305 1125 60 1030 1010 1449 283 12501 2643 65 277 108 95
cat_boundaries=0 21
cat_threshold=2 0 0 0 65664 2147483648 0 0 0 0 0 0 0 0 0 0 0 0 0 0 128
is_linear=0
shrinkage=0.05


Tree=8
num_leaves=63
num_cat=1
split_feature=0 0 0 5 4 0 5 0 6 5 7 2 5 17 4 0 6 2 4 5 5 0 5 15 5 0 0 2 6 10 0 11 15 5 4 7 0 4 12 2 13 6 4 11 4 4 4 15 4 13 2 5 6 4 1 2 10 13 0 0 5 0
split_gain=2.35252e+08 7.59636e+07 4.93334e+07 1.60994e+07 8.92402e+06 7.71627e+06 7.43988e+06 5.2747e+06 2.91178e+06 2.85455e+06 1.79027e+06 1.27468e+06 1.12382e+06 1.09016e+06 5.68682e+06 971526 2.59597e+06 679278 670804 498213 404913 380417 357206 338038 304417 302874 237024 231968 227206 213389 205257 315166 254788 188670 184697 161505 143098 142985 199236 145279 141833 120596 120403 105594 101071 99897.4 94279.7 90055.7 83660 266904 107715 82258.2 81817.4 80094.3 78850.4 77793.4 77445.7 66507 65950.4 65542.4 63021.5 60244.1
threshold=482.50000000000006 122.50000000000001 1293.0000000000002 31.166666666666668 1589.0000000000002 257.50000000000006 866.83333333333337 1959.0000000000002 8.9166666666666696 65.833333333333357 567.37500000000011 1348.5000000000002 341.83333333333343 0 48.500000000000007 151.50000000000003 51.083333333333336 1044.0000000000002 420.50000000000006 184.83333333333334 18.500000000000004 86.500000000000014 750.00000000000011 1.0000000180025095e-35 2.5000000000000004 47.500000000000007 1169.5000000000002 493.50000000000006 232.75 2.5000000000000004 628.50000000000011 1.0000000180025095e-35 1.0000000180025095e-35 104.50000000000001 1199.5000000000002 105.37500000000001 1.5000000000000002 590.00000000000011 1.0000000180025095e-35 632.50000000000011 0.93301270189221952 209.41666666666669 147.50000000000003 1.0000000180025095e-35 53.500000000000007 357.50000000000006 182.50000000000003 1.0000000180025095e-35 49.500000000000007 -0.6830127018922193 138.50000000000003 53.166666666666679 37.916666666666679 758.50000000000011 485.50000000000006 436.50000000000006 3.5000000000000004 0.93301270189221952 220.50000000000003 804.00000000000011 281.83333333333343 173.50000000000003
decision_type=2 2 2 2 2 2 2 2 2 2 2 2 2 9 2 2 2 2 2 2 2 2 2 2 2 2 2 2 2 2 2 2 2 2 2 2 2 2 2 2 2 2 2 2 2 2 2 2 2 2 2 2 2 2 2 2 2 2 2 2 2 2
left_child=1 3 6 8 11 15 10 -6 24 25 30 -4 28 14 -10 33 -17 23 21 42 -15 36 37 -8 -1 52 29 43 48 -19 31 56 -32 -3 -13 -23 -11 -12 39 -39 60 -35 -18 54 -38 -29 -21 -45 49 -7 -51 -27 -5 -40 55 -14 -2 -37 -48 -24 -30 -44
right_child=2 5 4 9 7 12 17 -9 13 18 22 34 27 20 -16 16 19 26 -20 46 -22 35 59 -25 -26 51 -28 45 40 -31 32 -33 -34 41 -36 57 44 38 53 -41 -42 -43 61 47 -46 -47 58 -49 -50 50 -52 -53 -54 -55 -56 -57 -58 -59 -60 -61 -62 -63
leaf_value=-0.60270617772695922 17.542124636201972 2.2524433453740746 39.475838611744074 0.44592960662816356 57.563095674060641 12.242106680436569 34.95269178307575 91.254679283728976 -0.44948072155437818 -2.3978897261619569 19.320050004471181 50.08494564238049 11.441078850413055 -0.17390038114679518 29.286537519693379 19.935232767462733 4.2947577869881206 31.638917508332629 10.996045539595865 5.882090358093194 0.18793865050446384 2.4186846661479029 24.514164974814967 27.528755345551868 -0.4249909758581793 0.95248344345939584 41.606269836425781 12.331859606788273 8.366354366902554 38.250463250967179 23.388826335560193 10.163935689492661 15.862371656169064 4.0631082371218721 56.716348847888767 3.1740389333798422 1.386474940108994 27.837203780464506 22.529532165527343 22.516004101983434 11.779495947701591 6.7190575912263659 4.8504271573102624 11.791574371337891 2.0746844830534448 16.649539844409841 6.3288821297928806 7.6628631830215461 6.8295861882651412 3.8189131362871693 8.8888860511779786 1.4141072310435292 0.78906611702344875 18.157643352855338 14.995368666875931 14.019963982525994 14.92767243052638 4.8157256617265594 7.4836905367962734 27.450830037970292 9.51861305437731 6.0039782708467442
leaf_weight=85612 83 145 27 3626 21 33 23 26 82 20 43 21 209 20988 20 32 546 23 22 478 12241 1479 38 46 33536 2138 20 21 178 26 22 22 23 851 21 665 794 23 20 29 56 45 239 25 1626 37 266 28 149 22 20 1759 3335 22 21 34 43 68 231 38 356 215
leaf_count=85612 83 145 27 3626 21 33 23 26 82 20 43 21 209 20988 20 32 546 23 22 478 12241 1479 38 46 33536 2138 20 21 178 26 22 22 23 851 21 665 794 23 20 29 56 45 239 25 1626 37 266 28 149 22 20 1759 3335 22 21 34 43 68 231 38 356 215
internal_value=-1.02767e-08 -0.114163 29.7944 -0.280909 59.3976 6.49787 23.4819 76.201 -0.437121 1.25264 20.0729 47.9518 9.91421 -0.0240134 4.90065 5.16519 5.80809 33.5114 2.28577 5.57919 -0.0405928 2.24458 23.2334 30.0034 -0.552686 0.807911 37.0193 12.179 8.87086 35.1471 16.5849 15.6858 19.542 3.92571 53.4006 2.71946 1.81407 21.7083 22.8008 24.8696 9.38557 4.1965 4.79505 11.6471 1.84888 15.0862 6.38344 9.61037 7.51514 8.87711 6.23319 1.16085 0.610326 20.2395 12.0559 11.8019 16.6499 3.32634 6.86562 25.9825 9.13453 5.39671
internal_weight=172908 172248 660 168011 116 4237 544 47 152479 15532 406 69 1189 33331 102 3048 2007 138 4674 1975 33229 4652 213 69 119148 10858 69 375 814 49 193 148 45 1041 42 2212 2440 137 94 52 590 896 1000 317 2420 58 975 53 224 75 42 3897 6961 42 264 243 126 733 497 76 534 454
internal_count=172908 172248 660 168011 116 4237 544 47 152479 15532 406 69 1189 33331 102 3048 2007 138 4674 1975 33229 4652 213 69 119148 10858 69 375 814 49 193 148 45 1041 42 2212 2440 137 94 52 590 896 1000 317 2420 58 975 53 224 75 42 3897 6961 42 264 243 126 733 497 76 534 454
cat_boundaries=0 22
cat_threshold=0 0 0 0 536871040 0 0 0 0 0 1048576 0 0 0 0 0 0 0 0 0 0 4
is_linear=0
shrinkage=0.05


Tree=9
num_leaves=63
num_cat=1
split_feature=0 0 0 6 0 4 1 0 6 3 0 6 6 6 0 0 6 17 4 0 7 4 1 0 6 0 0 7 4 6 6 1 10 14 0 0 2 6 13 6 6 13 8 10 1 6 4 14 15 11 0 0 1 8 0 6 3 14 0 1 2 14
split_gain=2.12357e+08 6.71839e+07 4.58818e+07 1.20886e+07 8.97027e+06 8.05393e+06 6.02375e+06 4.76042e+06 2.84226e+06 2.43047e+06 1.83133e+06 1.80859e+06 2.9766e+06 1.64972e+06 1.4693e+06 1.26762e+06 1.24107e+06 1.03699e+06 5.00345e+06 924910 801194 661683 538114 506140 438916 382236 317415 306095 259616 245270 227627 204798 189982 185768 174035 173564 166450 155700 142597 138837 134149 119819 116520 111159 124449 106965 100900 91492.5 89927.9 141539 88464.2 87188 86145.4 83191.5 83132.2 82513.4 78160.3 77971.4 76048.5 75489.5 66616.6 66202.3
threshold=469.00000000000006 104.50000000000001 1293.0000000000002 20.083333333333339 246.50000000000003 1589.0000000000002 772.50000000000011 1959.0000000000002 56.583333333333336 1144.5000000000002 143.50000000000003 51.083333333333336 38.416666666666679 595.75000000000011 968.50000000000011 1587.5000000000002 6.2500000000000009 0 66.500000000000014 334.50000000000006 931.12500000000011 574.50000000000011 989.00000000000011 37.500000000000007 184.41666666666669 67.500000000000014 839.00000000000011 388.79166666666669 912.50000000000011 100.08333333333336 218.91666666666669 313.50000000000006 1.5000000000000002 -0.5 6.5000000000000009 15.500000000000002 1044.0000000000002 136.25000000000003 0.93301270189221952 92.750000000000014 1.2500000000000002 -0.24999999999999997 84.031736664595044 2.5000000000000004 551.50000000000011 27.083333333333339 129.50000000000003 0.6830127018922193 1.0000000180025095e-35 1.0000000180025095e-35 804.00000000000011 40.500000000000007 186.50000000000003 46.162755550335085 208.50000000000003 40.916666666666679 404.50000000000006 0.93301270189221952 544.50000000000011 329.50000000000006 318.50000000000006 -0.5
decision_type=2 2 2 2 2 2 2 2 2 2 2 2 2 2 2 2 2 9 2 2 2 2 2 2 2 2 2 2 2 2 2 2 2 2 2 2 2 2 2 2 2 2 2 2 2 2 2 2 2 2 2 2 2 2 2 2 2 2 2 2 2 2
left_child=1 3 6 16 10 9 13 -7 17 -4 29 12 -12 31 21 -11 40 18 -5 30 25 -8 50 45 37 34 32 48 -16 53 -6 -2 -15 -34 -10 -18 -30 54 57 -27 -1 -35 -29 44 -33 -19 -31 56 -21 61 -23 -37 -48 -3 -13 -25 -26 59 -45 -32 -49 -50
right_child=2 4 5 8 19 7 14 -9 20 15 11 24 -14 26 28 -17 35 23 -20 27 -22 22 -24 55 47 39 -28 42 36 46 38 43 33 41 -36 51 -38 -39 -40 -41 -42 -43 -44 58 -46 -47 52 60 49 -51 -52 -53 -54 -55 -56 -57 -58 -59 -60 -61 -62 -63
leaf_value=-0.58445702037379499 11.157414977197295 2.4791742602342488 32.704583009084068 0.89229800106770429 6.6222654643715648 54.684941028413327 17.855295164688776 86.691945002629211 -1.0469091327488422 44.199954422660497 2.1652120208740238 3.3386764107306313 29.444330194592478 24.033606328190984 39.03375367664156 60.987825012207033 -0.26572904680157677 0.11971346523606569 28.138102732673289 11.108634836117776 11.786197876930238 23.200133803396515 33.611843078613283 0.62579384837895047 6.4610756201913748 1.8992172512620122 27.014130401611329 12.552757866702862 29.362124363581344 3.1181743685051662 8.2074842148096607 15.933646286010742 22.563912903635128 19.984432950701034 1.3313555182046608 -0.03618926392812255 34.834632457386363 4.8276228715372449 11.02636929264775 2.6464597948384707 -0.46695837622254166 15.452277450561525 16.821145357404436 13.746624397870267 20.377682179990025 0.40538169610024061 3.8088999645956814 4.9749678606640053 11.542855783609244 6.0990883918908931 26.678063778760958 0.88800141717884484 5.9391183272847599 0.77329794746111424 5.8395870704908637 0.99107534257707874 4.2451956804408582 6.6796919292873813 16.448853960702586 9.6038040176151327 7.5806601135819056 9.3746294572812712
leaf_weight=71446 27 449 24 107 196 21 23 26 80 23 20 326 20 37 21 22 25415 6679 20 171 20 33 25 3089 534 2056 26 67 24 749 407 50 38 35 2000 8600 33 864 54 891 36806 25 21 66 23 6433 454 268 52 26 41 263 53 85 37 3095 43 63 43 127 27 109
leaf_count=71446 27 449 24 107 196 21 23 26 80 23 20 326 20 37 21 22 25415 6679 20 171 20 33 25 3089 534 2056 26 67 24 749 407 50 38 35 2000 8600 33 864 54 891 36806 25 21 66 23 6433 454 268 52 26 41 263 53 85 37 3095 43 63 43 127 27 109
internal_value=5.12817e-09 -0.110589 27.7637 -0.285219 5.47409 56.4277 21.9304 72.3909 0.741461 45.5542 4.28528 5.27277 15.8048 18.1513 28.9216 52.4074 -0.461483 0.46677 4.80466 9.08649 1.79859 25.4949 27.2697 0.435504 5.07207 1.75885 21.9553 10.9294 34.2813 3.10525 8.1161 15.221 20.981 19.8285 1.23988 -0.199288 32.5304 4.46254 8.56586 2.12514 -0.544507 18.096 13.5714 15.8239 17.3338 0.259868 3.48688 5.92973 10.2799 9.52214 25.1271 -0.0087649 4.03159 2.20764 3.59359 0.808612 6.29594 8.3433 14.8126 8.53957 5.21345 10.0749
internal_weight=172908 172222 686 167000 5222 116 570 47 24470 69 3929 2139 40 370 200 45 142530 19423 127 1293 5047 122 99 19296 2099 5027 161 446 78 1790 847 209 135 98 2080 34278 57 1227 651 2947 108252 60 88 182 73 13112 1256 872 358 187 74 8863 507 534 363 6184 577 597 109 534 295 161
internal_count=172908 172222 686 167000 5222 116 570 47 24470 69 3929 2139 40 370 200 45 142530 19423 127 1293 5047 122 99 19296 2099 5027 161 446 78 1790 847 209 135 98 2080 34278 57 1227 651 2947 108252 60 88 182 73 13112 1256 872 358 187 74 8863 507 534 363 6184 577 597 109 534 295 161
cat_boundaries=0 42
cat_threshold=0 0 0 0 128 0 0 0 0 0 0 0 32768 0 0 0 0 0 0 0 0 0 0 0 0 0 0 0 0 0 0 0 0 0 0 0 0 0 0 0 0 16
is_linear=0
shrinkage=0.05


Tree=10
num_leaves=63
num_cat=1
split_feature=0 5 0 0 5 4 5 0 6 3 5 7 0 0 0 0 8 5 3 2 7 0 6 7 15 5 5 0 4 0 1 0 4 8 6 0 4 12 2 0 5 5 11 5 4 4 3 1 4 12 5 6 2 0 10 0 15 4 8 16 8 7
split_gain=1.91652e+08 6.06461e+07 4.14083e+07 1.09115e+07 8.47547e+06 7.26867e+06 6.47113e+06 4.29628e+06 3.36377e+06 2.1935e+06 2.13373e+06 1.67754e+06 1.60243e+06 1.28765e+06 1.14403e+06 1.04717e+06 4.45538e+06 923426 595903 577316 369653 347289 316419 305973 302645 299304 276025 245302 216148 495661 208484 205350 189818 159244 131515 128173 124002 177924 123925 117348 109541 99137.6 88870.7 84541.6 73546.1 72369.2 71500 70278 69772.4 68919.2 66497.1 71164.3 69600 65480.5 58105.8 57628 57204.6 57097.6 54666.8 53949.9 62601.2 50828.4
threshold=469.00000000000006 83.166666666666671 1293.0000000000002 223.50000000000003 18.166666666666668 1589.0000000000002 866.83333333333337 1959.0000000000002 54.583333333333336 1144.5000000000002 141.50000000000003 567.37500000000011 46.500000000000007 304.50000000000006 1587.5000000000002 1.0000000180025095e-35 31.848584701100403 5.166666666666667 550.00000000000011 1044.0000000000002 324.58333333333343 86.500000000000014 30.750000000000004 204.04166666666669 1.0000000180025095e-35 750.00000000000011 55.833333333333336 98.500000000000014 1472.0000000000002 1095.0000000000002 313.50000000000006 604.50000000000011 146.50000000000003 68.816179586026266 12.250000000000002 365.50000000000006 590.00000000000011 1.0000000180025095e-35 632.50000000000011 257.50000000000006 109.83333333333336 325.16666666666669 1.0000000180025095e-35 1.5000000000000002 250.50000000000003 758.50000000000011 7.5000000000000009 161.50000000000003 116.50000000000001 1.0000000180025095e-35 69.500000000000014 111.25000000000001 19.500000000000004 683.00000000000011 2.5000000000000004 52.500000000000007 1.0000000180025095e-35 912.50000000000011 68.816179586026266 0 30.90846278358886 43.291666666666679
decision_type=2 2 2 2 2 2 2 2 2 2 2 2 2 2 2 2 2 2 2 2 2 2 2 2 2 2 2 2 2 2 2 2 2 2 2 2 2 2 2 2 2 2 2 2 2 2 2 2 2 2 2 2 2 2 2 2 2 2 2 9 2 2
left_child=1 4 6 8 17 9 11 -7 -3 -4 27 30 15 23 -11 16 -6 43 21 24 46 48 -17 -5 -8 36 59 55 29 -21 -2 42 -23 44 -19 -35 -13 38 -38 -25 -29 -41 54 -1 -22 -39 -15 -48 -12 -46 -28 52 -52 -33 -32 -10 -49 -27 -42 60 -14 -24
right_child=2 3 5 13 12 7 19 -9 10 14 18 25 26 20 -16 22 -18 34 -20 28 33 32 61 39 -26 57 50 40 -30 -31 31 53 -34 35 -36 -37 37 45 -40 41 58 -43 -44 -45 49 -47 47 56 -50 -51 51 -53 -54 -55 -56 -57 -58 -59 -60 -61 -62 -63
leaf_value=-0.5528417132103004 10.520867863068215 22.926748464324259 31.069353485107424 5.6739683474595557 26.39854128718347 51.950693439302 31.708857262652856 82.357348984938412 0.62990222529453399 41.989956731381625 -0.2534269756859257 17.34215740824855 0.9621132815307093 11.296555439063482 57.938433421741834 0.14053126534253652 -1.2976934988543674 -0.29524288733486376 13.031152066730318 27.348611777169364 7.7677789878845225 4.0977662119486329 0.4779305711152998 6.6875613749027254 24.684305603607843 24.378766919981757 1.3428780218100069 2.4847556399723127 37.724672626313712 37.654583053588873 16.349387173122832 20.308474295479911 5.1244919007037248 10.517089757919312 -0.088384088468407854 15.561498619528379 25.273178100585938 20.382966918945314 20.394933853149414 7.9154626902606751 3.2040837644499036 11.171567066192628 11.465824057839134 -0.45040641342925236 10.541289668287968 16.270502040697181 5.7932831382751466 9.6811360329389586 3.2224626952951603 13.113263087118828 4.5417863260615956 4.6823218047618864 1.7080155073148835 16.446772816906805 14.103522836267949 2.1228545601879456 8.3506108452195988 21.39555650793988 5.842424564361572 0.57501526507844092 2.0035353274482071 0.78019539001011939
leaf_weight=75647 26 22 24 313 20 21 23 26 68 23 42 43 1784 28 22 12461 53 25632 21 28 20 783 4894 224 46 53 1854 809 21 20 45 21 1059 20 10973 34 23 20 30 360 1072 25 22 27452 163 23 20 128 22 31 22 21 1436 23 80 1307 219 23 20 1063 157 1943
leaf_count=75647 26 22 24 313 20 21 23 26 68 23 42 43 1784 28 22 12461 53 25632 21 28 20 783 4894 224 46 53 1854 809 21 20 45 21 1059 20 10973 34 23 20 30 360 1072 25 22 27452 163 23 20 128 22 31 22 21 1436 23 80 1307 219 23 20 1063 157 1943
internal_value=-5.46735e-09 -0.10506 26.3756 4.51914 -0.295438 53.6063 20.8339 68.7714 3.41682 43.2765 3.33432 17.8228 0.538894 8.15299 49.787 0.313111 6.29032 -0.44897 4.65454 30.2598 9.83359 4.56224 0.2905 6.94449 27.0258 20.953 1.22907 2.55775 33.4938 31.6428 14.7214 15.2932 4.68805 11.2669 -0.233233 13.6932 19.5736 20.573 22.5119 7.59749 2.92572 8.1269 14.3963 -0.525566 10.6547 18.1833 8.86111 8.6753 0.94141 10.9523 1.54235 1.7924 1.75077 18.2899 14.912 2.04902 8.84141 23.476 3.25241 0.881477 1.04099 0.563831
internal_weight=172908 172222 686 6810 165412 116 570 47 5225 69 5203 432 25708 1585 45 19371 73 139704 1927 138 663 1906 19298 922 69 215 6337 3276 69 48 217 191 1842 268 36605 54 139 96 53 609 1901 385 147 103099 214 43 395 367 64 194 3333 1479 1458 44 125 1375 347 76 1092 3004 1941 6837
internal_count=172908 172222 686 6810 165412 116 570 47 5225 69 5203 432 25708 1585 45 19371 73 139704 1927 138 663 1906 19298 922 69 215 6337 3276 69 48 217 191 1842 268 36605 54 139 96 53 609 1901 385 147 103099 214 43 395 367 64 194 3333 1479 1458 44 125 1375 347 76 1092 3004 1941 6837
cat_boundaries=0 4
cat_threshold=421527680 3561017472 3508175048 19022340
is_linear=0
shrinkage=0.05


Tree=11
num_leaves=63
num_cat=2
split_feature=0 0 0 5 5 0 0 5 5 7 17 1 0 5 9 0 0 3 9 5 5 2 15 5 0 5 5 2 15 0 8 7 0 7 0 7 9 8 9 5 0 5 11 9 9 2 0 15 9 13 7 2 5 0 9 2 13 0 9 0 17 3
split_gain=1.72975e+08 5.59818e+07 3.63601e+07 1.18326e+07 7.4407e+06 5.64799e+06 4.08859e+06 2.43171e+06 1.84773e+06 1.30677e+06 1.2099e+06 4.51915e+06 898977 841997 836872 729396 2.39817e+06 573988 525558 431656 376168 285020 292244 270394 237757 226555 221619 179868 167556 272986 253265 157209 156294 147310 127508 120149 111095 100802 98707.8 95490.4 89327 87368.1 86376.9 76641.1 75259.2 72294.8 71936.6 71908.8 70190.1 68541.2 136902 133150 100318 67460.5 61632.8 59742.1 58952.8 57747.3 57518.3 55628.9 55135.3 61434
threshold=482.50000000000006 122.50000000000001 1414.5000000000002 33.500000000000007 866.83333333333337 257.50000000000006 1959.0000000000002 11.833333333333334 69.500000000000014 567.37500000000011 0 35.500000000000007 1169.5000000000002 341.83333333333343 6.5000000000000009 151.50000000000003 152.50000000000003 384.50000000000006 6.5000000000000009 163.50000000000003 3.8333333333333335 1187.5000000000002 1.0000000180025095e-35 750.00000000000011 86.500000000000014 53.166666666666679 20.833333333333339 493.50000000000006 1.0000000180025095e-35 628.50000000000011 225.36345027393392 67.041666666666671 201.50000000000003 242.625 44.500000000000007 105.37500000000001 6.5000000000000009 98.573148649357165 5.5000000000000009 76.500000000000014 968.50000000000011 141.50000000000003 1.0000000180025095e-35 3.5000000000000004 5.5000000000000009 314.50000000000006 206.50000000000003 1.0000000180025095e-35 11.500000000000002 -0.6830127018922193 73.708333333333357 83.500000000000014 256.50000000000006 29.500000000000004 5.5000000000000009 243.50000000000003 0.93301270189221952 528.50000000000011 8.5000000000000018 651.50000000000011 1 10.500000000000002
decision_type=2 2 2 2 2 2 2 2 2 2 9 2 2 2 2 2 2 2 2 2 2 2 2 2 2 2 2 2 2 2 2 2 2 2 2 2 2 2 2 2 2 2 2 2 2 2 2 2 2 2 2 2 2 2 2 2 2 2 2 2 9 2
left_child=1 3 4 7 9 15 14 20 25 28 11 -9 21 33 -4 31 -17 24 -8 39 60 22 -6 37 34 53 -12 42 29 57 36 -3 55 49 -10 -26 -30 59 -35 -18 -24 -33 45 -29 -14 -15 -41 -44 -43 50 -7 -51 -52 -5 -47 -21 -37 -2 -25 -11 61 -1
right_child=2 5 6 8 12 13 18 10 17 23 26 -13 44 27 -16 16 19 -19 -20 32 -22 -23 40 58 35 -27 -28 43 30 -31 -32 41 -34 38 -36 56 -38 -39 -40 46 -42 48 47 -45 -46 54 -48 -49 -50 51 52 -53 -54 -55 -56 -57 -58 -59 -60 -61 -62 -63
leaf_value=-0.02709376240986924 12.711358912785848 1.3667982677701449 50.911872996454662 0.26027702058125252 30.475370161873954 10.88316191363114 59.155324058532713 0.43849875554442408 0.10336908188356615 16.332330499995841 -0.073968022834478717 26.434145222391404 38.035541305541997 13.17745561145601 37.423777804167372 17.968626718521119 0.34925127029418945 10.476104909181595 69.936288921649634 4.499978759935007 -0.30981147320875646 32.350479046503708 22.70563691457113 23.294055545806884 2.0827294773673821 1.1688200489397003 0.22108348051653948 15.34651901071722 17.355732218424478 20.475748790394178 8.6511877230235523 3.1639185966621519 5.773712910380385 9.0641799226720288 1.6999247373791666 2.722765274788852 12.675462056696416 20.460248468277303 7.5808515239962579 3.5421602072827825 26.510144373222637 4.3539350672217383 10.100092987060549 11.600651407241822 33.98883375944915 11.525859186204814 5.7227342512549431 6.4107423016003198 1.9402125770395455 2.3751658582687378 5.0972608160972603 6.6620579972863201 8.1781537353992473 0.69175695465426201 9.668720845748549 5.6227418554795756 4.2389352929424238 15.296646595001221 20.394655909905069 18.819105073680049 -0.51005152849193525 2.5376259547586626
leaf_weight=229 36 90 23 1062 28 27 20 82 134 44 15670 21 20 21 23 35 22 20 26 594 31896 24 36 50 1436 2650 10717 22 21 22 28 573 679 188 1874 661 32 47 278 488 27 345 25 36 27 59 41 28 33 20 45 192 64 6162 184 148 71 54 26 46 95300 26
leaf_count=229 36 90 23 1062 28 27 20 82 134 44 15670 21 20 21 23 35 22 20 26 594 31896 24 36 50 1436 2650 10717 22 21 22 28 573 679 188 1874 661 32 47 278 488 27 345 25 36 27 59 41 28 33 20 45 192 64 6162 184 148 71 54 26 46 95300 26
internal_value=1.66429e-06 -0.0978908 25.5482 -0.241036 20.825 5.57829 54.7084 -0.367892 1.1469 17.2101 0.068001 5.23074 29.8846 8.50112 44.1678 4.43811 4.99516 2.02587 65.2489 4.76491 -0.45849 27.5035 26.2251 19.9103 1.9854 0.773384 0.0458489 10.4615 14.2301 15.483 12.4978 3.36414 5.22555 7.59802 1.59338 2.34848 14.5299 18.5835 8.17928 3.57693 24.3361 3.55317 9.99306 13.0215 35.7108 10.3629 3.71117 8.151 4.14321 6.81966 7.69576 6.25763 6.90623 0.628325 10.1196 4.72393 2.86983 14.2625 22.3022 17.6033 -0.508118 0.225562
internal_weight=172908 172248 660 168011 568 4237 92 153941 14070 406 26490 103 162 1189 46 3048 2007 4196 46 1972 127451 115 91 213 4176 9874 26387 375 193 112 81 1041 1421 814 2008 2168 53 137 466 551 63 951 317 58 47 264 529 53 378 348 136 212 109 7224 243 742 732 90 76 90 95555 255
internal_count=172908 172248 660 168011 568 4237 92 153941 14070 406 26490 103 162 1189 46 3048 2007 4196 46 1972 127451 115 91 213 4176 9874 26387 375 193 112 81 1041 1421 814 2008 2168 53 137 466 551 63 951 317 58 47 264 529 53 378 348 136 212 109 7224 243 742 732 90 76 90 95555 255
cat_boundaries=0 42 64
cat_threshold=0 4 0 0 136 0 0 0 0 0 0 0 8192 0 0 0 0 0 0 0 0 0 0 0 0 0 0 0 0 0 0 0 0 0 0 0 0 65536 0 0 0 16 536870912 134217800 0 0 0 0 0 0 0 0 0 0 262144 0 0 0 0 0 0 536870912 1680 5132
is_linear=0
shrinkage=0.05


Tree=12
num_leaves=63
num_cat=2
split_feature=0 0 0 5 0 5 0 5 5 6 17 0 9 5 0 6 3 2 9 6 5 0 14 5 0 14 3 14 14 8 5 5 14 5 0 9 2 0 0 15 6 6 3 9 6 3 9 0 9 11 8 13 2 9 0 3 5 2 17 6 8 9
split_gain=1.56147e+08 4.94672e+07 3.37392e+07 1.0684e+07 5.63884e+06 5.25948e+06 4.80342e+06 2.38551e+06 1.49057e+06 1.36418e+06 1.0691e+06 4.09445e+06 759983 655885 610807 2.22285e+06 518024 481420 474316 342474 322270 273956 257145 239676 214576 207430 195338 173256 171774 168231 166914 160475 234445 141808 138699 131882 124152 123442 115076 111571 110477 103542 93996.5 93325.1 93312.5 91476.3 94778 86087.3 74467.1 74436.5 81922.6 72647 71867.2 66310 63442.6 62006.1 53136 53095.4 51496.7 67419.5 50696.3 48744.7
threshold=469.00000000000006 122.50000000000001 1293.0000000000002 35.500000000000007 1959.0000000000002 866.83333333333337 251.50000000000003 11.833333333333334 69.500000000000014 595.75000000000011 0 14.500000000000002 7.5000000000000009 325.16666666666669 151.50000000000003 51.083333333333336 384.50000000000006 1044.0000000000002 6.5000000000000009 4.2500000000000009 163.50000000000003 651.50000000000011 0.6830127018922193 21.833333333333339 86.500000000000014 0.6830127018922193 1389.0000000000002 1.0000000180025095e-35 0.6830127018922193 119.10988608322738 53.166666666666679 501.83333333333337 1.0000000180025095e-35 104.50000000000001 294.50000000000006 8.5000000000000018 703.50000000000011 201.50000000000003 44.500000000000007 1.0000000180025095e-35 209.41666666666669 111.25000000000001 166.50000000000003 3.5000000000000004 209.41666666666669 24.500000000000004 3.5000000000000004 353.50000000000006 8.5000000000000018 1.0000000180025095e-35 30.90846278358886 0.93301270189221952 503.50000000000006 11.500000000000002 11.500000000000002 392.50000000000006 0.50000000000000011 246.50000000000003 1 29.416666666666668 84.031736664595044 11.500000000000002
decision_type=2 2 2 2 2 2 2 2 2 2 9 2 2 2 2 2 2 2 2 2 2 2 2 2 2 2 2 2 2 2 2 2 2 2 2 2 2 2 2 2 2 2 2 2 2 2 2 2 2 2 2 2 2 2 2 2 2 2 9 2 2 2
left_child=1 3 5 7 12 9 14 19 30 25 11 -9 -4 28 33 -16 24 22 -6 56 48 43 60 -12 38 31 27 -19 34 39 54 -2 -33 -3 40 36 -23 57 -10 47 -8 -26 -30 -11 53 -36 -47 -15 -17 50 -41 -43 -27 -35 -5 -49 -1 -22 59 -21 -7 -40
right_child=2 6 4 8 18 17 13 10 16 21 23 -13 -14 29 15 20 -18 26 -20 58 37 35 -24 -25 41 52 -28 -29 42 -31 -32 32 -34 44 45 -37 -38 -39 61 49 -42 51 -44 -45 -46 46 -48 55 -50 -51 -52 -53 -54 -55 -56 -57 -58 -59 -60 -61 -62 -63
leaf_value=-0.51110787621583131 12.639412519301493 1.7452759367022024 43.832602058968895 -0.71304657303316654 56.197558288574214 24.897593921661379 5.1997042140295342 25.703894064128402 0.098200615804030833 19.0341912042527 -0.060141540489764438 0.58753708381812242 33.256390223009838 8.6177638225777198 17.766138473153116 3.8286631694962923 9.9522998213768012 31.590983428955077 66.439473313551687 0.068387923682084864 4.2554243329699029 19.248741904548979 19.888326865976509 0.24313251326436755 2.0190352552417252 8.528675342559815 33.67739124298096 25.227871704101563 3.4481614454012171 13.06530860344569 1.1103790444021271 14.124667375428338 20.431159210205081 3.4434280122700471 11.137774530410766 18.025641489028931 22.814718774648814 5.4130516588299598 1.702577016197494 6.4307030105590828 7.2690133582714003 2.6299535556205917 6.2609638403443739 15.037840553124747 5.6496295291185383 9.8948660121244547 7.4838089923553284 9.8867472015985172 2.5478852489112338 6.1039510425399328 9.4030397107788168 4.6589788928627973 12.31990807723999 1.815672928839922 0.65462315049620523 12.03967692565918 -0.43602715727834324 5.3287496079861283 -0.29594679420505882 2.7231660451889041 28.188576923717154 0.87301481516298018
leaf_weight=58191 87 145 41 86 20 25 86 20 134 21 16868 86 29 86 32 379 20 20 26 551 611 46 22 10614 1575 25 26 23 38 30 2650 56 20 783 25 52 52 614 1676 30 258 545 136 48 45 51 203 101 162 34 102 48 25 68 6040 50 39603 142 29081 25 22 198
leaf_count=58191 87 145 41 86 20 25 86 20 134 21 16868 86 29 86 32 379 20 20 26 551 611 46 22 10614 1575 25 26 23 38 30 2650 56 20 783 25 52 52 614 1676 30 258 545 136 48 45 51 203 101 162 34 102 48 25 68 6040 50 39603 142 29081 25 22 198
internal_value=1.10643e-07 -0.0948303 23.8074 -0.228986 48.3875 18.8051 5.25772 -0.344318 1.14945 16.0906 0.0772346 4.86729 39.451 7.88666 4.17298 4.69727 1.92458 27.3029 61.9865 -0.435567 4.47808 18.8615 24.3497 0.0569672 1.88613 13.2415 30.2561 28.1875 7.03563 9.45311 0.778841 14.1057 15.7843 3.19593 7.42356 20.0609 21.1409 4.88688 1.51371 9.18421 6.75169 2.23106 5.64667 16.2541 3.4307 8.25196 7.96792 9.88048 3.44514 8.19015 8.72751 2.79419 10.4243 3.31336 0.635423 10.5996 -0.480703 4.45783 -0.286733 0.180479 26.4381 1.61493
internal_weight=172908 172222 686 168011 116 570 4211 155039 12972 432 27588 106 70 1230 2981 1940 4196 138 46 127451 1908 219 69 27482 4176 213 69 43 797 433 8776 163 76 1041 623 150 98 1367 2008 403 344 2168 174 69 896 279 254 237 541 166 132 593 50 851 6126 151 97794 753 29657 576 47 1874
internal_count=172908 172222 686 168011 116 570 4211 155039 12972 432 27588 106 70 1230 2981 1940 4196 138 46 127451 1908 219 69 27482 4176 213 69 43 797 433 8776 163 76 1041 623 150 98 1367 2008 403 344 2168 174 69 896 279 254 237 541 166 132 593 50 851 6126 151 97794 753 29657 576 47 1874
cat_boundaries=0 42 91
cat_threshold=268435456 4 0 0 128 0 0 0 0 0 0 0 0 0 0 0 0 16777216 0 0 0 0 0 0 0 0 0 0 0 0 0 0 0 0 0 0 0 0 0 0 2097152 16 4 8704 8 0 20971788 0 0 0 0 1048704 0 512 262144 0 0 0 1073741824 0 8 2147483648 268435464 1028 8388610 0 0 0 0 0 0 0 2097152 0 0 0 0 32 262144 0 2048 2147483648 0 0 526336 0 0 0 0 0 262144
is_linear=0
shrinkage=0.05


Tree=13
num_leaves=63
num_cat=1
split_feature=6 5 5 4 5 5 5 6 5 14 17 4 6 5 5 2 13 14 5 4 7 14 14 2 7 9 6 2 5 6 5 8 5 9 14 7 5 14 13 14 12 9 14 2 9 6 5 9 5 5 7 2 9 13 7 15 13 4 8 13 7 14
split_gain=1.38053e+08 4.56871e+07 2.21092e+07 9.79782e+06 8.27202e+06 6.25173e+06 4.72355e+06 3.33801e+06 1.4612e+06 1.42861e+06 1.26705e+06 5.09417e+06 1.23657e+06 1.17677e+06 961423 897345 1.48429e+06 892767 687494 555568 608986 448266 364286 416266 259441 240282 245838 315007 238972 226899 199432 198871 186588 152539 136263 139630 129143 127262 124599 142769 116051 106551 104866 100812 97878 94891.9 93222.3 91043.9 87669.3 82019.1 80757.5 80501 76538.5 76213.1 73598.4 66905.6 80082.3 66669.3 63981.1 63062.6 60587.3 58040.4
threshold=463.16666666666674 83.166666666666671 866.83333333333337 1472.0000000000002 193.5 18.166666666666668 1476.8333333333337 52.750000000000007 310.50000000000006 -0.24999999999999994 0 93.500000000000014 595.75000000000011 40.500000000000007 122.50000000000001 1044.0000000000002 0.6830127018922193 1.0000000180025095e-35 6.166666666666667 331.50000000000006 931.12500000000011 0.25000000000000017 0.6830127018922193 1348.5000000000002 220.58333333333334 1.5000000000000002 381.58333333333343 345.50000000000006 750.00000000000011 56.583333333333336 501.83333333333337 119.10988608322738 163.50000000000003 3.5000000000000004 0.6830127018922193 43.291666666666679 25.500000000000004 0.25000000000000017 -0.5 0.25000000000000017 1.0000000180025095e-35 11.500000000000002 0.6830127018922193 126.50000000000001 11.500000000000002 31.416666666666668 648.83333333333337 8.5000000000000018 1.5000000000000002 107.83333333333336 13.54166666666667 257.50000000000006 6.5000000000000009 -0.24999999999999997 120.62500000000001 1.0000000180025095e-35 -0.24999999999999997 31.500000000000004 34.122328955294599 0.93301270189221952 80.458333333333357 -0.5
decision_type=2 2 2 2 2 2 2 2 2 2 9 2 2 2 2 2 2 2 2 2 2 2 2 2 2 2 2 2 2 2 2 2 2 2 2 2 2 2 2 2 2 2 2 2 2 2 2 2 2 2 2 2 2 2 2 2 2 2 2 2 2 2
left_child=1 5 12 15 7 18 17 -3 24 -8 11 45 30 36 41 21 22 -5 48 -14 28 31 23 -17 37 -10 44 -28 33 -15 -2 -4 34 -21 35 -16 -12 43 -32 -40 -29 49 47 -6 -27 -7 -35 -26 -1 -9 -20 60 -47 57 -55 -44 -57 -39 -49 -31 -34 -30
right_child=2 4 3 6 8 10 9 14 25 -11 13 -13 19 29 32 16 -18 -19 50 20 -22 -23 -24 -25 42 26 27 40 61 59 38 -33 51 46 -36 -37 -38 53 39 -41 -42 -43 55 -45 -46 52 -48 58 -50 -51 -52 -53 -54 54 -56 56 -58 -59 -60 -61 -62 -63
leaf_value=-0.47508247055540381 10.173389256477357 21.779855149725208 22.583068881630897 27.29289840698242 8.9374445438385006 -0.78562649943326646 67.711874607631145 1.9693004210452643 4.6734065787281311 50.459986134937836 0.067744132532071455 28.895113236904145 9.6988323402404788 0.72673702535104656 7.5504030084609983 30.905390566871279 19.152609316507974 42.053577641078405 -0.22776251457507946 18.917531800881413 26.102543573794158 18.02329907735189 29.088961524963381 40.370121104900655 7.1482141540135222 8.5679315221211567 15.926180966695151 8.929463320350882 21.807992553710939 1.2006502977502551 15.995368608747212 29.634141979217532 6.904447766542436 13.199368349711101 2.2578970724634364 3.3315510951140861 0.33869055022703698 7.2929578525679446 14.189218706403461 9.0490240465510983 12.797437779108684 1.0621491870726927 7.2653069031544222 5.4581533552445087 6.0161684694744295 1.1111727733361094 16.438500105101486 6.571917531682157 -0.37672231617330987 2.6280740907020297 -0.045168755587210389 0.97514953494071976 4.9325253415107726 1.5785390741116292 4.1292566900451986 6.5229485547101049 4.1573101376587491 4.6103385538307595 4.4699140706369951 1.9650383161068363 4.1143984825498219 18.773469498306515
leaf_weight=75646 75 23 20 20 22 38 21 1730 35 28 8341 20 20 4793 20 21 24 21 23563 39 23 30 30 26 394 357 24 101 26 2854 35 20 20 36 339 1012 9303 28 35 22 24 249 39 388 42 38 58 87 32339 650 8150 20 20 37 120 54 106 134 62 298 718 40
leaf_count=75646 75 23 20 20 22 38 21 1730 35 28 8341 20 20 4793 20 21 24 21 23563 39 23 30 30 26 394 357 24 101 26 2854 35 20 20 36 339 1012 9303 28 35 22 24 249 39 388 42 38 58 87 32339 650 8150 20 20 37 120 54 106 134 62 298 718 40
internal_value=-7.58643e-07 -0.0881174 22.6523 34.0223 3.91782 -0.253656 47.3757 2.77771 6.57161 57.8537 0.462957 5.46765 15.3966 0.437962 2.68586 26.9942 30.0096 34.8532 -0.385516 17.6805 18.3995 22.6435 33.3936 36.1412 5.73205 8.68995 8.94648 10.6795 17.5092 0.943422 12.0871 26.1086 3.47567 16.2887 3.12762 3.41331 0.210604 5.06213 13.6472 12.2053 9.67211 2.04626 6.39023 5.64485 8.29932 1.15647 15.198 6.75007 -0.445626 2.14922 -0.180837 4.10518 2.42888 4.31318 3.52813 5.40835 4.95571 5.074 5.69726 1.27292 4.19001 19.9689
internal_weight=172908 172238 670 261 6835 165403 90 4781 2054 49 25705 116 409 25589 4758 171 101 41 139698 242 222 70 77 47 1471 583 548 149 199 7945 167 40 2129 133 1371 1032 17644 729 92 57 125 2629 742 410 399 96 94 543 107985 2380 31713 758 58 319 157 199 160 162 149 3152 738 66
internal_count=172908 172238 670 261 6835 165403 90 4781 2054 49 25705 116 409 25589 4758 171 101 41 139698 242 222 70 77 47 1471 583 548 149 199 7945 167 40 2129 133 1371 1032 17644 729 92 57 125 2629 742 410 399 96 94 543 107985 2380 31713 758 58 319 157 199 160 162 149 3152 738 66
cat_boundaries=0 44
cat_threshold=0 32768 0 0 128 2147483648 0 0 0 0 0 0 0 0 0 0 0 0 0 0 0 8 0 0 0 0 0 0 0 0 0 0 0 0 0 0 0 0 0 0 0 1 0 32
is_linear=0
shrinkage=0.05


Tree=14
num_leaves=63
num_cat=3
split_feature=0 0 0 0 4 5 0 3 6 17 4 6 8 6 0 6 3 5 0 4 15 0 0 5 6 11 3 6 9 0 4 5 9 4 8 9 12 9 14 6 14 9 4 11 9 5 5 0 15 6 14 9 9 9 14 4 8 9 17 0 16 8
split_gain=1.27602e+08 4.03861e+07 2.7986e+07 8.70414e+06 6.43974e+06 5.69313e+06 3.92977e+06 1.88725e+06 1.69809e+06 1.47483e+06 9.52076e+06 1.42823e+06 1.10959e+06 1.08255e+06 685665 539923 3.82382e+06 584837 535241 283341 321958 236546 218405 210228 181353 179824 174681 158888 156167 142655 140018 135040 125951 123424 111204 103109 88097.9 105375 86593.9 86211.4 82668 75908.6 74092.2 72589 89074.5 74792 69826.2 69493.6 69266.8 63202.7 59470.2 56383.1 51808.4 50849.7 50791.7 49514.9 48267.4 47885.8 46647.7 46045.9 44559.8 113681
threshold=469.00000000000006 122.50000000000001 1414.5000000000002 32.500000000000007 1589.0000000000002 866.83333333333337 251.50000000000003 1263.0000000000002 10.41666666666667 0 58.500000000000007 69.583333333333357 225.36345027393392 595.75000000000011 1169.5000000000002 51.083333333333336 11.500000000000002 163.50000000000003 334.50000000000006 1589.0000000000002 1.0000000180025095e-35 651.50000000000011 3.5000000000000004 45.166666666666679 22.416666666666668 1.0000000180025095e-35 427.50000000000006 218.91666666666669 7.5000000000000009 85.500000000000014 590.00000000000011 501.83333333333337 6.5000000000000009 170.50000000000003 84.031736664595044 11.500000000000002 1.0000000180025095e-35 8.5000000000000018 -0.5 131.41666666666671 0.6830127018922193 3.5000000000000004 1199.5000000000002 1.0000000180025095e-35 3.5000000000000004 341.83333333333343 193.5 5.5000000000000009 1.0000000180025095e-35 100.08333333333336 -0.5 3.5000000000000004 5.5000000000000009 11.500000000000002 0.6830127018922193 535.50000000000011 26.642695908719197 11.500000000000002 1 208.50000000000003 2 30.90846278358886
decision_type=2 2 2 2 2 2 2 2 2 9 2 2 2 2 2 2 2 2 2 2 2 2 2 2 2 2 2 2 2 2 2 2 2 2 2 2 2 2 2 2 2 2 2 2 2 2 2 2 2 2 2 2 2 2 2 2 2 2 9 2 9 2
left_child=1 3 5 8 7 13 15 -4 22 10 56 23 -6 25 19 16 32 35 27 20 -7 41 -1 60 -11 31 43 -8 -22 57 -23 38 -3 50 -33 39 37 -32 -2 59 52 -15 -16 44 -20 -46 -35 -26 -45 -31 -19 -28 -29 -51 -25 -43 -10 -13 -24 -17 61 -5
right_child=2 6 4 11 12 14 18 -9 9 24 -12 29 -14 21 42 17 -18 33 26 -21 28 30 58 54 47 -27 51 40 -30 49 36 34 -34 46 -36 -37 -38 -39 -40 -41 -42 55 -44 48 45 -47 -48 -49 -50 53 -52 -53 -54 -55 -56 -57 -58 -59 -60 -61 -62 -63
leaf_value=-0.43731150722309542 14.1252137865339 -2.1500302770863411 24.45739773837003 0.56695957592567092 53.93800827026368 26.04863912794325 4.9890682165061726 43.737742207845059 -0.2244058598934765 -0.080673773056127621 37.265007815361024 1.5234508675489002 70.593225994110114 17.102390725272041 32.337443019725661 2.5643118744950737 26.542068988084793 4.6109665122846284 11.04196526663644 28.870113895237445 17.432220218921529 15.41405372619629 0.20040409095534098 1.0037072624739469 -0.55905204164961775 8.7353015518188482 12.639859825134279 7.7180381894792838 22.577760136922201 1.7746280785378414 20.948843086371991 12.897218720639339 2.9768999266624454 4.1751037201016317 16.802365170992339 1.4168173678326781 16.299294463793437 17.348419524464877 10.464415843486787 3.4612478475707271 5.663433701508529 11.677267219906762 28.322232208251958 8.1921520086435162 7.1269969842013197 8.7613602483973789 5.1583653147955815 0.21932582499867714 4.576372830514555 2.4320522399375566 3.6088754514815884 9.7412080054189651 6.6328234582333954 1.2055290770787066 0.61686888890619684 14.914449316925474 -3.0052306151390078 0.69910541491460076 -0.28905202541639413 4.7959128508965172 0.34906245548479203 2.4812418501824141
leaf_weight=94526 21 23 22 2539 20 36 170 30 71 20682 20 1666 20 21 27 627 20 205 28 20 29 36 492 3453 297 35 25 175 30 1111 59 61 25 288 26 104 24 31 70 648 143 21 20 26 119 170 484 8309 27 925 533 51 296 93 1125 27 20 197 28691 24 3714 80
leaf_count=94526 21 23 22 2539 20 36 170 30 71 20682 20 1666 20 21 27 627 20 205 28 20 29 36 492 3453 297 35 25 175 30 1111 59 61 25 288 26 104 24 31 70 648 143 21 20 26 119 170 484 8309 27 925 533 51 296 93 1125 27 20 197 28691 24 3714 80
internal_value=-7.22048e-07 -0.0857261 21.5216 -0.206944 47.1828 17.5471 4.75063 35.5807 -0.319224 0.0223514 5.5311 0.946579 62.2656 14.5495 25.5406 3.76948 8.17372 3.66667 7.1285 23.461 22.3223 17.018 -0.400398 0.650508 -0.00041488 12.0116 8.51138 6.34182 20.0486 1.7558 18.1325 12.6558 0.520246 4.34957 14.0643 2.93169 18.9909 19.7087 11.3092 3.05297 6.71636 14.5951 30.6288 8.06291 8.34927 8.08839 4.79155 0.192463 6.35015 2.0354 3.88723 10.6947 7.03603 2.32 0.908645 13.4982 -0.835576 1.43628 -0.280831 2.64658 0.463906 0.623054
internal_weight=172908 172222 686 168011 92 594 4211 52 153108 29399 111 14903 40 432 162 2981 68 2913 1230 115 95 219 123709 10911 29288 213 446 784 59 3992 150 178 48 1510 87 1403 114 90 91 1299 614 69 47 370 317 289 772 8606 53 2129 738 76 471 1018 4578 48 91 1863 29183 651 6333 2619
internal_count=172908 172222 686 168011 92 594 4211 52 153108 29399 111 14903 40 432 162 2981 68 2913 1230 115 95 219 123709 10911 29288 213 446 784 59 3992 150 178 48 1510 87 1403 114 90 91 1299 614 69 47 370 317 289 772 8606 53 2129 738 76 471 1018 4578 48 91 1863 29183 651 6333 2619
cat_boundaries=0 35 85 89
cat_threshold=0 0 0 0 128 0 0 0 0 0 0 0 0 0 0 0 0 0 0 0 0 4 0 0 0 0 0 0 0 0 0 0 0 0 8 2147483652 8194 8 1073741824 4194304 2147483648 0 0 0 0 0 0 2048 1024 0 0 1073741824 0 0 0 1082130688 134217728 516 0 0 0 8192 0 2147483648 0 0 0 0 131072 0 0 4096 0 2304 0 0 0 524288 0 0 0 0 2048 0 24576 420495492 2216747136 352420032 2228740
is_linear=0
shrinkage=0.05


Tree=15
num_leaves=63
num_cat=0
split_feature=0 0 0 0 4 5 0 5 4 0 0 8 2 7 0 5 7 7 5 4 0 5 7 7 4 12 7 13 15 0 11 15 2 7 0 5 1 9 9 9 13 9 4 13 0 9 9 4 4 7 1 9 7 9 0 2 9 4 8 12 1 4
split_gain=1.15166e+08 3.72202e+07 2.45837e+07 7.85564e+06 5.81186e+06 4.83229e+06 3.76461e+06 1.52207e+06 1.41308e+06 8.61653e+06 1.29861e+06 1.0014e+06 885671 842456 618812 592240 482013 4.78869e+06 545828 255715 306059 204706 202858 200459 193423 262799 193159 171503 163685 140071 231225 178505 134342 118519 112474 107465 97142.1 100995 95645.9 85941.2 83824.8 79833.2 79608.3 76122.1 74819.3 74016.7 67444.9 66878.8 66868.2 63812.8 61253.8 57866 56077.2 55697.2 67282.7 56014.4 52459.4 51918.8 46848.4 46752.4 44723.3 42342.7
threshold=482.50000000000006 122.50000000000001 1414.5000000000002 32.500000000000007 1589.0000000000002 866.83333333333337 251.50000000000003 10.500000000000002 120.50000000000001 7.5000000000000009 67.500000000000014 225.36345027393392 1472.0000000000002 567.37500000000011 1169.5000000000002 341.83333333333343 38.458333333333336 32.625000000000007 163.50000000000003 1589.0000000000002 968.50000000000011 3.166666666666667 86.041666666666671 44.125000000000007 590.00000000000011 1.0000000180025095e-35 20.041666666666668 -0.24999999999999997 1.0000000180025095e-35 628.50000000000011 1.0000000180025095e-35 1.0000000180025095e-35 493.50000000000006 242.625 201.50000000000003 98.166666666666671 819.00000000000011 8.5000000000000018 8.5000000000000018 1.5000000000000002 0.93301270189221952 11.500000000000002 758.50000000000011 0.93301270189221952 1.0000000180025095e-35 10.500000000000002 3.5000000000000004 158.50000000000003 1199.5000000000002 69.041666666666671 113.50000000000001 3.5000000000000004 127.54166666666667 10.500000000000002 372.50000000000006 201.50000000000003 11.500000000000002 231.50000000000003 63.793938892064062 1.0000000180025095e-35 165.50000000000003 204.50000000000003
decision_type=2 2 2 2 2 2 2 2 2 2 2 2 2 2 2 2 2 2 2 2 2 2 2 2 2 2 2 2 2 2 2 2 2 2 2 2 2 2 2 2 2 2 2 2 2 2 2 2 2 2 2 2 2 2 2 2 2 2 2 2 2 2
left_child=1 3 5 7 12 13 16 21 26 -10 23 -6 -4 29 19 33 17 38 35 20 27 -1 58 -5 -15 36 -9 -7 -22 30 45 -31 39 53 47 49 37 -26 -3 -17 56 52 -27 50 -28 61 -34 -20 -16 -18 -24 -41 -37 54 60 -55 -35 -36 -12 -53 -8 -2
right_child=2 6 4 10 11 14 15 8 9 -11 22 -13 -14 24 48 32 18 -19 34 -21 28 -23 43 -25 25 42 44 -29 -30 31 -32 -33 46 40 57 41 -38 -39 -40 51 -42 -43 -44 -45 -46 -47 -48 -49 -50 -51 -52 59 -54 55 -56 -57 -58 -59 -60 -61 -62 -63
leaf_value=-0.41845239540864709 14.117095453922566 -1.4345561381747913 27.522607224075884 0.42296152601542281 51.241108474731448 21.601513937245244 4.1718497296985317 -0.096883499144405152 35.392795633077625 -0.58851901107665261 1.3482109288281241 67.06356459617615 40.582994689941408 13.461016269605986 30.720570790326157 4.9267205220460895 -0.45506060559016009 27.954730294999621 3.2894767717876934 27.426608214378362 27.117851497816005 -0.27287248342309905 1.6737901249472822 0.8808098156067804 18.598905352183753 16.136777770996094 -1.8854809789325704 15.67426476111779 21.152652342423153 17.319446008855646 6.1843280098655011 11.01965941760851 12.89698290391402 6.628415826050909 4.3781268355725089 2.613594257689785 20.683263073545515 14.663622769065526 2.5690131077399623 10.434572186963312 8.458945888385438 1.4978702584091499 12.221171248400653 3.0441144406059646 0.18071802700791706 9.4726440076317111 9.3830310715569407 4.1593095697820193 26.906120948791507 2.3082198974159027 2.2996710238270106 7.782144695974786 3.2972421729312495 2.023861808152426 8.3605263627093773 5.1742650519969855 4.9609978516896573 5.4213804689454443 -0.91793286346870928 9.5173568157439536 5.8191185168461681 11.76302513546414
leaf_weight=91018 26 35 27 6586 20 23 49 18714 20 99 2712 20 25 49 27 20 39 21 396 20 23 32867 1041 3753 56 25 44 26 23 22 22 23 22 373 452 557 33 23 26 29 57 98 27 162 10346 28 36 500 20 45 626 223 650 21 23 43 54 162 23 47 259 72
leaf_count=91018 26 35 27 6586 20 23 49 18714 20 99 2712 20 25 49 27 20 39 21 396 20 23 32867 1041 3753 56 25 44 26 23 22 22 23 22 373 452 557 33 23 26 29 57 98 27 162 10346 28 36 500 20 45 626 223 650 21 23 43 54 162 23 47 259 72
internal_value=7.8086e-08 -0.0798764 20.8463 -0.196596 44.8237 16.9626 4.54843 -0.303263 0.0213278 5.45876 0.899262 59.1523 33.8016 14.0495 24.2636 6.84451 3.58101 7.36139 3.47408 22.288 21.2062 -0.37983 1.60175 0.589158 16.2175 17.0411 -0.000904696 18.4564 24.1353 11.6567 10.914 14.0996 8.50237 6.13346 4.1321 2.75874 18.4049 17.4532 0.271883 8.09991 6.65796 2.87032 14.1037 2.00938 0.171968 11.7398 10.7159 3.77487 29.0974 1.02527 1.90882 8.31216 2.98176 5.49078 5.75186 4.14054 6.41755 4.65338 1.32915 8.0842 5.55705 12.3876
internal_weight=172908 172248 660 168011 92 568 4237 153108 29223 119 14903 40 52 406 162 1256 2981 82 2899 115 95 123885 4564 10339 213 164 29104 49 46 193 148 45 377 879 1510 1389 112 79 61 319 484 1305 52 1829 10390 126 58 896 47 84 1667 299 1207 395 331 64 427 614 2735 270 308 98
internal_count=172908 172248 660 168011 92 568 4237 153108 29223 119 14903 40 52 406 162 1256 2981 82 2899 115 95 123885 4564 10339 213 164 29104 49 46 193 148 45 377 879 1510 1389 112 79 61 319 484 1305 52 1829 10390 126 58 896 47 84 1667 299 1207 395 331 64 427 614 2735 270 308 98
is_linear=0
shrinkage=0.05


Tree=16
num_leaves=63
num_cat=2
split_feature=0 5 0 0 4 5 5 1 8 14 5 17 2 8 0 0 0 0 5 2 0 4 1 4 0 8 4 0 13 4 15 5 10 14 0 4 5 4 0 8 0 12 10 14 13 14 4 5 0 0 13 5 8 5 0 2 0 1 5 5 17 0
split_gain=1.03957e+08 3.29075e+07 2.27903e+07 5.91672e+06 5.24521e+06 4.63368e+06 4.60172e+06 1.43256e+06 3.52195e+06 1.40256e+06 1.17438e+06 1.06502e+06 4.92641e+06 903764 897307 848060 775250 558478 509924 446825 289924 269108 256680 230783 276218 216930 190795 167366 154781 153177 147725 142868 142566 135948 156376 129385 127927 116432 113621 91375.8 85767.7 85419.9 81282.1 78796 70141.4 69374 94163.9 72403.9 104956 68862.6 65340 62525.6 61440.8 59430.9 57605.3 57293.9 56266.7 56172.1 55424.1 55279 53066.4 52769.7
threshold=469.00000000000006 83.166666666666671 1414.5000000000002 220.50000000000003 1589.0000000000002 866.83333333333337 18.166666666666668 50.500000000000007 84.031736664595044 0.25000000000000017 141.50000000000003 0 19.500000000000004 225.36345027393392 46.500000000000007 628.50000000000011 304.50000000000006 1169.5000000000002 4.8333333333333348 503.50000000000006 66.500000000000014 555.50000000000011 496.50000000000006 1589.0000000000002 968.50000000000011 149.05759384809718 326.50000000000006 27.500000000000004 -0.24999999999999997 163.50000000000003 1.0000000180025095e-35 102.83333333333336 1.5000000000000002 -0.5 804.00000000000011 686.50000000000011 55.833333333333336 146.50000000000003 372.50000000000006 59.503501231619261 11.500000000000002 1.0000000180025095e-35 1.5000000000000002 0.93301270189221952 0.93301270189221952 0.6830127018922193 13.500000000000002 357.16666666666669 386.50000000000006 544.50000000000011 0.25000000000000006 60.833333333333336 39.864350647454856 35.833333333333336 2.5000000000000004 350.50000000000006 260.50000000000006 149.50000000000003 310.50000000000006 78.500000000000014 1 566.00000000000011
decision_type=2 2 2 2 2 2 2 2 2 2 2 9 2 2 2 2 2 2 2 2 2 2 2 2 2 2 2 2 2 2 2 2 2 2 2 2 2 2 2 2 2 2 2 2 2 2 2 2 2 2 2 2 2 2 2 2 2 2 2 2 9 2
left_child=1 6 5 7 9 15 18 8 -3 -4 31 12 -8 -6 27 21 29 23 60 20 -12 25 -17 24 28 49 45 54 -7 57 -26 39 -24 35 -35 -34 -16 -22 -28 -9 -20 -23 -40 -33 -38 46 -18 52 -49 -2 -19 -14 -47 -29 -13 -48 -31 -5 -58 -46 -1 -43
right_child=2 3 4 16 13 17 11 10 -10 -11 19 14 51 -15 36 22 26 50 40 -21 37 41 32 -25 30 -27 38 53 -30 56 -32 43 33 34 -36 -37 44 -39 42 -41 -42 61 -44 -45 59 47 55 48 -50 -51 -52 -53 -54 -55 -56 -57 58 -59 -60 -61 -62 -63
leaf_value=0.24226813920084003 9.8107128360603433 26.885602903962138 38.870180536085563 2.6884438244359838 48.67905200958252 20.521438233748725 27.99318752706051 1.5773433655724685 -2.1051950733770024 22.134542755853563 -1.810108012733636 -0.97931366306084855 -1.0277860101531535 63.710387344360356 0.65821394475578021 10.253420172418867 9.9829600830078125 26.038016125007914 -0.23084239090801215 9.9337274996133971 2.9502242516129074 15.556442584991457 18.909655708736846 26.055277299880984 25.761959133977474 5.7736581696404352 7.3534665776114183 0.2557581099044744 14.890551200279823 5.0006869764998561 20.095019688813583 2.2898102402944676 15.034502476283482 12.389200012500471 16.971638140185128 19.509301884969076 1.0435114039454783 3.7569193239042065 12.094211315155029 -0.97026469210783639 -0.074492878515189695 10.641761779785156 8.8594154522336765 1.07316568565287 1.6878471479847512 5.6719531803131105 6.3910263304218589 9.8753165054321297 4.752907891273499 12.22775664633893 29.80862560272217 1.6480307444197235 2.594272095958392 0.51526938427658153 0.079989488056902577 8.0132711980077964 5.6787707651853561 4.4443535504282501 7.579024687003006 4.3667490550449921 -0.39147746590090593 14.057931709289551
leaf_weight=329 79 20 31 56 20 23 20 1578 22 21 27 130 34 20 2993 21 25 27 24679 26 786 30 36 20 23 27 117 5432 26 320 23 1504 35 52 29 30 3020 1038 25 36 13608 26 87 146 232 50 223 20 20 47 20 61 24 3715 10050 72 300 244 44 21 101088 20
leaf_count=329 79 20 31 56 20 23 20 1578 22 21 27 130 34 20 2993 21 25 27 24679 26 786 30 36 20 23 27 117 5432 26 320 23 1504 35 52 29 30 3020 1038 25 36 13608 26 87 146 232 50 223 20 20 47 20 61 24 3715 10050 72 300 244 44 21 101088 20
internal_value=7.06761e-08 -0.0773762 19.4255 3.32892 42.5825 15.8389 -0.217613 2.50319 11.6999 32.1116 2.42806 0.397163 5.00359 56.1947 0.374363 13.1346 5.9594 23.0504 -0.330743 3.42459 3.33316 11.0488 15.4875 21.1736 20.1459 9.84078 7.27546 0.205934 17.5336 5.05426 22.9285 1.85499 16.0915 15.3966 14.0298 17.0998 0.894466 3.4093 8.44314 1.52052 -0.175273 13.4808 9.58147 2.18216 1.11051 6.65934 7.03665 5.60022 7.31411 10.7123 27.6425 0.69037 4.67379 0.361157 0.066462 6.78696 5.4779 4.11658 5.92183 1.91021 -0.389436 12.1271
internal_weight=172908 172222 686 6810 92 594 165412 5183 42 52 5141 25708 115 40 25593 432 1627 162 139704 1877 1851 229 203 115 95 153 663 19327 49 964 46 3264 182 146 81 65 6266 1824 229 1614 38287 76 112 1650 3273 434 320 114 40 126 47 95 74 9147 10180 295 664 300 344 253 101417 46
internal_count=172908 172222 686 6810 92 594 165412 5183 42 52 5141 25708 115 40 25593 432 1627 162 139704 1877 1851 229 203 115 95 153 663 19327 49 964 46 3264 182 146 81 65 6266 1824 229 1614 38287 76 112 1650 3273 434 320 114 40 126 47 95 74 9147 10180 295 664 300 344 253 101417 46
cat_boundaries=0 47 89
