tree
version=v4
num_class=1
num_tree_per_iteration=1
label_index=0
max_feature_idx=71
objective=regression
feature_names=lag_1 lag_2 lag_3 lag_6 lag_12 rolling_mean_3 rolling_mean_6 rolling_mean_12 rolling_std_3 mes_do_ano trimestre is_recesso is_pandemia mes_sin mes_cos area_civel fourier_12m_sin_1 fourier_12m_cos_1 fourier_12m_sin_2 fourier_12m_cos_2 fourier_6m_sin_1 fourier_6m_cos_1 fourier_6m_sin_2 fourier_6m_cos_2 fourier_4m_sin_1 fourier_4m_cos_1 fourier_4m_sin_2 fourier_4m_cos_2 fourier_3m_sin_1 fourier_3m_cos_1 fourier_3m_sin_2 fourier_3m_cos_2 rolling_q25_3 rolling_q50_3 rolling_q75_3 rolling_iqr_3 rolling_q25_6 rolling_q50_6 rolling_q75_6 rolling_iqr_6 rolling_q25_12 rolling_q50_12 rolling_q75_12 rolling_iqr_12 detrended_3 deviation_3 detrended_6 deviation_6 detrended_12 deviation_12 seasonal_index seasonal_index_log rolling_std_3_lag_1 rolling_std_3_lag_2 rolling_std_3_lag_3 rolling_std_3_lag_6 volatility_accel roc_1 roc_pct_1 roc_3 roc_pct_3 roc_6 roc_pct_6 roc_12 roc_pct_12 comarca_mean_lag deviation_from_comarca serventia_comarca_ratio is_anomaly anomaly_count_6m COMARCA SERVENTIA
feature_infos=[0:11046] [0:11131] [0:11131] [0:11131] [0:11131] [0:8021] [0:5157.666666666667] [0:3042.6666666666665] [0:6366.1826081255322] [1:12] [1:4] [0:1] [0:1] [-1:1] [-1:1] [0:1] [-1:1] [-1:1] [-0.86602540378444381:0.86602540378444526] [-1:1] [-0.86602540378444381:0.86602540378444526] [-1:1] [-0.86602540378444404:0.86602540378445381] [-0.50000000000002298:1] [-1:1] [-1:1] [-3.9198601262900713e-14:3.6258210983673888e-14] [-1:1] [-0.86602540378444404:0.86602540378445381] [-0.50000000000002298:1] [-0.86602540378444948:0.86602540378446513] [-0.50000000000005262:1] [0:3219] [0:3533] [0:6388.5] [0:5523] [0:2802] [0:2976] [0:3780] [0:3580] [0:2714.25] [0:2862] [0:3183] [0:2968.75] [-4230.333333333333:7351] [0:7351] [-2151.1666666666665:9188.6666666666661] [0:9188.6666666666661] [-1846.3333333333333:10113.75] [0:10113.75] [0:11.999676008747764] [-13.815510557964274:2.4848797334880737] [0:6366.1826081255322] [0:6366.1826081255322] [0:6366.1826081255322] [0:6366.1826081255322] [-6163.7963934020545:6346.5781868554886] [-10736:11046] [-99.999999967018468:1104600000000] [-10968:11030] [-99.999999990789348:109600000000] [-11046:11023] [-99.999999990946947:173100000000] [-11046:10925] [-99.999999990946947:294900000000] [0:3042.6666666666665] [-92.741574908241574:10985.742337164751] [0:27777.777777777777] [0:1] [0:5] -1:47:6:21:7:24:67:96:63:98:120:94:27:39:44:71:113:60:116:28:45:53:117:52:74:90:102:105:46:56:81:95:2:32:51:54:65:66:68:70:76:86:92:104:109:114:1:3:4:5:8:9:11:12:14:22:23:25:26:29:30:31:33:34:36:37:38:40:41:42:43:48:49:50:55:57:58:59:61:62:64:69:72:75:77:78:80:83:85:88:91:97:99:100:101:107:108:110:111:112:118:119:0:13:16:17:18:19:20:35:73:79:82:84:87:89:93:103:106:115:15 -1:175:0:1:2:3:4:5:6:7:8:9:10:11:12:13:14:15:16:17:18:19:20:21:22:23:24:25:26:27:28:29:30:31:32:33:34:35:36:37:38:39:40:41:42:43:44:45:46:47:48:49:50:51:52:53:54:55:56:57:58:59:60:61:62:63:64:65:66:67:68:69:70:71:72:73:74:75:76:77:78:79:80:81:82:83:84:85:86:87:88:89:90:91:92:93:94:95:96:97:98:99:100:101:102:103:104:105:106:107:108:109:110:111:112:113:114:115:116:117:118:119:120:121:122:123:124:125:126:127:128:129:130:131:132:133:134:135:136:137:138:139:140:141:142:143:144:145:146:147:148:149:150:151:152:153:154:155:156:157:158:159:160:161:162:163:164:165:166:167:168:169:170:171:172:173:174:176:177:178:179:180:181:182:183:184:185:186:187:188:189:190:191:192:193:194:195:196:197:198:199:200:201:202:203:204:205:206:207:208:209:210:211:212:213:214:215:216:217:218:219:220:221:222:223:224:225:226:227:228:229:230:231:232:233:234:235:236:237:238:239:240:241:242:243:244:245:246:247:248:249:250:251:252:253:254:255:256:257:258:259:260:261:262:263:264:265:266:267:268:269:270:271:272:273:274:275:276:277:278:279:280:281:282:283:284:285:286:287:288:289:290:291:292:293:294:295:296:297:298:299:300:301:302:303:304:305:306:307:308:309:310:311:312:313:314:315:316:317:318:319:320:321:322:323:324:325:326:327:328:329:330:331:332:333:334:335:336:337:338:339:340:341:342:343:344:345:346:347:348:349:350:351:352:353:354:355:356:357:358:359:360:361:362:363:364:365:366:367:368:369:370:371:372:373:374:375:376:377:378:379:380:381:382:383:384:385:386:387:388:389:390:391:392:393:394:395:396:397:398:399:400:401:402:403:404:405:406:407:408:409:410:411:412:413:414:415:416:417:418:419:420:421:422:423:424:425:426:427:428:429:430:431:432:433:434:435:436:437:438:439:440:441:442:443:444:445:446:447:448:449:450:451:452:453:454:455:456:457:458:459:460:461:462:463:464:465:466:467:468:469:470:471:472:473:474:475:476:477:478:479:480:481:482:483:484:485:486:487:488:489:490:491:492:493:494:495:496:497:498:499:500:501:502:503:504:505:506:507:508:509:510:511:512:513:514:515:516:517:518:519:520:521:522:523:524:525:526:527:528:529:530:531:532:533:534:535:536:537:538:539:540:541:542:543:544:545:546:547:548:549:550:551:552:553:554:555:556:557:558:559:560:561:562:563:564:565:566:567:568:569:570:571:572:573:574:575:576:577:578:579:580:581:582:583:584:585:586:587:588:589:590:591:592:593:594:595:596:597:598:599:600:601:602:603:604:605:606:607:608:609:610:611:612:613:614:615:616:617:618:619:620:621:622:623:624:625:626:627:628:629:630:631:632:633:634:635:636:637:638:639:640:641:642:643:644:645:646:647:648:649:650:651:652:653:654:655:656:657:658:659:660:661:662:663:664:665:666:667:668:669:670:671:672:673:674:675:676:677:678:679:680:681:682:683:684:685:686:687:688:689:690:691:692:693:694:695:696:697:698:699:700:701:702:703:704:705:706:707:708:709:710:711:712:713:714:715:716:717:718:719:720:721:722:723:724:725:726:727:728:729:730:731:732:733:734:735:736:737:738:739:740:741:742:743:744:745:746:747:748:749:750:751:752:753:754:755:756:757:758:759:760:761:762:763:764:765:766:767:768:769:770:771:772:773:774:775:776:777:778:779:780:781:782:783:784:785:786:787:788:789:790:791:792:793:794:795:796:797:798:799:800:801:802:803:804:805:806:807:808:809:810:811:812:813:814:815:816:817:818:819:820:821:822:823:824:825:826:827:828:829:830:831:832:833:834:835:836:837:838:839:840:841:842:843:844:845:846:847:848:849:850:851:852:853:854:855:856:857:858:859:860:861:862:863:864:865:866:867:868:869:870:871:872:873:874:875:876:877:878:879:880:881:882:883:884:885:886:887:888:889:890:891:892:893:894:895:896:897:898:899:900:901:902:903:904:905:906:907:908:909:910:911:912:913:914:915:916:917:918:919:920:921:922:923:924:925:926:927:928:929:930:931:932:933:934:935:936:937:938:939:940:941:942:943:944:945:946:947:948:949:950:951:952:953:954:955:956:957:958:959:960:961:962:963:964:965:966:967:968:969:970:971:972:973:974:975:976:977:978:979:980:981:982:983:984:985:986:987:988:989:990:991:992:993:994:995:996:997:998:999:1000:1001:1002:1003:1004:1005:1006:1007:1008:1009:1010:1011:1012:1013:1014:1015:1016:1017:1018:1019:1020:1021:1022:1023:1024:1025:1026:1027:1028:1029:1030:1031:1032:1033:1034:1035:1036:1037:1038:1039:1040:1041:1042:1043:1044:1045:1046:1047:1048:1049:1050:1051:1052:1053:1054:1055:1056:1057:1058:1059:1060:1061:1062:1063:1064:1065:1066:1067:1068:1069:1070:1071:1072:1073:1074:1075:1076:1077:1078:1079:1080:1081:1082:1083:1084:1085:1086:1087:1088:1089:1090:1091:1092:1093:1094:1095:1096:1097:1098:1099:1100:1101:1102:1103:1104:1105:1106:1107:1108:1109:1110:1111:1112:1113:1114:1115:1116:1117:1118:1119:1120:1121:1122:1123:1124:1125:1126:1127:1128:1129:1130:1131:1132:1133:1134:1135:1136:1137:1138:1139:1140:1141:1142:1143:1144:1145:1146:1147:1148:1149:1150:1151:1152:1153:1154:1155:1156:1157:1158:1159:1160:1161:1162:1163:1164:1165:1166:1167:1168:1169:1170:1171:1172:1173:1174:1175:1176:1177:1178:1179:1180:1181:1182:1183:1184:1185:1186:1187:1188:1189:1190:1191:1192:1193:1194:1195:1196:1197:1198:1199:1200:1201:1202:1203:1204:1205:1206:1207:1208:1209:1210:1211:1212:1213:1214:1215:1216:1217:1218:1219:1220:1221:1222:1223:1224:1225:1226:1227:1228:1229:1230:1231:1232:1233:1234:1235:1236:1237:1238:1239:1240:1241:1242:1243:1244:1245:1246:1247:1248:1249:1250:1251:1252:1253:1254:1255:1256:1257:1258:1259:1260:1261:1262:1263:1264:1265:1266:1267:1268:1269:1270:1271:1272:1273:1274:1275:1276:1277:1278:1279:1280:1281:1282:1283:1284:1285:1286:1287:1288:1289:1290:1291:1292:1293:1294:1295:1296:1297:1298:1299:1300:1301:1302:1303:1304:1305:1306:1307:1308:1309:1310:1311:1312:1313:1314:1315:1316:1317:1318:1319:1320:1321:1322:1323:1324:1325:1326:1327:1328:1329:1330:1331:1332:1333:1334:1335:1336:1337:1338:1339:1340:1341:1342:1343:1344:1345:1346:1347:1348:1349:1350:1351:1352:1353:1354:1355:1356:1357:1358:1359:1360:1361:1362:1363:1364:1365:1366:1367:1368:1369:1370:1371:1372:1373:1374:1375:1376:1377:1378:1379:1380:1381:1382:1383:1384:1385:1386:1387:1388:1389:1390:1391:1392:1393:1394:1395:1396:1397:1398:1399:1400:1401:1402:1403:1404:1405:1406:1407:1408:1409:1410:1411:1412:1413:1414:1415:1416:1417:1418:1419:1420:1421:1422:1423:1424:1425:1426:1427:1428:1429:1430:1431:1432:1433:1434:1435:1436:1437:1438:1439:1440:1441:1442:1443:1444:1445:1446:1447:1448:1449:1450:1451:1452:1453:1454:1455:1456:1457:1458:1459:1460:1461:1462:1463:1464:1465:1466:1467:1468:1469:1470:1471:1472:1473:1474:1475:1476:1477:1478:1479:1480:1481:1482:1483:1484:1485:1486:1487:1488:1489:1490:1491:1492:1493:1494:1495:1496:1497:1498:1499:1500:1501:1502:1503:1504:1505:1506:1507:1508:1509:1510:1511:1512:1513:1514:1515:1516:1517:1518:1519:1520:1521:1522:1523:1524:1525:1526:1527:1528:1529:1530:1531:1532:1533:1534:1535:1536:1537:1538:1539:1540:1541:1542:1543:1544:1545:1546:1547:1548:1549:1550:1551:1552:1553:1554:1555:1556:1557:1558:1559:1560:1561:1562:1563:1564:1565:1566:1567:1568:1569:1570:1571:1572:1573:1574:1575:1576:1577:1578:1579:1580:1581:1582:1583
tree_sizes=8081 8421 8463 8430 8428 8195 8493 8313 8139 8131 8108 8236 8220 8535 8389 8267 8270 8495 8155 8431 8408 8336 8333 8342 8340 8137 8469 8383 8369 8166 8278 8146 8236 8184 8377 8181 8237 8202 8217 8168 8277 8258 8415 8323 8304 8389 8382 8433 8229 8276 8578 8265 8412 8389 8341 8360 8174 8349 8484 8396 8458 8311 8517 8366 8243 8432 8216 8595 8592 8720 8657 8435 8403 8616 8414 8524 8598 7780 8432 7753 8425 8697 8840 9111 8749 6668 6386 7723 6537

Tree=0
num_leaves=95
num_cat=0
split_feature=0 0 0 34 57 32 0 57 32 48 32 59 58 58 58 5 57 46 57 57 0 0 57 58 46 0 58 44 44 58 0 47 0 57 44 58 57 32 57 57 57 58 0 46 5 44 0 44 5 44 58 58 46 0 44 0 47 57 5 6 0 57 44 0 57 5 0 0 36 45 57 58 0 45 46 58 58 44 58 6 5 0 57 57 0 0 0 58 58 57 46 0 0 44
split_gain=5.2964e+08 1.71513e+08 1.05816e+08 3.3501e+07 2.53741e+07 2.08567e+07 2.06052e+07 1.37444e+07 1.23017e+07 7.7129e+06 7.33778e+06 5.37015e+06 4.51538e+06 4.42478e+06 4.0663e+06 4.03559e+06 2.47704e+06 2.35281e+06 2.28547e+06 2.02694e+06 1.88781e+06 1.82947e+06 1.52648e+06 1.40806e+06 1.37375e+06 1.34008e+06 1.20961e+06 1.15088e+06 991588 964801 879636 818102 788808 773606 770157 768764 722410 718560 662994 534381 403790 401975 350607 347178 341883 313041 309117 307570 278413 259760 255936 204254 183358 183080 170195 160605 160303 154698 151437 126009 122964 116999 104577 102195 93328 90670.9 89683.5 86639.3 84748.9 83960.2 83871.3 82789.2 80741.4 80687.9 80141.3 79930.7 76891.2 75920 75839.8 73247.1 69823.9 68639.6 64344.4 59809.2 52817 50855.9 50258.4 44756 44716.1 42394.8 40874.4 38309.6 37705.3 36297.8
threshold=482.50000000000006 112.50000000000001 1169.5000000000002 27.125000000000004 245.00000000000003 1700.7500000000002 246.50000000000003 207.50000000000003 767.25000000000011 24.708333333333339 55.125000000000007 -48.499999999999993 -21.418640824137793 -4.9869108632541641 -2.7777777199074083 7.5000000000000009 157.50000000000003 9.333333333333341 150.50000000000003 117.50000000000001 339.50000000000006 163.50000000000003 9.5000000000000018 -27.258196669223995 80.333333333333357 628.50000000000011 -40.375793449941391 4.666666666666667 119.83333333333336 -49.939891316184237 169.50000000000003 51.083333333333343 348.50000000000006 46.500000000000007 1.6666666666666667 -14.278917010045637 80.500000000000014 33.125000000000007 35.500000000000007 64.500000000000014 110.50000000000001 -28.540098147291289 79.500000000000014 -2.6666666666666647 15.833333333333334 14.666666666666671 78.500000000000014 11.666666666666671 39.166666666666679 -4.6666666666666599 -54.147552140051793 -68.544971930951007 -0.16666666666666627 196.50000000000003 -1.3333333333333324 651.50000000000011 103.58333333333333 91.500000000000014 2.5000000000000004 82.416666666666671 138.50000000000003 17.500000000000004 18.166666666666661 141.50000000000003 80.500000000000014 46.500000000000007 392.50000000000006 288.50000000000006 18.875000000000004 33.333333333333364 29.500000000000004 -21.418640824137793 279.50000000000006 27.333333333333343 22.833333333333343 -50.961893571681642 -49.939891316184237 4.6666666666666705 -10.521094115232637 29.416666666666668 15.16666666666667 372.50000000000006 32.500000000000007 14.500000000000002 66.500000000000014 201.50000000000003 46.500000000000007 -18.173953231447232 -55.538026969717187 110.50000000000001 -0.33333333333333309 168.50000000000003 80.500000000000014 0.3333333333333332
decision_type=2 2 2 2 2 2 2 2 2 2 2 2 2 2 2 2 2 2 2 2 2 2 2 2 2 2 2 2 2 2 2 2 2 2 2 2 2 2 2 2 2 2 2 2 2 2 2 2 2 2 2 2 2 2 2 2 2 2 2 2 2 2 2 2 2 2 2 2 2 2 2 2 2 2 2 2 2 2 2 2 2 2 2 2 2 2 2 2 2 2 2 2 2 2
left_child=1 3 8 15 10 9 7 13 12 -4 17 -7 29 26 23 19 35 37 25 34 36 33 41 50 27 61 51 44 -11 -2 63 48 72 60 58 -10 67 43 53 46 66 75 84 68 52 80 70 77 62 76 -8 -3 88 -23 -46 -31 -33 -35 93 -56 83 -14 -19 87 -40 -51 -22 -16 -5 -47 -24 -32 -25 -49 -50 -12 -39 -36 -44 -45 -29 -52 -48 -15 -43 -73 -78 -28 -17 -41 -60 -53 -77 -1
right_child=2 6 5 4 -6 11 14 -9 16 28 22 -13 18 21 20 24 -18 31 -20 -21 40 38 39 32 -26 -27 30 45 -30 55 71 56 -34 57 47 -37 -38 49 64 89 -42 42 78 79 54 69 82 73 74 65 81 91 -54 -55 59 -57 -58 -59 90 -61 -62 -63 -64 -65 -66 -67 -68 -69 -70 -71 -72 85 -74 -75 -76 92 86 -79 -80 -81 -82 -83 -84 -85 -86 -87 -88 -89 -90 -91 -92 -93 -94 -95
leaf_value=18.140028119055749 25.146910159148227 18.965873646898508 58.848442123064281 18.624004428579198 63.985004543137286 87.153628569448188 22.439425334268655 56.889766506027918 44.962861692007749 75.295170616891014 19.141059723319444 125.0937212353806 38.391925035663171 23.184606333717348 29.724618541935051 18.279865574255915 69.239361469755579 19.980713266384679 54.981078484921035 27.450938385617022 33.829646955002858 25.604478896462364 21.368578990035239 27.23634714088724 26.526282846979985 46.568374597426534 21.727969806140685 19.018142396036669 96.152623300112737 32.763628855718295 23.978346992648635 22.854231104813415 31.774343075032625 26.077543854230328 18.430782314113213 55.354269652321378 35.433731916532935 18.924523829949116 28.155713714493004 24.471114438389336 41.443866150280144 20.34737821839429 21.220046605520736 19.26041628053807 18.651927348611338 19.976425629418262 22.605146440958094 19.253914116563639 20.743014485616584 19.812027442388857 25.493388679342331 20.793422987699927 18.666555411438868 27.271489713432022 18.98794933350425 39.012161958036842 26.441492466224943 28.832938322698752 18.229260808334026 21.781492454487413 24.696350445267672 42.583815126071798 20.84160624475922 23.12250152557284 30.178386059493192 20.279427969828056 36.985555844468365 31.447493193590653 19.009904657460236 21.436321834695661 22.308666212722628 24.546824825604116 28.850102850376352 20.558561867173214 21.5112513094235 19.801415750208413 19.347932239536789 18.702838742577839 21.867514333277445 19.605924458653142 19.351826706758658 28.36205533165338 23.610338173889492 24.182115314022859 20.879429910617713 25.794409295999806 19.757739810458457 22.550509797738258 18.462460728181998 26.691138564313782 18.344547587865669 21.998513615517577 20.537899369204666 18.2104001654867
leaf_weight=67509 20 92 41 1300 20 21 45 20 28 35 147 23 93 260 203 2865 24 1307 33 37 102 286 542 133 35 116 239 2236 20 30 225 126 162 140 8115 94 63 393 179 83 27 592 552 2263 4576 506 527 417 808 1587 106 124 7975 222 4133 24 25 57 13116 25 356 58 275 305 91 1158 67 168 3033 72 227 179 220 92 310 205 1037 2060 689 1740 1821 23 150 218 646 134 897 246 8656 28 7952 72 257 14362
leaf_count=67509 20 92 41 1300 20 21 45 20 28 35 147 23 93 260 203 2865 24 1307 33 37 102 286 542 133 35 116 239 2236 20 30 225 126 162 140 8115 94 63 393 179 83 27 592 552 2263 4576 506 527 417 808 1587 106 124 7975 222 4133 24 25 57 13116 25 356 58 275 305 91 1158 67 168 3033 72 227 179 220 92 310 205 1037 2060 689 1740 1821 23 150 218 646 134 897 246 8656 28 7952 72 257 14362
internal_value=18.8904 18.7532 54.6273 18.5403 20.0375 85.4299 26.2364 24.6057 46.2225 73.8528 19.9933 108.906 42.2533 24.4061 30.4879 18.3266 56.1621 19.5927 44.4602 18.2136 32.8237 25.766 21.3953 28.3349 18.7167 43.03 22.8806 18.7081 84.1243 33.0843 23.3902 20.636 29.3935 24.6487 18.2105 53.2009 31.2838 19.3707 27.2373 22.4169 36.1531 20.8792 21.1055 19.1422 18.6122 19.2923 22.207 18.5339 20.4745 19.7461 25.1597 20.523 18.5191 26.348 18.8202 35.8565 23.4941 26.9211 18.177 19.0054 24.1029 40.1475 20.1315 22.5315 28.8766 20.0096 35.18 30.5365 18.8941 20.1624 21.6502 24.642 28.2674 19.4926 20.9582 19.9557 19.4348 18.4858 21.5816 19.4107 19.168 26.0739 22.8345 23.6497 20.6264 25.1013 19.5384 22.1519 18.417 25.0959 18.2727 21.2497 20.2138 18.1524
internal_weight=172908 172248 660 167484 20924 140 4764 3445 520 96 20904 44 374 3425 1319 146560 146 16259 300 113660 630 1809 4645 689 32900 267 1616 32865 55 74 1328 2851 515 1031 113623 122 434 13408 778 1557 196 3088 2479 8336 28230 4635 1446 10684 2700 5072 174 288 19496 508 8734 54 151 197 102939 4158 834 151 1582 790 270 2745 169 371 4333 578 769 538 353 509 1118 609 2327 10175 1241 4003 4057 129 677 478 1238 313 1934 485 11521 111 21068 196 462 81871
internal_count=172908 172248 660 167484 20924 140 4764 3445 520 96 20904 44 374 3425 1319 146560 146 16259 300 113660 630 1809 4645 689 32900 267 1616 32865 55 74 1328 2851 515 1031 113623 122 434 13408 778 1557 196 3088 2479 8336 28230 4635 1446 10684 2700 5072 174 288 19496 508 8734 54 151 197 102939 4158 834 151 1582 790 270 2745 169 371 4333 578 769 538 353 509 1118 609 2327 10175 1241 4003 4057 129 677 478 1238 313 1934 485 11521 111 21068 196 462 81871
is_linear=0
shrinkage=1


Tree=1
num_leaves=95
num_cat=7
split_feature=66 66 59 33 33 66 37 6 36 66 33 66 46 66 34 46 33 66 66 66 70 46 46 66 46 46 34 33 36 44 66 34 59 44 66 36 66 70 70 38 66 47 46 46 66 36 46 66 46 44 38 66 46 66 6 66 44 6 6 66 46 59 6 70 33 44 66 66 70 70 62 66 6 66 36 66 59 6 44 49 58 38 38 6 6 6 58 66 66 38 70 34 44 46
split_gain=5.73161e+08 1.57776e+08 1.07507e+08 7.40677e+07 2.64852e+07 2.59268e+07 1.46019e+07 8.54691e+06 5.07623e+06 4.42271e+06 4.21617e+06 2.74815e+06 1.74993e+06 1.51162e+06 1.36337e+06 1.22275e+06 1.02528e+06 918298 833082 816432 739104 707142 699999 649553 565648 402397 375273 359315 292019 272191 232613 229223 219829 209194 203846 203714 192217 191754 186282 185141 166784 157039 128609 114866 113736 105352 104179 103222 83044.2 82153.6 82030.9 78756 69176.7 63486 59990.8 57090.2 56732.6 56290.1 52902.8 51252.2 48100.7 45743.8 43246.1 37274.8 37017.4 34782.9 34510 34127.5 34034.8 31667.3 31575.2 31537 31421 30422.2 29754.1 29677.3 29594.6 29210.9 28608.5 27343.4 25552 25424.2 25028.8 24535.5 24412.2 23083.9 22619.2 21837.8 20127.5 19234 18661.1 18372.1 16775.9 16255.8
threshold=398.54654058820734 65.951307189542504 1024.5000000000002 1174.5000000000002 26.250000000000004 181.82682160381799 1724.0000000000002 771.91666666666674 60.875000000000007 4.5478114478114486 150.25000000000003 238.62650966183577 -132.33333333333326 33.182330246913587 6.6250000000000009 -7.1666666666666599 607.50000000000011 96.951307189542504 17.753472222222225 143.08907903439157 0 41.416666666666679 -132.33333333333326 23.120370370370374 4.5500000000000007 4.5500000000000007 450.75000000000006 926.00000000000011 34.125000000000007 0.66666666666666674 41.642466329966332 50.625000000000007 36.500000000000007 216.66666666666671 143.08907903439157 9.6250000000000018 -27.051029671127708 1 2 240.37500000000003 45.165114379084976 6.166666666666667 5.8333333333333357 22.083333333333332 10.482702020202021 169.37500000000003 -9.8333333333333286 45.165114379084976 -0.66666666666666619 7.6666666666666705 240.37500000000003 29.165246654217245 -1.8333333333333324 83.938403880070567 30.750000000000004 115.31470637303973 14.666666666666671 14.583333333333334 51.083333333333336 21.825089126559718 25.916666666666675 58.500000000000007 1.7500000000000002 3 307.50000000000006 2.6666666666666701 11.542184667184669 -59.999618871745305 4 5 -39.943816112675954 83.938403880070567 17.916666666666668 54.154634581105178 16.125000000000004 3.2289141414141418 15.500000000000002 52.750000000000007 23.166666666666661 49.625000000000014 -70.52138749758727 183.37500000000003 113.37500000000001 31.916666666666668 51.083333333333336 8.5833333333333339 -66.510892005613115 54.154634581105178 10.482702020202021 97.375000000000014 6 2.6250000000000004 -25.500000000000011 9.333333333333341
decision_type=2 2 2 2 2 2 2 2 2 2 2 2 2 2 2 2 2 2 2 2 9 2 2 2 2 2 2 2 2 2 2 2 2 2 2 2 2 9 9 2 2 2 2 2 2 2 2 2 2 2 2 2 2 2 2 2 2 2 2 2 2 2 2 9 2 2 2 2 9 9 2 2 2 2 2 2 2 2 2 2 2 2 2 2 2 2 2 2 2 2 9 2 2 2
left_child=1 4 3 7 9 10 12 16 13 14 17 39 -5 24 29 27 33 37 38 42 23 -18 -8 36 28 35 64 -9 41 62 59 56 51 -2 55 48 67 -3 69 -7 68 54 45 57 63 92 70 82 86 65 -21 -20 74 -39 -6 -19 83 93 -48 -22 77 -34 -1 -40 -13 91 80 -10 -15 -11 -30 -47 -54 -32 -37 -38 -65 -33 -51 87 -43 -44 -25 -26 -72 -50 -16 -42 -71 -77 -46 -31 -12 -27
right_child=2 5 -4 6 8 11 22 15 20 18 19 26 -14 40 25 -17 21 34 32 50 30 -23 -24 47 31 43 -28 -29 46 49 73 60 61 -35 -36 52 75 53 44 -41 79 66 81 -45 90 71 58 -49 85 78 -52 -53 72 -55 -56 -57 -58 -59 -60 -61 -62 -63 -64 76 -66 -67 -68 -69 -70 88 84 -73 -74 -75 -76 89 -78 -79 -80 -81 -82 -83 -84 -85 -86 -87 -88 -89 -90 -91 -92 -93 -94 -95
leaf_value=-0.71686306216590168 20.784289017140541 4.6621495195927514 124.35768821022728 39.432515956333702 0.27570777491662207 8.6166098034917091 67.391401948474709 26.754637738396141 -0.32043349858592535 0.58082021098612524 4.4481527226514155 12.068952884361392 56.653427124023438 1.6804007099292897 -0.63748529506372376 39.35103805541992 23.799296463527035 4.4530856560202201 0.45100832465815388 7.3059161838387299 0.67715667131154433 31.249932285524764 94.743705589657736 3.1298649783012196 0.75342835689138532 -0.097100610804762053 15.646690277360445 34.71625851779514 0.28026153309201324 -0.60633482070106537 2.0924086481444402 1.4973621976328086 1.3795498898663099 26.446459245352909 6.6716987782353945 -0.37761818346706583 2.2539152723320566 2.9135814316791038 -0.075824253676515643 10.202011150441658 1.779313162385131 -0.42935694737408353 6.1918772477018615 1.4801206888735874 0.16667361322340254 5.3051036042987176 0.81142321801749917 4.5708060266730488 -0.42088528861898949 0.016913825205523706 8.4931683701735281 1.0128712779834286 -0.15572290100744107 3.5444798020699722 0.60291770325602334 5.2872890415476332 1.7488063361428001 0.4606018029288812 1.2897671933792085 1.5539486396745787 2.923997703128391 2.5123392708693881 -0.64677791890791425 -0.27606611176856127 13.352774732245773 -0.40065484226480524 0.30354798983306802 1.2313091773986817 1.1816909756201581 0.087454299920946693 0.40706511343724627 6.3616249842425576 0.15418621252849699 2.5327237550390458 -0.17486258840533567 2.4105281185281688 1.1948364866863599 2.2345003683155982 1.3210999094645184 2.9079942468496474 -0.0053172968029165492 7.2564199652188064 3.8615569855965974 1.0839978622186064 0.86670106494056864 -0.26527395675762638 -0.51061148122688471 2.1574236761557088 0.33291109289213966 3.1335778966939678 -0.015447019767530337 -0.50177307188571429 5.3064115301638228 0.23168222946545838
leaf_weight=71654 182 251 21 27 1787 244 20 50 33 380 100 243 51 529 3078 79 88 424 2244 290 137 52 20 155 957 1086 116 44 643 6074 533 250 236 28 114 3848 232 919 2233 420 694 268 166 102 1338 105 1351 355 4551 262 259 486 1732 401 1805 267 131 527 516 522 71 78 17698 5653 304 2773 508 69 1184 1326 337 305 749 585 1661 115 21 144 29 51 1470 137 272 593 418 2307 8610 443 896 211 2706 4922 244 308
leaf_count=71654 182 251 21 27 1787 244 20 50 33 380 100 243 51 529 3078 79 88 424 2244 290 137 52 20 155 957 1086 116 44 643 6074 533 250 236 28 114 3848 232 919 2233 420 694 268 166 102 1338 105 1351 355 4551 262 259 486 1732 401 1805 267 131 527 516 522 71 78 17698 5653 304 2773 508 69 1184 1326 337 305 749 585 1661 115 21 144 29 51 1470 137 272 593 418 2307 8610 443 896 211 2706 4922 244 308
internal_value=0.000236844 -0.142642 37.1202 34.0729 -0.358552 6.64524 62.6469 27.5187 1.11989 -0.530247 5.02936 11.4867 51.2672 0.793625 -0.609673 34.9129 23.7747 3.95615 0.0654174 6.61366 2.5534 26.7688 83.0453 3.24444 0.583574 -0.365003 13.3255 30.8078 0.44576 -0.677238 1.96183 1.16767 0.667084 21.6611 5.05811 -0.40646 2.33652 3.38861 -0.0604668 9.63329 1.60763 0.27625 5.94883 0.178711 -0.127225 5.64025 0.748671 4.04816 -0.479208 -0.513552 7.88048 0.551374 -0.237558 3.08444 0.44026 4.78262 0.949204 0.108865 0.944258 1.373 1.95367 1.66809 -0.702989 -0.215572 12.8055 -0.527609 0.0138617 0.730844 1.3533 0.245623 0.486965 6.10467 -0.0621306 2.32488 -0.316532 2.62816 -0.269933 1.7718 0.151032 1.9729 -0.0709251 6.69556 3.60393 0.880528 0.662375 -0.368588 -0.544077 1.92842 0.185711 2.88673 0.0452047 -0.559583 5.07059 -0.0243287
internal_weight=172908 172246 662 641 166937 5309 118 523 17369 149568 3982 1327 78 14150 131971 173 350 2376 17597 1606 3219 140 40 1442 11249 28559 663 94 9103 103412 1777 2146 3044 210 805 26536 660 1571 14553 664 2901 5838 1057 2023 11951 754 3265 782 18546 14060 549 2730 7990 1320 3592 691 1681 1921 1867 659 465 314 89352 7907 547 13769 2246 102 1713 2602 1398 410 2481 1118 5509 558 5674 394 291 1188 1738 303 427 1550 755 6858 11688 1137 2222 326 4044 10996 344 1394
internal_count=172908 172246 662 641 166937 5309 118 523 17369 149568 3982 1327 78 14150 131971 173 350 2376 17597 1606 3219 140 40 1442 11249 28559 663 94 9103 103412 1777 2146 3044 210 805 26536 660 1571 14553 664 2901 5838 1057 2023 11951 754 3265 782 18546 14060 549 2730 7990 1320 3592 691 1681 1921 1867 659 465 314 89352 7907 547 13769 2246 102 1713 2602 1398 410 2481 1118 5509 558 5674 394 291 1188 1738 303 427 1550 755 6858 11688 1137 2222 326 4044 10996 344 1394
cat_boundaries=0 2 6 10 14 18 22 26
cat_threshold=192 32768 192 32768 0 4 287309824 3496506496 1477608648 19014465 202457382 605224961 2768850946 1064968 287309824 2415919232 1342177416 19005956 285212672 2415923328 1073741832 19005952 202457382 605224961 2752073730 1064968
is_linear=0
shrinkage=0.04


Tree=2
num_leaves=95
num_cat=4
split_feature=66 66 59 0 5 66 0 5 32 70 5 66 58 66 66 44 46 66 71 44 46 34 44 32 66 66 44 44 66 66 66 60 32 38 46 60 32 5 60 66 57 32 66 32 46 32 45 44 5 66 38 70 44 44 66 66 32 44 66 60 60 58 66 2 44 46 44 44 70 46 44 59 0 66 63 34 66 44 38 58 5 32 60 45 66 66 5 2 44 58 46 5 5 5
split_gain=5.29267e+08 1.45466e+08 9.95319e+07 7.12878e+07 2.46058e+07 2.38984e+07 1.78011e+07 7.82247e+06 5.15199e+06 3.86278e+06 3.61917e+06 2.53464e+06 2.13319e+06 1.58364e+06 1.38018e+06 1.19473e+06 1.09687e+06 1.05978e+06 803033 691634 508310 473379 729653 402270 323056 310579 283311 268818 262814 253289 239277 226591 184202 170475 166094 146399 144743 143059 139738 122736 107195 105800 98512.2 97724.6 96037.2 80387.2 78726 77150.5 75299.8 71012 68857.6 62548.7 62479.5 60741.5 58547.1 45907.4 45547.2 43421 41548.8 40858.1 39218.6 38618.6 37449.3 37435.7 37327.6 35999.4 33512.5 33102.5 32563.1 32296.3 32087.4 30778 30144.2 28513.6 28236.3 26836.4 25661.3 25571.6 25303.9 24457.4 22575 20300.5 19555.2 19219.8 17734.8 17704.2 16586 15967.9 14351.6 13735 13341.1 12777.8 12142.7 12065.2
threshold=398.54654058820734 65.951307189542504 1024.5000000000002 1169.5000000000002 25.500000000000004 181.82682160381799 1959.0000000000002 750.00000000000011 58.750000000000007 0 7.8333333333333348 238.62650966183577 -4.535170598098218 115.31470637303973 27.464576318742989 81.833333333333343 5.3333333333333357 115.31470637303973 1 1.6666666666666667 4.5500000000000007 567.75000000000011 39.416666666666679 376.25000000000006 23.120370370370374 7.1505531505531517 14.166666666666659 10.666666666666671 45.165114379084976 83.938403880070567 41.642466329966332 -49.846613114444118 36.750000000000007 240.37500000000003 18.583333333333332 -66.614572118222 103.12500000000001 2.8333333333333335 -49.846613114444118 143.08907903439157 304.00000000000006 927.00000000000011 143.08907903439157 12.750000000000002 9.6666666666666643 144.25000000000003 27.333333333333343 -3.6666666666666647 17.166666666666668 83.938403880070567 42.875000000000007 2 27.666666666666682 4.1666666666666581 -23.834753345782755 13.228914141414142 106.25000000000001 0.33333333333333376 96.951307189542504 -83.239692962975809 -46.628171177527122 -35.120758395394077 54.154634581105178 51.500000000000007 -2.8333333333333424 0.16666666666666632 -0.33333333333333254 13.166666666666659 3 33.666666666666714 -80.999999999999986 44.500000000000007 285.50000000000006 45.165114379084976 85.500000000000014 35.750000000000007 54.154634581105178 7.666666666666667 106.87500000000001 -87.447473431045879 3.5000000000000004 27.625000000000004 -74.919345222296826 7.3333333333333321 33.182330246913587 73.624410774410791 49.166666666666679 19.500000000000004 -0.33333333333333309 -44.827585047562451 6.6666666666666705 49.833333333333336 11.16666666666667 49.166666666666679
decision_type=2 2 2 2 2 2 2 2 2 9 2 2 2 2 2 2 2 2 9 2 2 2 2 2 2 2 2 2 2 2 2 2 2 2 2 2 2 2 2 2 2 2 2 2 2 2 2 2 2 2 2 9 2 2 2 2 2 2 2 2 2 2 2 2 2 2 2 2 9 2 2 2 2 2 2 2 2 2 2 2 2 2 2 2 2 2 2 2 2 2 2 2 2 2
left_child=1 4 3 7 10 9 12 21 14 17 19 33 -5 29 20 41 25 49 24 37 31 40 -23 72 54 38 48 53 35 85 51 59 47 -7 50 79 67 65 82 -15 -2 70 -19 57 56 74 -29 81 77 -3 -22 -16 -28 80 -10 68 61 92 -31 -6 -39 -37 -32 -61 86 -1 -45 -26 -27 -36 -9 84 -13 -38 76 -49 -30 -18 90 -20 -21 -33 -12 -50 -53 -11 -34 -84 -62 -58 -56 -52 -40 -66
right_child=2 5 -4 6 8 11 -8 15 18 13 16 23 -14 39 30 -17 26 42 28 27 34 22 -24 -25 36 55 52 46 45 58 62 32 64 -35 69 44 73 60 43 -41 -42 -43 -44 66 -46 -47 -48 75 83 -51 91 71 -54 -55 78 -57 89 -59 -60 63 88 -63 -64 -65 93 -67 -68 -69 -70 -71 -72 -73 -74 -75 -76 -77 -78 -79 -80 -81 -82 -83 87 -85 -86 -87 -88 -89 -90 -91 -92 -93 -94 -95
leaf_value=-0.69130177678881477 19.092657382812501 5.1407661613695552 119.60948686079546 40.943534191042879 -0.54086725855213047 8.2733521628866384 86.424743726325758 23.415870703125002 1.0444251683073222 2.6565508253904349 -0.61881833171785283 11.217248169722829 56.981524135044651 5.006991234981653 1.5366450441321546 41.091585621553314 0.056770915522113399 7.1775412245928223 -0.61714456222559277 -0.49725870354411739 0.74666951330808484 21.72480129452202 28.221875980564807 14.791618644365299 2.7610968198707635 0.11577410588342212 0.95885226881607721 0.29280640096199223 1.9630326496906361 3.4857349046610171 1.6062756468572013 0.041170920743703932 0.50586522482315488 9.794899806659183 1.713173396333735 0.99619350704772414 3.6925105660302298 -0.63813515022479295 -0.42978752368547563 6.1323713728814644 24.729061976841518 34.83642345081676 8.4237761547578778 -0.18129725454466197 2.8995042436578302 3.9037097808837893 1.5495824294394636 0.34756606736180012 0.37470639418684087 6.0323287786094886 1.1930735410908937 0.85383775924505034 1.9655129689618576 -0.21341747020477583 1.9853464952764666 0.17087378364561445 1.7110417262486051 -0.21612747413705799 4.0796578486831736 -0.17875883065681872 -0.5616523741582321 1.5817591576148076 2.0812836130439778 0.25736597027202002 0.88487062144653961 -0.62364690271743894 0.050301506644247616 3.7650738023202632 -0.12880759012501072 2.743081757009846 30.12865912543403 2.4852162586558952 12.560610841901115 4.4155238616466521 3.7251241025057702 0.59186117087135348 2.3740512773055067 0.31135617900524953 2.8007865028707393 0.57097401987001728 -0.35888744280578655 0.26152696707097361 -0.50838482234110072 0.65480080734737345 1.0887568025260135 3.0385411324530294 0.78052302502203674 -0.32695298899689484 -0.47746571673100702 2.8703063306621477 2.76415130342756 1.6996962393853898 -0.32737468227980626 1.2809175044025867
leaf_weight=68562 124 329 21 42 280 244 32 24 52 512 1610 156 48 428 479 33 1888 235 37 3926 1091 126 60 152 277 1139 574 532 477 471 977 1392 741 420 187 241 223 6702 4141 306 20 43 357 3395 88 49 93 1889 1059 411 252 1116 120 2837 186 1723 34 3693 445 812 6453 812 390 513 381 15572 1416 78 3607 72 89 21 355 255 21 1170 631 948 233 102 3669 1288 2442 629 1014 488 689 1151 6672 50 55 132 3401 196
leaf_count=68562 124 329 21 42 280 244 32 24 52 512 1610 156 48 428 479 33 1888 235 37 3926 1091 126 60 152 277 1139 574 532 477 471 977 1392 741 420 187 241 223 6702 4141 306 20 43 357 3395 88 49 93 1889 1059 411 252 1116 120 2837 186 1723 34 3693 445 812 6453 812 390 513 381 15572 1416 78 3607 72 89 21 355 255 21 1170 631 948 233 102 3669 1288 2442 629 1014 488 689 1151 6672 50 55 132 3401 196
internal_value=0.000427172 -0.136872 35.6707 32.7387 -0.344188 6.38082 60.201 26.1798 1.01154 4.82944 -0.518138 11.029 50.0295 3.88733 0.67631 32.7734 -0.148432 6.62058 2.30708 -0.624002 0.446463 22.3158 23.9605 12.7949 3.10909 -0.248588 0.38354 -0.323187 1.85772 3.29343 1.31348 0.329747 0.419368 9.24909 1.07532 1.48485 3.6242 -0.655993 -0.322463 5.48389 20.0408 30.7632 7.94204 -0.26402 1.62435 2.30359 0.482023 0.303918 0.267954 5.64344 0.910102 1.08952 1.13552 -0.371472 2.34697 -0.00591333 1.52318 -0.328615 3.77842 -0.102757 -0.559234 1.44883 1.74323 -0.00982264 0.74917 -0.678788 -0.113131 2.9917 -0.0701213 2.00901 28.921 0.977585 12.1733 4.08667 2.23073 0.441173 2.19905 0.141959 2.48732 0.25242 -0.430473 0.147139 -0.502612 0.479416 0.96614 2.84583 0.638667 -0.450377 -0.518898 2.42697 2.17385 1.37124 -0.383658 1.02142
internal_weight=172908 172246 662 641 166937 5309 122 519 18983 3982 147954 1327 90 2650 15082 189 32936 1332 3901 115018 11085 330 186 663 1359 27718 5218 11057 2542 1916 3997 9351 7746 664 1734 1364 833 103961 21249 734 144 156 592 16046 1225 1178 625 5739 4524 740 1475 2630 694 10432 526 6469 1137 11235 916 1605 19827 1053 1367 1325 2007 84134 4811 355 4746 259 113 2151 511 478 1129 3059 1108 2836 474 139 7595 2680 5203 1688 2130 1000 1430 3593 13125 84 241 384 7542 577
internal_count=172908 172246 662 641 166937 5309 122 519 18983 3982 147954 1327 90 2650 15082 189 32936 1332 3901 115018 11085 330 186 663 1359 27718 5218 11057 2542 1916 3997 9351 7746 664 1734 1364 833 103961 21249 734 144 156 592 16046 1225 1178 625 5739 4524 740 1475 2630 694 10432 526 6469 1137 11235 916 1605 19827 1053 1367 1325 2007 84134 4811 355 4746 259 113 2151 511 478 1129 3059 1108 2836 474 139 7595 2680 5203 1688 2130 1000 1430 3593 13125 84 241 384 7542 577
cat_boundaries=0 2 44 48 52
cat_threshold=192 32768 131072 64 0 156762112 54591488 0 2 0 0 0 0 0 0 0 0 0 0 0 0 2097152 12585360 726464 0 0 0 0 16384 0 0 0 0 0 0 0 0 0 0 0 0 0 8388608 1 285212672 2415919232 268435464 19005956 137363748 1144025089 202540226 1057097
is_linear=0
shrinkage=0.04


Tree=3
num_leaves=95
num_cat=4
split_feature=66 66 59 0 5 66 0 5 32 33 5 66 33 57 46 58 46 71 66 46 66 46 66 32 66 66 66 46 45 45 45 67 38 66 60 70 38 38 60 67 67 60 32 66 46 38 66 32 46 66 63 60 46 5 66 45 2 66 45 46 66 46 66 46 46 2 60 46 67 38 66 67 58 70 38 66 66 70 2 0 38 66 38 45 65 60 38 66 46 60 38 60 7 46
split_gain=4.88675e+08 1.34095e+08 9.21536e+07 6.59247e+07 2.26827e+07 2.20336e+07 1.27137e+07 1.05373e+07 4.89377e+06 3.60216e+06 3.18946e+06 2.33764e+06 1.61194e+06 1.45846e+06 1.21469e+06 1.19871e+06 973895 899504 777764 746930 689793 636311 469755 371428 315204 300945 271829 257551 246291 224958 213344 180389 175138 173246 168930 166185 164003 156970 153212 142685 133283 120967 118058 97778 86204.9 80014.4 77941.9 76439.2 72293.7 68797.2 62188.1 61527.8 60053.9 59385.4 59275.9 57902 56893.3 53690.4 46927.5 46857.9 46264.4 43108.5 38494 37661.9 36650.1 36613.8 36347 35407.4 33464 33248.7 33211.5 32704.9 32652.5 31251.2 30065 30006.7 29573.3 29385.3 28092.9 27488.2 24167.2 23716.6 22422.1 20636 20011.9 18964.3 18224.5 17672.5 17362 17270.4 17114.2 17048.4 16727.6 16613.8
threshold=398.54654058820734 65.951307189542504 1024.5000000000002 1293.0000000000002 24.833333333333339 181.82682160381799 1959.0000000000002 866.83333333333337 55.125000000000007 150.25000000000003 7.8333333333333348 238.62650966183577 607.50000000000011 66.500000000000014 4.5500000000000007 -12.474898792144076 5.549999999999998 0 96.951307189542504 36.083333333333343 143.08907903439157 2.5500000000000003 20.738838335461903 376.25000000000006 23.120370370370374 45.165114379084976 6.4695216049382731 17.833333333333343 14.166666666666659 14.166666666666659 240.83333333333337 2.2289297829828985 45.375000000000007 143.08907903439157 -49.846613114444118 1 3.6250000000000004 240.37500000000003 -37.453701290681018 1.7610371071880644 2.2289297829828985 -49.846613114444118 33.125000000000007 115.31470637303973 11.166666666666671 16.375000000000004 35.709259259259262 144.25000000000003 33.666666666666714 96.951307189542504 160.50000000000003 -83.239692962975809 6.8333333333333357 16.500000000000004 -23.834753345782755 28.333333333333361 90.500000000000014 83.938403880070567 34.166666666666636 -0.33333333333333309 11.542184667184669 -3.6666666666666647 115.31470637303973 0.16666666666666632 -1.3333333333333324 98.500000000000014 -74.919345222296826 0.83333333333333381 1.7610371071880644 43.375000000000007 41.642466329966332 2.3715471488816338 -19.036004145845073 2 33.875000000000007 54.154634581105178 41.642466329966332 3 51.500000000000007 285.50000000000006 57.375000000000007 2.0888047138047141 4.8750000000000009 7.666666666666667 214.70833333333337 -17.371450842983691 33.875000000000007 27.464576318742989 59.583333333333343 -15.76875211262419 32.625000000000007 -74.919345222296826 127.54166666666667 9.9166666666666696
decision_type=2 2 2 2 2 2 2 2 2 2 2 2 2 2 2 2 2 9 2 2 2 2 2 2 2 2 2 2 2 2 2 2 2 2 2 9 2 2 2 2 2 2 2 2 2 2 2 2 2 2 2 2 2 2 2 2 2 2 2 2 2 2 2 2 2 2 2 2 2 2 2 2 2 9 2 2 2 9 2 2 2 2 2 2 2 2 2 2 2 2 2 2 2 2
left_child=1 4 3 7 10 9 15 12 14 18 21 37 30 -9 22 -5 26 24 35 89 40 36 34 79 54 38 41 32 53 52 -2 -22 74 50 66 -3 63 71 51 70 43 91 61 -11 56 67 73 75 69 -42 62 -19 82 83 -10 -30 85 -37 -31 -38 77 86 92 -1 -47 -53 -6 -43 81 -29 -26 -7 -44 -24 -16 -27 -41 -28 -68 -13 -34 -56 -23 -18 -33 -40 -36 -75 -50 -14 -63 -12 -20 -55
right_child=2 5 -4 6 8 11 -8 13 17 20 16 23 19 -15 27 -17 28 25 33 -21 31 29 46 -25 39 47 60 48 55 58 -32 84 80 -35 42 57 59 -39 44 76 49 45 72 -45 -46 64 -48 -49 88 -51 -52 65 -54 93 68 -57 -58 -59 -60 -61 -62 90 -64 -65 -66 -67 78 -69 -70 -71 -72 -73 -74 87 -76 -77 -78 -79 -80 -81 -82 -83 -84 -85 -86 -87 -88 -89 -90 -91 -92 -93 -94 -95
leaf_value=-0.6642397934825115 19.222611646899288 4.3030638716603056 115.04257690429688 37.303794759114588 -0.43038854493799372 8.9661922590699916 83.072510431463073 31.696643094468392 0.89405795257918685 5.5612740843886632 -0.59490714277625834 10.771416027287769 18.623198876953126 42.495361633300782 0.65468810497058771 54.692936336436169 0.050452759031138092 -0.2936078730050255 3.8311367463142645 29.384967367682659 8.1621912345239682 -0.43071385272765933 1.0467733330480831 14.203820832695058 3.6375896857766543 1.8993711344838757 0.075167458676029558 1.3653397460305012 0.91344342860769712 0.53660317326223617 25.216954717221466 6.2251984046692179 1.3089307226435174 6.1464554045304007 -0.027967379401237568 2.6836774842635447 -0.57659390342469996 9.4040345673549766 1.200094195949641 2.5151000264485677 4.0413877684070219 -0.38226612828952372 0.4285130947156629 6.8525447884584088 2.7613623017246285 -0.21810903671236515 1.294208638854478 3.7506843536376953 2.3662170844444863 5.2565121238819064 6.2233767161649816 0.6595803625723895 -0.088564181206742185 0.34059471951516024 2.1845424753824871 1.9231911863847213 2.2438370483854544 3.2639707282526578 1.8532914344937195 -0.45914335043501936 0.10784823316110856 0.24296615061975524 4.7459443989336254 -0.59631889435955732 -0.0069540419029080992 1.360086123696689 -0.14751284516277938 -0.21253001388399029 1.908012607715748 1.9206154179712485 4.4532532840304908 7.4663082233054103 0.75882471618528902 0.55081789575280238 0.9562557616656957 2.3021498143250678 3.3013989416443472 -0.16098329842534667 0.27947022419278794 12.059597792036078 1.725088187839674 2.9844940444321661 -0.27859202656762894 0.29048779118878498 7.2837136557667526 1.5729533006248222 0.19819892942967307 0.80346838194044079 3.6292785644531249 23.874384647110134 0.46044830129250186 -0.43624122364833007 4.5805074684292668 0.59872162508890725
leaf_weight=67646 192 251 21 20 467 72 32 86 48 435 1585 156 24 47 989 46 1663 67 309 70 235 3389 474 152 203 580 1101 385 563 301 22 218 742 114 1082 919 13729 420 396 164 123 6641 1004 155 102 3660 485 49 129 344 33 254 1634 1064 119 109 160 401 50 9055 2511 1387 248 16337 2053 231 772 2801 161 341 215 172 926 1131 1171 733 201 3546 361 355 344 170 2877 874 96 564 1203 746 25 102 1000 3522 101 645
leaf_count=67646 192 251 21 20 467 72 32 86 48 435 1585 156 24 47 989 46 1663 67 309 70 235 3389 474 152 203 580 1101 385 563 301 22 218 742 114 1082 919 13729 420 396 164 123 6641 1004 155 102 3660 485 49 129 344 33 254 1634 1064 119 109 160 401 50 9055 2511 1387 248 16337 2053 231 772 2801 161 341 215 172 926 1131 1171 733 201 3546 361 355 344 170 2877 874 96 564 1203 746 25 102 1000 3522 101 645
internal_value=0.000576242 -0.131353 34.2757 31.4546 -0.3304 6.12641 61.5695 25.9162 0.948646 4.63678 -0.500368 10.5895 22.6302 35.8015 0.607278 50.0592 -0.149399 2.12019 3.6448 25.4366 6.10117 -0.599043 0.388332 12.2855 3.02739 1.73358 -0.242365 1.19277 0.36887 -0.26056 19.9534 7.26574 1.0276 4.65896 0.234833 3.12248 -0.625198 8.88021 1.39419 3.55345 5.48998 -0.317219 0.324191 5.91156 1.64423 -0.260449 0.832022 2.187 1.80011 4.94583 4.405 0.838639 -0.304613 0.25611 2.25543 1.07987 1.5401 2.84081 0.728955 -0.529939 -0.0304619 0.215388 4.30447 -0.651035 -0.142247 0.995376 -0.133842 -0.331943 2.3983 1.62846 4.0668 7.94377 0.587315 0.736157 0.818553 2.12582 2.95599 -0.105209 -0.0113221 11.6882 1.44224 2.66384 -0.360927 0.133235 6.57098 1.42058 0.0911299 0.648166 2.59348 23.0288 0.33424 -0.485595 4.02648 0.43832
internal_weight=172908 172246 662 641 166937 5309 98 543 19581 3982 147356 1327 410 133 15164 66 32338 4417 2376 196 1606 115018 11038 663 1281 3136 27420 4126 4918 8251 214 549 3246 805 8202 1571 106767 664 1774 783 1057 20262 6602 590 1222 15155 2836 1362 880 467 691 552 7900 4246 498 672 1120 1320 351 22784 7158 4672 658 83983 5713 485 1600 9442 450 726 418 244 1930 2351 2160 1313 365 4647 1133 511 1086 289 6266 2537 314 960 2285 1877 154 126 2387 5107 410 1709
internal_count=172908 172246 662 641 166937 5309 98 543 19581 3982 147356 1327 410 133 15164 66 32338 4417 2376 196 1606 115018 11038 663 1281 3136 27420 4126 4918 8251 214 549 3246 805 8202 1571 106767 664 1774 783 1057 20262 6602 590 1222 15155 2836 1362 880 467 691 552 7900 4246 498 672 1120 1320 351 22784 7158 4672 658 83983 5713 485 1600 9442 450 726 418 244 1930 2351 2160 1313 365 4647 1133 511 1086 289 6266 2537 314 960 2285 1877 154 126 2387 5107 410 1709
cat_boundaries=0 42 46 50 54
cat_threshold=131072 64 0 156762112 54591488 0 2 0 0 0 0 0 0 0 0 0 0 0 0 2097152 12585360 595392 0 0 0 0 0 0 0 0 0 0 0 0 0 0 0 0 0 0 8388608 1 192 32768 0 4 287309824 2147488896 268435592 19005952 137363716 74674177 202540098 1073481
is_linear=0
shrinkage=0.04


Tree=4
num_leaves=95
num_cat=7
split_feature=66 66 0 57 32 66 0 4 32 66 70 58 37 66 66 34 66 66 66 0 70 66 58 46 32 46 66 66 46 66 36 0 38 66 70 36 66 34 47 58 66 66 66 66 46 66 45 58 46 66 47 38 46 47 70 37 45 0 67 66 66 66 47 49 67 38 67 70 66 70 45 0 66 38 37 46 37 70 58 58 66 58 66 47 58 37 66 0 58 47 37 66 62 46
split_gain=4.51153e+08 1.23637e+08 7.94977e+07 3.62822e+07 2.08543e+07 2.03109e+07 1.68145e+07 5.43627e+06 3.92518e+06 3.61894e+06 3.34691e+06 3.01988e+06 2.23877e+06 2.15525e+06 1.33591e+06 1.09168e+06 1.06778e+06 906792 702802 624878 600131 573012 467456 381322 342949 337637 213410 205215 205204 179250 175834 175823 172462 168169 158827 156939 152416 148079 119971 105908 102588 93740.9 81511 81096.3 77395.5 64777.1 64421.5 59442.3 59180.3 55477.1 51316.4 50081.8 48832.6 46153 41190.2 40834.7 40283.9 39719.7 38697.9 37720.4 36257.5 34020.8 33927.6 33088.5 32443.5 32333.8 31431.9 29001.4 28944.8 28173.9 27424.7 25063 22768 22719.6 22559.2 22093.2 22024.3 21826.4 20398.2 19129.6 18316.9 16648.9 16527.3 16407.2 16099.6 15742.3 15407 15327.7 14583.7 13658.1 13487.6 12853.6 12458.4 12283.9
threshold=398.54654058820734 65.951307189542504 1587.5000000000002 545.00000000000011 23.625000000000004 181.82682160381799 928.50000000000011 1589.0000000000002 62.750000000000007 4.5478114478114486 0 -6.6550114211751872 652.50000000000011 238.62650966183577 115.31470637303973 6.6250000000000009 30.945117845117846 115.31470637303973 17.753472222222225 1095.0000000000002 1 23.120370370370374 -2.1660931868162296 2.3333333333333353 376.25000000000006 3.3333333333333335 83.938403880070567 38.351791726791731 0.83333333333333337 33.182330246913587 34.125000000000007 528.50000000000011 47.375000000000007 -30.91513443267829 2 11.125000000000002 45.165114379084976 244.25000000000003 13.666666666666671 -19.977825028874395 143.08907903439157 9.5478114478114495 143.08907903439157 49.246317340067343 -7.2916666666666634 83.938403880070567 6.3333333333333321 -35.714283801020521 -1.166666666666667 8.7255471380471388 19.666666666666682 17.375000000000004 12.833333333333341 3.3333333333333335 3 2.2500000000000004 20.166666666666661 44.500000000000007 2.0925845447049505 54.154634581105178 -7.782232042648709 96.951307189542504 28.833333333333343 49.625000000000014 1.7306175501692815 36.375000000000007 2.2677442119066007 4 -54.999618871745305 5 20.333333333333343 285.50000000000006 24.429262866762869 11.625000000000002 19.750000000000004 2.5500000000000003 8.2500000000000018 6 -68.544971930951007 -54.147552140051793 54.154634581105178 -9.9872117634598627 73.624410774410791 33.083333333333321 -49.939891316184237 32.750000000000007 10.482702020202021 62.500000000000007 -7.6923075197238697 41.666666666666686 51.750000000000007 45.165114379084976 -62.2157614017028 10.166666666666671
decision_type=2 2 2 2 2 2 2 2 2 2 9 2 2 2 2 2 2 2 2 2 9 2 2 2 2 2 2 2 2 2 2 2 2 2 9 2 2 2 2 2 2 2 2 2 2 2 2 2 2 2 2 2 2 2 9 2 2 2 2 2 2 2 2 2 2 2 2 9 2 9 2 2 2 2 2 2 2 9 2 2 2 2 2 2 2 2 2 2 2 2 2 2 2 2
left_child=1 4 3 6 9 10 12 -4 16 15 17 39 31 37 26 28 23 45 34 -13 21 33 -14 30 71 35 82 49 55 56 44 -2 52 68 67 48 54 66 51 -8 -16 69 -19 58 79 -3 75 78 76 -22 90 -27 85 74 -18 -1 72 81 -23 -29 -35 -28 -40 91 -62 -46 -7 -11 -10 -36 -48 -15 -20 -50 -37 -30 -17 -43 -32 -6 -38 -49 -12 -54 -55 -25 -69 -80 -59 -58 -34 -31 -78 -71
right_child=2 5 7 -5 8 13 11 -9 20 18 14 19 22 24 40 25 36 42 29 -21 27 43 -24 32 -26 38 61 59 46 63 47 -33 50 60 41 53 80 -39 62 -41 -42 77 -44 -45 65 -47 70 57 73 -51 -52 -53 83 84 -56 -57 89 88 -60 -61 64 -63 -64 -65 -66 -67 -68 86 -70 93 -72 -73 -74 -75 -76 -77 92 -79 87 -81 -82 -83 -84 -85 -86 -87 -88 -89 -90 -91 -92 -93 -94 -95
leaf_value=-0.63261858632871226 17.528007992951768 4.7384003591826467 58.744985450006297 79.064288108132104 -0.21053125923233373 8.6096141694721435 24.258433990478515 88.44657240923712 -0.27674257022578541 0.58172262697138333 2.4391466752734563 35.591896587171057 21.816971417051374 10.343303833007813 4.6064234785600142 -0.53534895139123617 1.459796107777378 6.64231627124851 0.35792293360012944 46.756526367187497 -0.057305849482936246 3.5784152441909636 27.608537993849367 0.58423470394487931 13.639381191278595 -0.10178353500002768 3.2104377494424075 1.7945909913469489 -0.50719937952966143 1.0220560953568438 -0.35739831984462878 20.815172300338745 1.2083308770859347 1.7669798578045326 -0.085404111406142957 -0.12496355884604984 1.5876942915757013 9.0458924740408939 0.59381627899032452 32.466955247961955 5.6361416625976561 0.1288883435324496 7.7812765878006065 4.143075363259566 0.23113405023399633 5.5839715353956505 -0.084933851094447704 0.35948325024632843 -0.37943510921793477 1.2199262321741895 2.3331150295116281 0.29634719247656327 1.1561916567274362 -0.39401979117782032 0.99952305179858503 -0.55362383911101543 0.98212169647216796 0.81726636332048119 2.7892875154935401 2.2363767670726622 2.7580495047402547 3.7495251314308611 1.589578549153096 2.1056210349262625 2.0233970139343613 0.49231667331987766 7.179621847551422 0.096127244304356943 1.0769413579399907 -0.26206909545171003 1.0933277365740608 11.578568773591117 0.6164459731098364 -0.22724063764278538 0.1560796606875294 -0.39572270384823632 -0.52557288778868294 -0.042050462321363662 0.21373522984984408 0.089040704007111102 1.9357205223931206 0.6717963529701787 2.8044338012570496 2.3084342160432234 -0.21735682714908044 0.84829294849692372 0.31529839173906804 0.64589420199394232 1.1821822119961265 2.1469932883126397 1.6851825126441751 1.5283598100093374 -0.39107639868814675 0.70883466039385112
leaf_weight=77252 114 329 30 21 475 75 23 33 40 340 512 37 65 156 428 5812 616 235 1795 54 61 290 113 1100 152 2049 471 717 9353 342 70 127 340 166 2266 1745 657 413 221 45 306 1881 357 303 1807 411 448 424 5917 494 107 670 241 1260 1471 12199 94 766 194 610 285 445 73 68 172 1311 176 1266 66 4855 33 355 788 2145 618 4127 1489 3236 388 1202 449 791 488 22 2412 552 864 199 237 20 147 113 4396 20
leaf_count=77252 114 329 30 21 475 75 23 33 40 340 512 37 65 156 428 5812 616 235 1795 54 61 290 113 1100 152 2049 471 717 9353 342 70 127 340 166 2266 1745 657 413 221 45 306 1881 357 303 1807 411 448 424 5917 494 107 670 241 1260 1471 12199 94 766 194 610 285 445 73 68 172 1311 176 1266 66 4855 33 355 788 2145 618 4127 1489 3236 388 1202 449 791 488 22 2412 552 864 199 237 20 147 113 4396 20
internal_value=0.000723629 -0.126039 32.9337 28.3445 -0.317167 5.88275 26.3684 75.4422 1.02063 -0.466573 4.45254 37.499 22.0653 10.1679 3.57641 -0.53892 0.712037 6.11885 0.0663927 42.6535 2.23444 2.84189 25.6274 0.511752 11.7963 -0.321131 3.03095 1.71964 -0.599584 0.601614 0.371637 19.3392 0.939755 2.04765 -0.050655 -0.367933 1.35016 8.52656 0.0795185 30.0826 5.04282 -0.109615 7.34115 3.61011 0.223255 5.21496 -0.456874 0.61894 -0.422464 1.07966 1.53523 -0.00359826 0.754332 -0.189353 1.1478 -0.621852 0.469849 0.717939 3.26856 1.99922 2.29804 3.47616 0.845681 1.27887 2.48662 0.34108 7.63946 0.241335 0.568118 -0.203331 -0.00195468 11.2224 0.437007 -0.338977 -0.0514184 -0.473103 -0.47997 0.020965 0.284113 0.00410196 1.73062 0.56321 2.62005 1.26103 -0.278073 0.672939 0.184281 0.361126 0.904604 1.20355 1.35547 1.15092 -0.425193 -0.257409
internal_weight=172908 172246 662 599 166937 5309 578 63 16770 150167 3982 159 419 1327 2650 132219 13372 1332 17948 91 3398 1516 178 10179 663 28807 1916 1882 103412 3220 7670 241 2509 729 14728 25794 3193 664 3013 68 734 12258 592 787 4795 740 13961 2875 19759 555 594 2719 1915 6035 2087 89451 2697 2218 484 1327 623 916 294 523 457 3118 251 2470 106 7141 481 511 2583 8062 2363 13480 11697 5117 657 1677 1106 1215 1000 263 3672 1652 2130 587 1003 114 487 455 5885 4875
internal_count=172908 172246 662 599 166937 5309 578 63 16770 150167 3982 159 419 1327 2650 132219 13372 1332 17948 91 3398 1516 178 10179 663 28807 1916 1882 103412 3220 7670 241 2509 729 14728 25794 3193 664 3013 68 734 12258 592 787 4795 740 13961 2875 19759 555 594 2719 1915 6035 2087 89451 2697 2218 484 1327 623 916 294 523 457 3118 251 2470 106 7141 481 511 2583 8062 2363 13480 11697 5117 657 1677 1106 1215 1000 263 3672 1652 2130 587 1003 114 487 455 5885 4875
cat_boundaries=0 2 4 8 12 16 20 24
cat_threshold=192 32768 192 32768 287309824 3496506496 1477608648 19014468 287309824 2415919232 1342177416 19005956 285212672 2415919232 1073741832 19005956 210848038 622002177 2768850946 1064969 202457382 622002177 2768850946 1064969
is_linear=0
shrinkage=0.04


Tree=5
num_leaves=95
num_cat=0
split_feature=66 66 59 0 5 66 0 5 36 33 5 66 58 66 57 46 66 0 66 46 46 0 57 41 58 46 66 45 34 36 45 66 37 67 66 34 37 67 58 38 47 58 66 0 58 45 47 0 63 65 0 62 66 5 47 58 34 59 63 45 47 46 46 46 57 46 37 66 37 37 58 46 66 46 63 58 0 38 66 47 37 58 67 66 3 61 0 58 47 58 58 37 67 0
split_gain=4.16498e+08 1.13974e+08 8.19061e+07 5.66778e+07 1.92925e+07 1.87277e+07 1.42097e+07 6.28337e+06 3.97158e+06 3.07635e+06 2.83681e+06 1.98709e+06 1.7571e+06 1.21135e+06 928138 839746 659313 592273 583492 571409 476395 422894 943363 314883 256206 245258 226242 224068 222948 213609 200709 160039 155499 154339 147148 136152 120996 113688 103533 99940.4 89439.1 89249.1 86086.3 82244.3 219280 78343.5 76047.2 72483.3 68425.7 101215 66829.4 59865.4 58925.2 58733 58123.9 57760 56650.6 55092.5 54482.2 53110.8 49274.1 47400.4 44635.2 38917.5 37988.4 37500.4 35527.9 35306.7 35074 34504 34179.2 34179.2 32111.9 31308.7 30973 30241.3 29712.1 28695.5 26355.7 25301.6 24336.8 24233.7 23187.6 22859.1 22117 21839.3 21295.9 21924.3 21032.7 20326 20129.2 19373.1 18646.9 17132.5
threshold=398.54654058820734 65.951307189542504 1024.5000000000002 1169.5000000000002 25.500000000000004 181.82682160381799 1959.0000000000002 750.00000000000011 59.375000000000007 150.25000000000003 8.1666666666666696 238.62650966183577 -4.535170598098218 30.945117845117846 125.50000000000001 5.1666666666666705 96.951307189542504 112.50000000000001 143.08907903439157 2.5500000000000003 0.83333333333333492 528.50000000000011 50.500000000000007 460.50000000000006 -36.363633884297705 -6.3333333333333295 7.1505531505531517 14.166666666666659 50.625000000000007 32.125000000000007 12.333333333333341 45.165114379084976 2.7500000000000004 2.2289297829828985 143.08907903439157 240.25000000000003 120.75000000000001 2.2289297829828985 -49.939891316184237 97.375000000000014 8.5500000000000025 -38.75948240435212 96.951307189542504 804.00000000000011 -9.9872117634598627 129.83333333333337 13.666666666666671 15.500000000000002 363.00000000000006 259.04166666666669 83.500000000000014 -37.46344783921257 96.951307189542504 17.166666666666668 11.666666666666671 -79.958584091141759 132.62500000000003 96.500000000000014 160.50000000000003 29.166666666666661 33.083333333333321 7.3333333333333357 6.1666666666666705 -0.83333333333333348 2.5000000000000004 0.16666666666666632 33.750000000000007 83.938403880070567 18.250000000000004 48.750000000000007 -11.096452021277221 12.166666666666671 115.31470637303973 33.666666666666714 78.500000000000014 -15.384614497041476 214.50000000000003 37.125000000000007 35.709259259259262 33.083333333333321 222.25000000000003 -17.604314964789022 2.3715471488816338 38.351791726791731 55.500000000000007 21.500000000000004 43.500000000000007 -9.0660020650518565 10.083333333333316 -66.510892005613115 -79.958584091141759 3.7500000000000004 2.616145305176564 9.5000000000000018
decision_type=2 2 2 2 2 2 2 2 2 2 2 2 2 2 2 2 2 2 2 2 2 2 2 2 2 2 2 2 2 2 2 2 2 2 2 2 2 2 2 2 2 2 2 2 2 2 2 2 2 2 2 2 2 2 2 2 2 2 2 2 2 2 2 2 2 2 2 2 2 2 2 2 2 2 2 2 2 2 2 2 2 2 2 2 2 2 2 2 2 2 2 2 2 2
left_child=1 4 3 7 10 9 12 21 13 16 19 35 -5 20 43 26 36 25 37 32 29 -2 -23 48 55 41 38 53 46 40 62 73 65 -20 58 82 57 42 -12 71 77 89 -11 -9 -45 -24 66 64 49 -13 86 84 -39 88 -30 -19 70 67 72 -32 -29 -38 91 -34 93 -1 -22 92 -28 -53 -26 -27 -18 83 -33 -52 -57 -6 -58 -48 -35 -49 -7 -15 -31 90 -43 -88 -17 -10 -42 -21 -3 -40
right_child=2 5 -4 6 8 11 -8 14 17 18 15 23 -14 31 -16 27 34 24 33 30 28 22 45 -25 56 39 68 60 54 51 59 74 63 80 -36 -37 61 52 47 -41 85 50 -44 44 -46 -47 79 81 -50 -51 75 69 -54 -55 -56 76 78 -59 -60 -61 -62 -63 -64 -65 -66 -67 -68 -69 -70 -71 -72 -73 -74 -75 -76 -77 -78 -79 -80 -81 -82 -83 -84 -85 -86 -87 87 -89 -90 -91 -92 -93 -94 -95
leaf_value=-0.6114564495405308 17.387522010216347 2.7270225263715759 107.77629760742188 36.228615381994913 0.1572105476753852 8.2420447450525636 76.887674394087369 22.584472063337053 -0.30557425068270777 4.921047256469727 -0.44560497978425589 9.8497912740261757 50.648788564253827 0.97402017665279417 35.779848945813299 0.058033643630123651 3.7096644685100175 -0.20808460571549156 7.5282454978813567 -0.40037305346857893 0.51489052717819617 18.965931159125436 22.5200347405511 13.98464349208734 2.4698884781980825 1.9087015927390119 -0.086078091718165703 0.83481018826450293 1.2011136328992504 0.053339979779149331 0.35582887858296358 1.6313205174422518 -0.53015172820368983 5.6973668702891178 5.662834759256115 8.6625663115599441 3.2978396175044993 3.7268699658301569 -0.40527975304262465 2.8780413626995021 -0.48823066315107178 0.4822429634979431 5.9855132356408527 24.234203720092776 30.55117225324604 29.938742357336956 1.1169230050978318 -0.16181828817469579 13.133095841841264 11.312010435352152 1.6883559184385741 0.52787417180511353 4.8508903445921083 0.42085126388195726 2.0090412060967808 1.7544138756527263 3.0954315741587495 4.215493044969512 5.7556876956715302 1.4555984012379366 1.6642656538790506 4.5927253228264888 -0.12041427184335007 -0.42033355689562735 -0.16630445034300767 -0.54538470796877148 0.82595977896600792 3.0255409358770597 0.10502173726603141 0.85971163990603261 3.4685980931034797 2.6459204185666061 4.3681192200442398 2.5184240844726564 2.7438797690651633 2.3763232456164416 3.1854025217692055 0.40808942428754486 3.9041636716781127 2.2597332466973201 6.7419267406278447 0.036426245686120982 6.8787970470406163 1.2458281388480008 0.43676868391996265 0.78529490993136453 1.1562952564880911 1.6342679078325963 0.30058328241747129 0.8195175787380764 -0.084768877159420428 -0.25538446179933938 2.3299152894598669 -0.28452124650255772
leaf_weight=69737 129 443 21 42 2410 67 32 34 30 299 4659 213 48 1352 38 2043 410 21 235 3424 1993 143 36 77 152 733 3651 526 393 427 413 1131 10583 212 114 427 190 123 3038 302 227 46 291 47 70 22 305 2739 43 330 290 1421 344 1747 231 156 117 40 33 84 148 73 2020 10158 3152 17253 840 348 2652 783 107 126 248 24 43 177 29 1047 309 35 102 1541 170 821 552 41 338 310 794 160 1504 2607 477 4985
leaf_count=69737 129 443 21 42 2410 67 32 34 30 299 4659 213 48 1352 38 2043 410 21 235 3424 1993 143 36 77 152 733 3651 526 393 427 413 1131 10583 212 114 427 190 123 3038 302 227 46 291 47 70 22 305 2739 43 330 290 1421 344 1747 231 156 117 40 33 84 148 73 2020 10158 3152 17253 840 348 2652 783 107 126 248 24 43 177 29 1047 309 35 102 1541 170 821 552 41 338 310 794 160 1504 2607 477 4985
internal_value=0.000843726 -0.120953 31.6437 28.9855 -0.304461 5.64825 53.4712 23.1379 0.895999 4.27491 -0.458489 9.76297 44.3917 0.625516 29.0437 -0.122897 3.35819 2.1338 5.6282 -0.549904 0.440115 19.6778 21.0543 11.3266 3.02081 1.8181 -0.214784 0.338702 0.811977 0.272185 -0.235073 1.29666 -0.574882 6.69939 4.29195 8.187 2.87729 5.066 -0.280309 2.24536 0.114876 1.44952 5.45534 27.1242 28.2406 25.7941 0.67565 -0.230453 10.954 10.7576 1.58114 0.530488 4.56348 0.238445 1.50297 1.77018 3.39375 2.71452 4.0579 0.544295 1.01917 3.67337 -0.283249 -0.476392 -0.284061 -0.598359 0.60739 2.66387 -0.00566537 0.646109 2.89431 2.01981 3.96412 1.09414 1.67439 1.95367 1.99476 0.233294 3.68986 1.24091 6.05707 -0.0904445 7.29728 1.07725 0.269778 -0.116137 1.32798 1.38715 0.126006 0.641097 -0.137941 -0.337755 2.52391 -0.330295
internal_weight=172908 172246 662 641 166937 5309 122 519 18983 3982 147954 1327 90 15580 189 31675 2376 3403 1606 116279 12209 330 201 663 891 2512 26417 5258 3797 8412 8548 3371 107731 549 805 664 1571 1057 20114 1161 5229 1351 590 151 117 58 3173 15455 586 543 1161 3183 467 4584 624 206 685 1308 691 497 674 263 8051 20741 11175 86990 2833 1268 6303 2204 259 859 658 2197 1174 467 185 3457 426 340 314 4280 237 2173 979 1772 694 648 2837 190 1731 6031 920 8023
internal_count=172908 172246 662 641 166937 5309 122 519 18983 3982 147954 1327 90 15580 189 31675 2376 3403 1606 116279 12209 330 201 663 891 2512 26417 5258 3797 8412 8548 3371 107731 549 805 664 1571 1057 20114 1161 5229 1351 590 151 117 58 3173 15455 586 543 1161 3183 467 4584 624 206 685 1308 691 497 674 263 8051 20741 11175 86990 2833 1268 6303 2204 259 859 658 2197 1174 467 185 3457 426 340 314 4280 237 2173 979 1772 694 648 2837 190 1731 6031 920 8023
is_linear=0
shrinkage=0.04


Tree=6
num_leaves=95
num_cat=7
split_feature=66 66 61 0 5 66 38 0 32 46 70 66 66 33 58 66 46 66 5 71 46 66 66 32 45 66 46 66 66 47 58 60 45 46 60 65 38 67 70 32 32 66 47 46 66 66 66 3 2 66 45 67 47 60 66 32 58 60 60 66 2 46 38 2 47 66 66 67 70 46 45 70 0 66 38 38 45 38 46 66 0 70 38 45 2 38 70 46 41 5 0 38 38 5
split_gain=3.84563e+08 1.0508e+08 7.70125e+07 4.71e+07 1.77868e+07 1.72684e+07 8.76832e+06 8.01181e+06 3.85087e+06 3.19495e+06 2.90605e+06 2.50833e+06 1.83312e+06 1.6607e+06 1.23015e+06 1.12913e+06 964357 778932 777964 712132 640888 473524 403227 298844 293883 250431 246240 238531 179429 174004 159097 155938 150961 146686 138425 129248 124257 114836 114415 106285 102168 85791.4 70326.6 70258.1 65665.1 65498.3 61484 60812.5 56669.9 56282.4 55071.5 53712 51309 48326.8 46946.2 46941.4 46878.1 46519.9 46071.4 37087.6 36675.9 35142.6 31847.9 31383.4 29599.7 27904.6 27669 27004.1 26933.9 25057.2 24773 24281.9 24042.8 23646.5 23359.4 21639.7 21450 21085.4 19398.1 19269.8 18994.6 18932.7 18066.4 16885.5 16619.3 16434.5 16294.2 16187.3 15486.8 14801.4 14494.5 14162.8 13738 12352.2
threshold=398.54654058820734 65.951307189542504 1043.0000000000002 1293.0000000000002 24.833333333333339 181.82682160381799 965.75000000000011 1959.0000000000002 55.125000000000007 67.583333333333357 0 3.7319023569023568 238.62650966183577 633.50000000000011 -12.474898792144076 115.31470637303973 6.0833333333333295 115.31470637303973 4.8333333333333348 1 6.5500000000000007 15.254269547325103 21.825089126559718 376.25000000000006 240.83333333333337 23.120370370370374 3.3333333333333335 49.246317340067343 83.938403880070567 20.083333333333332 -14.989878137186743 -39.98625970881087 19.166666666666661 0.83333333333333337 -40.609528867243995 214.70833333333337 45.875000000000007 1.7610371071880644 2 9.6250000000000018 33.125000000000007 143.08907903439157 11.666666666666671 6.6666666666666705 143.08907903439157 8.7255471380471388 35.709259259259262 496.50000000000006 104.50000000000001 83.938403880070567 8.6666666666666803 2.4903030854775063 48.083333333333321 -88.844439150973386 -23.834753345782755 144.25000000000003 -39.946804404539044 -71.362428430318317 -49.846613114444118 23.120370370370374 48.500000000000007 -2.1666666666666647 13.625000000000002 96.500000000000014 45.750000000000007 41.642466329966332 96.951307189542504 1.7610371071880644 3 -1.166666666666665 21.166666666666661 4 260.50000000000006 41.642466329966332 1.8750000000000002 45.875000000000007 2.666666666666679 34.125000000000007 27.166666666666668 2.0888047138047141 16.500000000000004 5 81.125000000000014 23.166666666666661 77.500000000000014 59.875000000000007 6 0.33333333333333376 84.750000000000014 43.500000000000007 154.50000000000003 29.875000000000004 30.625000000000004 166.83333333333334
decision_type=2 2 2 2 2 2 2 2 2 2 9 2 2 2 2 2 2 2 2 9 2 2 2 2 2 2 2 2 2 2 2 2 2 2 2 2 2 2 9 2 2 2 2 2 2 2 2 2 2 2 2 2 2 2 2 2 2 2 2 2 2 2 2 2 2 2 2 2 9 2 2 9 2 2 2 2 2 2 2 2 2 9 2 2 2 2 9 2 2 2 2 2 2 2
left_child=1 4 3 6 11 10 13 14 16 30 17 18 35 24 -5 28 22 49 33 25 -15 38 31 72 47 54 39 34 88 36 -8 57 59 74 53 51 77 65 81 58 61 -17 62 48 -19 71 68 -2 84 -3 76 -7 75 -21 -10 78 -41 -6 -20 -23 -59 91 -28 -55 -34 -27 -30 79 -24 89 -44 -40 -14 -39 -1 -31 -35 -18 -29 -56 -58 -13 -45 -52 -36 -38 -47 -60 -12 -42 -50 -33 -63 -65
right_child=2 5 -4 7 8 12 9 -9 19 -11 15 21 23 20 -16 41 29 44 26 27 -22 32 46 -25 -26 37 42 55 66 52 -32 40 64 50 43 -37 85 73 45 56 69 -43 70 82 -46 86 -48 -49 90 -51 83 -53 -54 63 67 -57 80 60 87 -61 -62 92 -64 93 -66 -67 -68 -69 -70 -71 -72 -73 -74 -75 -76 -77 -78 -79 -80 -81 -82 -83 -84 -85 -86 -87 -88 -89 -90 -91 -92 -93 -94 -95
leaf_value=-0.58733204838288711 15.92670708211263 4.3752574536872633 104.22516490589489 32.243027053106395 -0.36367853360712948 8.0170571114676346 22.21209763299851 71.099098334312444 0.78720062080694708 46.254905160757211 2.2573516553287307 0.50145593949306166 9.3471888758772508 20.496007427140782 48.627474806765292 4.2378917937734473 0.64409592326596488 6.1559668201511197 -0.50659692156024894 -0.41366783498633991 26.20375653277387 0.24249312351471261 0.97022156215659761 12.592880328807956 23.041146428034853 3.2252943016501034 -0.15056308498252449 1.9386446454569801 2.9553773776555468 1.4006142621162609 30.323023763020835 -0.041964072677692102 1.014731517640671 -0.4664740406923012 1.1970552171840927 8.4087681038411457 1.2611484466619856 2.2260577198375358 -0.096694440822278654 -0.3669587100446382 0.34985486834984403 5.1803016717270838 0.42459821389111907 1.8867957675990774 7.1875088978346504 0.064643535881145284 1.142803345452543 18.6798239504636 1.9608097002957321 5.1620584610133493 0.079668467669259932 6.5904360374409885 2.9007572767469618 0.46801124356872409 1.9330315914154055 3.3378048549998893 -0.21773829015769969 -0.07602161687371306 -0.40185053586738323 0.55293458424561415 0.30119567381227047 0.22900765746637533 0.14432897241901652 1.0448203818435255 1.9758353149890899 3.9677589430632412 3.4433366253771589 1.6858182144165039 0.59817593645602063 0.82075708474796882 1.3855052170098998 -0.26275315957636269 10.613240035044996 2.9282787088828512 -0.53710318471471052 1.9044159117353723 -0.33214474207074274 0.91626403433675996 3.242629198346819 2.6524392655578972 -0.050787780606972581 0.12334773785498414 2.764811934251052 1.1261038260624328 1.5235033814279657 1.6629213805503034 -0.088139682803923688 -0.30543498509657363 2.6111012941877418 0.61713731681925399 3.1783614877554092 0.18108993691506617 0.43366977485078684 2.0303836313883461
leaf_weight=67974 119 329 21 20 563 104 20 31 48 25 573 232 117 101 46 428 833 235 5837 54 90 2278 468 152 25 203 1616 1010 471 389 74 613 302 10213 883 374 681 164 1925 2836 637 306 286 133 357 1740 577 90 73 411 167 186 53 200 119 43 3320 1219 8727 845 622 919 918 229 63 215 445 161 1854 512 50 5709 394 201 19172 234 2354 1047 20 170 1625 1932 64 28 379 234 3080 4127 427 705 25 1766 1238 23
leaf_count=67974 119 329 21 20 563 104 20 31 48 25 573 232 117 101 46 428 833 235 5837 54 90 2278 468 152 25 203 1616 1010 471 389 74 613 302 10213 883 374 681 164 1925 2836 637 306 286 133 357 1740 577 90 73 411 167 186 53 200 119 43 3320 1219 8727 845 622 919 918 229 63 215 445 161 1854 512 50 5709 394 201 19172 234 2354 1047 20 170 1625 1932 64 28 379 234 3080 4127 427 705 25 1766 1238 23
internal_value=0.000967142 -0.116067 30.4065 27.8295 -0.292269 5.42346 23.172 53.447 0.840359 32.8612 4.10471 -0.442781 9.37462 20.3882 44.2181 3.28916 0.537542 5.65644 -0.504548 1.8796 23.3081 -0.00184666 0.363687 10.8764 17.9157 2.68665 -0.323444 1.53571 2.78769 1.12294 28.8495 0.228769 0.416853 -0.557733 1.28774 7.86095 0.982965 3.15544 -0.101776 -0.361597 0.33207 4.63732 0.0284633 1.47465 6.78913 -0.148369 0.772729 17.1957 1.37026 4.81865 -0.430988 7.12791 1.69935 0.710802 1.99853 2.02511 -0.237316 -0.0458279 -0.413318 0.326647 0.0515084 0.229721 -0.0437089 0.845802 1.18562 3.61579 3.19595 2.12566 0.680307 0.582207 0.571337 -0.221371 10.3422 2.61976 -0.576288 1.59262 -0.441342 0.796088 1.9671 2.36397 -0.162901 0.166225 2.18466 0.235007 1.29624 1.36562 -0.0330282 -0.370922 2.41088 0.490638 2.30058 0.123613 0.346628 1.14252
internal_weight=172908 172246 662 641 166937 5309 544 97 19581 119 3982 147356 1327 425 66 2650 15164 1332 129250 4417 191 18106 11693 663 234 1281 29342 3136 1916 3471 94 8794 3488 99908 2063 664 2795 783 14618 26472 6390 734 2870 1557 592 12454 2899 209 1360 740 12762 290 676 506 498 1073 7781 2404 18691 3123 1841 4536 2534 452 365 418 916 450 2322 1854 336 7634 511 365 87146 623 12567 1880 1030 289 4945 2164 197 195 1262 915 4820 12854 1000 1342 98 2379 2157 252
internal_count=172908 172246 662 641 166937 5309 544 97 19581 119 3982 147356 1327 425 66 2650 15164 1332 129250 4417 191 18106 11693 663 234 1281 29342 3136 1916 3471 94 8794 3488 99908 2063 664 2795 783 14618 26472 6390 734 2870 1557 592 12454 2899 209 1360 740 12762 290 676 506 498 1073 7781 2404 18691 3123 1841 4536 2534 452 365 418 916 450 2322 1854 336 7634 511 365 87146 623 12567 1880 1030 289 4945 2164 197 195 1262 915 4820 12854 1000 1342 98 2379 2157 252
cat_boundaries=0 2 44 48 52 56 60 64
cat_threshold=192 32768 131072 64 0 156762112 54591488 0 2 0 0 0 0 0 0 0 0 0 0 0 0 2097152 12585360 595392 0 0 0 0 0 0 0 0 0 0 0 0 0 0 0 0 0 0 8388608 1 19922944 3496506496 1477608648 19014468 287309824 2415924352 268435584 19005952 201343270 605224961 2768850946 1064969 16777216 2420113536 8 19005956 201410870 605224961 2768850946 1067017
is_linear=0
shrinkage=0.04


Tree=7
num_leaves=95
num_cat=4
split_feature=66 66 61 37 5 66 0 5 46 36 70 5 66 66 66 46 66 44 44 70 66 46 45 6 37 60 66 44 44 5 66 66 60 37 66 60 66 65 60 5 38 66 70 66 60 66 5 46 66 67 60 0 5 47 44 5 44 44 44 66 47 67 46 66 67 66 67 66 61 44 37 5 70 66 6 44 66 66 44 66 46 47 46 38 66 60 44 5 66 67 67 44 66 45
split_gain=3.55083e+08 9.68673e+07 7.13004e+07 4.49672e+07 1.63985e+07 1.59224e+07 1.08044e+07 4.88426e+06 4.5127e+06 3.24154e+06 2.67911e+06 2.59235e+06 1.69007e+06 1.04093e+06 1.0126e+06 766491 718154 707684 602997 478732 414315 395934 365154 441343 268344 201079 184482 180893 179719 179689 170203 165397 157759 153560 148743 132637 131142 118814 98742 86895.6 80503.1 79114.6 74260 69930.7 61252.5 60460.8 54060.6 52208.3 51857.1 49666.4 48083.6 47473.9 46951.3 44719.6 44109.4 43870.4 39241.9 37237 36246.9 35365.5 33540.6 32488.1 31482.9 30016.2 29321.4 27602.6 26731.4 25503.5 24445.3 24035.8 22813.9 22805 21305.4 20251.2 20207.1 19817.4 18478.8 16598.5 16235.1 15394.1 15166.3 14991.6 14945.6 14740.4 14348.8 13922.1 13435.7 13358.4 13304.4 10784.1 10612.4 10369.7 9401.56 9100.23
threshold=398.54654058820734 65.951307189542504 1043.0000000000002 1141.2500000000002 26.500000000000004 181.82682160381799 1959.0000000000002 750.00000000000011 -7.1666666666666599 60.875000000000007 0 9.5000000000000018 238.62650966183577 115.31470637303973 29.165246654217245 -1.0000000180025095e-35 115.31470637303973 4.666666666666667 2.3333333333333335 1 23.120370370370374 8.833333333333341 202.33333333333337 595.75000000000011 443.25000000000006 -33.283427528428028 8.2575561672783913 15.333333333333341 13.166666666666659 3.166666666666667 45.165114379084976 83.938403880070567 -5.6680161771214079 41.250000000000007 41.642466329966332 -27.578149637207474 -36.090064571150087 214.70833333333337 -49.846613114444118 866.83333333333337 48.875000000000007 143.08907903439157 2 49.246317340067343 -69.160835870018289 143.08907903439157 17.500000000000004 -0.66666666666666508 83.938403880070567 2.4903030854775063 -47.602625959922499 319.50000000000006 18.500000000000004 35.666666666666686 6.1666666666666581 41.166666666666679 32.166666666666664 0.33333333333333337 -0.33333333333333254 21.825089126559718 29.333333333333361 2.0925845447049505 -3.9166666666666852 -9.8416977902272009 2.826654219171632 14.617255892255894 1.7306175501692815 96.951307189542504 80.500000000000014 -3.1666666666666567 29.750000000000004 3.8333333333333335 3 59.257556167278395 31.416666666666668 0.33333333333333376 38.351791726791731 54.154634581105178 8.6666666666666714 73.624410774410791 28.583333333333332 35.666666666666686 10.550000000000002 55.125000000000007 -65.593814829322056 -71.362428430318317 -6.1666666666666563 49.833333333333336 12.706818181818184 2.616145305176564 1.8701838651344229 -10.666666666666659 1.8314694564694551 22.333333333333343
decision_type=2 2 2 2 2 2 2 2 2 2 9 2 2 2 2 2 2 2 2 9 2 2 2 2 2 2 2 2 2 2 2 2 2 2 2 2 2 2 2 2 2 2 9 2 2 2 2 2 2 2 2 2 2 2 2 2 2 2 2 2 2 2 2 2 2 2 2 2 2 2 2 2 9 2 2 2 2 2 2 2 2 2 2 2 2 2 2 2 2 2 2 2 2 2
left_child=1 4 3 7 11 10 8 22 35 14 16 18 37 31 21 -9 48 26 29 20 36 25 23 -2 51 44 38 52 54 57 42 79 -25 47 59 -5 84 49 85 -17 60 -15 81 61 88 -18 58 70 -3 -7 -31 64 78 -30 71 86 93 -1 -40 92 -23 -22 87 -38 -14 72 -65 -33 77 -48 -27 -20 -28 89 -49 -52 -44 90 -19 -12 -42 -16 -54 -64 -11 -13 -46 -35 -6 -36 -32 -57 -21 -29
right_child=2 5 -4 6 9 12 -8 15 -10 19 13 17 24 41 30 39 45 27 28 34 43 40 -24 32 -26 33 65 56 53 50 68 67 -34 62 73 -37 63 -39 46 -41 80 -43 76 -45 55 -47 69 74 -50 -51 75 -53 82 -55 -56 91 -58 -59 -60 -61 -62 -63 83 66 -66 -67 -68 -69 -70 -71 -72 -73 -74 -75 -76 -77 -78 -79 -80 -81 -82 -83 -84 -85 -86 -87 -88 -89 -90 -91 -92 -93 -94 -95
leaf_value=-0.56176584688659836 15.839009446926459 4.2007774981874411 100.2456601784446 25.41857131231399 -0.3338287296501371 7.699428984142485 68.344008032083508 23.214445716594827 50.541908799913202 -0.48505471020936969 2.1431626014635112 -0.49287533127991934 10.34194803873698 4.0687712605794273 1.387492610527987 25.543169473184122 5.9107715412721795 0.11757842425971429 -0.352688036000806 -0.16398576423011979 3.1788814987502731 0.86317330584711627 22.617546844482423 16.291690389943678 12.632175023129111 0.078356963021164003 0.13784325994592445 0.80287301043490389 0.37572862857619294 -0.51419619459345522 1.7007798975595037 2.8374127009763557 20.992639458234923 0.49568759881613544 1.8487870750092623 34.772696731922238 1.5253125856412169 8.0733143310546875 -0.27768086187892538 32.451131376378676 1.6037566636738023 4.9737645162277966 0.77998567468826085 3.7030316825534988 -0.089291898070201978 6.9008115664007947 -0.14837989392286616 0.37711114864458084 4.9560772579156076 6.3282283370890084 -0.42208183932070831 10.539674507956834 0.37522344838312971 1.3533720580391262 -0.035651870588378404 0.24590634422761107 1.9303923808058647 -0.48964289891867635 -0.12132607450695777 1.2118595964457293 1.9227634487511978 2.4623247604370118 0.81915809849561272 2.4687969666674623 8.8250947295953033 0.18958874468980461 1.7964373461042131 3.3059119853203605 2.8554859097798664 0.053252775322238273 0.31665638703390303 -0.20296783777668354 -0.068173898081425335 2.1119443628764696 0.60990692765435506 -0.33099441092113452 1.0402686615108336 1.717093429404472 0.34774365073398955 2.4897600457127109 2.3795031818590666 2.4327549377441406 0.64165515037683341 1.178983810737682 0.65992853327000389 -0.33877498991157295 0.14889223075873162 0.79005357986026337 0.4705395747593471 1.5310464720486263 1.3116806272050026 0.51208160498972688 0.65135277403484693 1.1818412420884619
leaf_weight=74289 166 329 21 20 580 104 31 86 44 27 512 1458 92 428 538 36 235 1734 2926 28 285 590 39 42 94 1048 1095 332 411 7192 160 471 85 569 455 42 150 374 6313 50 227 306 1459 298 794 357 1789 1363 411 186 11126 317 983 91 1608 503 72 13628 3805 522 52 199 471 265 160 1492 174 445 23 2005 1666 3685 2923 306 1074 5867 645 473 684 488 56 24 519 316 46 2683 723 449 34 357 567 444 109 158
leaf_count=74289 166 329 21 20 580 104 31 86 44 27 512 1458 92 428 538 36 235 1734 2926 28 285 590 39 42 94 1048 1095 332 411 7192 160 471 85 569 455 42 150 374 6313 50 227 306 1459 298 794 357 1789 1363 411 186 11126 317 983 91 1608 503 72 13628 3805 522 52 199 471 265 160 1492 174 445 23 2005 1666 3685 2923 306 1074 5867 645 473 684 488 56 24 519 316 46 2683 723 449 34 357 567 444 109 158
internal_value=0.0010766 -0.111383 29.218 26.7385 -0.280559 5.20727 47.0324 21.1398 40.2191 0.857348 3.94096 -0.418679 9.00131 3.1579 0.607731 26.7041 5.43087 -0.0722148 -0.499097 2.00747 2.56204 0.410882 18.1855 17.5206 10.4433 0.337803 -0.159852 0.388443 -0.178687 -0.524022 1.16219 2.67642 19.5776 0.456904 1.5326 32.2069 1.83842 7.5479 -0.221683 29.8865 1.20237 4.45234 0.982201 3.20418 0.0685802 6.51847 -0.17062 0.345526 4.62642 6.84481 -0.427414 10.0602 0.292054 0.555329 -0.223584 0.157665 1.05902 -0.550592 -0.218901 1.06166 0.951885 2.88999 0.774367 2.03634 9.41763 0.0427306 2.20704 3.06839 1.55339 -0.0418327 0.224708 -0.26928 -0.0118307 1.82267 0.479922 -0.390656 0.856176 1.52606 0.182812 2.31464 1.76517 1.41134 0.467665 0.964975 0.235339 -0.393143 0.0242364 0.626188 -0.288562 1.71117 1.39956 0.371132 0.484589 0.92727
internal_weight=172908 172246 662 641 166937 5309 137 504 106 18069 3982 148868 1327 2650 14848 172 1332 28045 120823 3221 1444 10959 332 293 663 10034 23563 4482 8721 112102 3889 1916 127 6956 1777 62 662 664 18053 86 925 734 2666 782 3078 592 13912 5151 740 290 24185 569 3920 502 8219 2464 562 87917 10118 659 642 484 1805 589 252 5510 439 916 1223 3794 2714 6611 4018 1118 2437 16993 2104 1200 2418 1000 283 562 1502 787 73 4141 1517 1018 614 812 727 947 137 490
internal_count=172908 172246 662 641 166937 5309 137 504 106 18069 3982 148868 1327 2650 14848 172 1332 28045 120823 3221 1444 10959 332 293 663 10034 23563 4482 8721 112102 3889 1916 127 6956 1777 62 662 664 18053 86 925 734 2666 782 3078 592 13912 5151 740 290 24185 569 3920 502 8219 2464 562 87917 10118 659 642 484 1805 589 252 5510 439 916 1223 3794 2714 6611 4018 1118 2437 16993 2104 1200 2418 1000 283 562 1502 787 73 4141 1517 1018 614 812 727 947 137 490
cat_boundaries=0 2 4 8 12
cat_threshold=192 32768 192 32768 285212672 2415952000 268435464 19005956 137363744 1144680449 202540226 1057097
is_linear=0
shrinkage=0.04


Tree=8
num_leaves=95
num_cat=0
split_feature=0 0 0 57 5 57 0 48 32 4 67 32 5 57 57 57 44 34 6 46 5 0 44 57 44 44 44 57 0 57 57 45 57 46 46 57 46 57 0 57 0 0 0 44 5 6 0 57 57 57 36 44 44 57 0 5 44 32 47 0 0 45 0 44 57 0 6 45 46 57 47 5 6 6 57 44 44 47 59 57 0 46 6 34 0 44 45 44 0 57 6 6 0 47
split_gain=2.77291e+08 9.02087e+07 5.63891e+07 2.08599e+07 1.69613e+07 1.09711e+07 1.09769e+07 1.00523e+07 8.90333e+06 8.27603e+06 4.48765e+06 3.03433e+06 2.73253e+06 2.44299e+06 2.29969e+06 2.07455e+06 2.00054e+06 1.35086e+06 1.13401e+06 1.05976e+06 995855 966849 853400 833290 770128 633737 492170 478953 575430 449096 402436 398223 394922 381338 377059 355733 341562 302869 280967 269568 251182 248838 228303 211103 202506 195792 154048 149871 146302 143532 139849 127253 125981 109954 109119 104477 104263 95270.3 95255.8 85708.6 84732.6 83185.6 68639.8 60427 53690.3 51885.5 51864 49682.4 47109.8 46528.1 46421.5 40783.3 40224 39282.4 39079.4 38219.3 35630.8 35594 35097.8 34483.3 32461.8 31862 31539.4 30226.2 28591.7 27917.7 27606.2 27554.8 25200.8 24511.2 24280 24111.9 22288.7 21808.2
threshold=482.50000000000006 112.50000000000001 1293.0000000000002 338.50000000000006 28.166666666666668 281.50000000000006 246.50000000000003 165.79166666666671 767.25000000000011 1472.0000000000002 6.9896012315114389 55.125000000000007 9.5000000000000018 28.500000000000004 50.500000000000007 -6.4999999999999991 100.66666666666666 1763.5000000000002 595.75000000000011 12.833333333333341 153.16666666666671 339.50000000000006 5.666666666666667 11.500000000000002 -80.999999999999986 3.3333333333333335 52.833333333333343 -155.49999999999997 327.50000000000006 -188.49999999999997 -32.499999999999993 42.166666666666664 83.500000000000014 67.583333333333357 -62.249999999999993 -36.499999999999993 -2.1666666666666647 54.500000000000007 628.50000000000011 68.500000000000014 196.50000000000003 173.50000000000003 81.500000000000014 -0.33333333333333254 3.166666666666667 43.583333333333336 83.500000000000014 -93.499999999999986 -56.499999999999993 -17.499999999999996 34.125000000000007 15.333333333333341 16.166666666666661 -82.499999999999986 136.50000000000003 18.166666666666668 -9.666666666666659 15.125000000000002 28.833333333333343 186.50000000000003 392.50000000000006 87.166666666666686 386.50000000000006 -0.66666666666666619 1.5000000000000002 151.50000000000003 40.916666666666679 79.333333333333343 0.83333333333333337 31.500000000000004 12.666666666666671 18.833333333333339 184.41666666666669 33.416666666666679 -72.499999999999986 -1.3333333333333213 8.166666666666659 11.549999999999999 151.50000000000003 -50.499999999999993 136.50000000000003 -2.833333333333321 57.750000000000007 118.75000000000001 96.500000000000014 -0.66666666666666063 33.83333333333335 -4.333333333333333 65.500000000000014 36.500000000000007 34.250000000000007 51.083333333333336 294.50000000000006 97.750000000000014
decision_type=2 2 2 2 2 2 2 2 2 2 2 2 2 2 2 2 2 2 2 2 2 2 2 2 2 2 2 2 2 2 2 2 2 2 2 2 2 2 2 2 2 2 2 2 2 2 2 2 2 2 2 2 2 2 2 2 2 2 2 2 2 2 2 2 2 2 2 2 2 2 2 2 2 2 2 2 2 2 2 2 2 2 2 2 2 2 2 2 2 2 2 2 2 2
left_child=1 3 8 4 12 6 13 10 14 -9 -4 19 25 20 18 27 29 -12 24 36 30 37 43 42 -2 44 52 72 48 -10 53 51 41 58 -20 47 50 92 -16 46 75 80 56 57 68 73 69 93 -29 79 70 71 76 83 64 -45 86 81 66 -49 -23 -33 74 -46 -32 -55 -21 -35 -1 88 90 -24 -8 -38 -30 -37 -27 91 -28 -44 -15 -14 -47 -3 -51 -56 -13 -59 -25 -48 -6 -52 -17 -22
right_child=2 5 7 -5 11 -7 15 9 16 -11 17 23 22 32 38 21 -18 -19 34 33 35 60 31 39 -26 26 78 28 62 -31 54 61 -34 67 -36 40 45 -39 -40 -41 -42 -43 49 55 63 82 89 59 -50 84 77 -53 -54 65 85 -57 -58 87 -60 -61 -62 -63 -64 -65 -66 -67 -68 -69 -70 -71 -72 -73 -74 -75 -76 -77 -78 -79 -80 -81 -82 -83 -84 -85 -86 -87 -88 -89 -90 -91 -92 -93 -94 -95
leaf_value=-0.53625594942418375 6.5647759709213727 0.10870372653007508 24.252024139404298 39.611431535993304 0.0836471305342638 34.199428013392861 1.8673921704292298 45.550813739483175 18.291580591616423 82.135970552884615 36.215855829148069 0.82068786312876785 -0.36248797303948349 4.3963811023418717 19.390505868417247 7.7955369259688654 37.740431611032193 56.218822592030399 13.717933491032298 1.0353880251028242 1.8484713325897852 11.381787742758698 0.2226255280904624 1.6373595051731624 13.880027389526367 -0.19211474622208399 2.8460626220703125 5.0510997619628908 6.5154337976333947 26.722180989583336 2.5949903510114383 2.4076833038330081 7.9820456566748685 3.5045620081974911 19.425270806206598 3.9414204226300162 0.43036149575486476 10.926987316313243 25.720666009812131 4.6804203907648727 5.6641898393474639 6.8011547755695769 0.39281556362105952 -0.080956701807121917 -0.46054655629458313 1.0178314165812476 2.8595877545903461 2.5333410163237668 6.7670655792834715 1.9172822199964359 0.50941020440800311 0.9806134650136159 0.69806595560709639 1.792468342781067 3.2600767790695717 0.19062993221312391 1.3721068408152401 -0.19223802364960421 2.035802498436547 3.9823897885604649 13.923152767133109 5.3479425048828126 9.6602120823536115 -0.33840946467617594 3.4152737802803803 2.8807157712562059 1.5768212048180834 5.9174520996093749 -0.43915731161425109 2.610120842849152 -0.15711978769454882 0.51118109417835111 4.1402642945985537 0.68752342427440216 8.4716214893482338 4.6707784236417274 0.078357663772835026 0.31087086807010161 5.3160055687313994 1.4078941281887853 5.3472050343389093 -0.21860789401636752 1.5010706491367791 1.3881688662086213 2.3828993919392172 4.0779023091634112 0.011604246359605054 -0.0085413899577086241 2.1859709802846439 3.6198149066105065 0.3447686286857734 0.87326122026665265 8.9981528452280415 0.099154325619987826
leaf_weight=80280 32 63 24 20 1553 20 23 25 22 25 20 549 5572 155 53 202 32 22 40 684 23 105 1861 281 119 4406 26 144 46 116 416 59 153 51 89 388 1925 104 41 95 304 190 61 6894 13004 1077 388 106 254 573 934 596 299 239 144 3375 1082 2326 332 212 78 22 102 12966 210 106 498 24 8917 236 893 1357 36 1895 107 240 946 1013 20 505 183 4427 278 55 388 224 77 2980 304 106 900 429 110 22
leaf_count=80280 32 63 24 20 1553 20 23 25 22 25 20 549 5572 155 53 202 32 22 40 684 23 105 1861 281 119 4406 26 144 46 116 416 59 153 51 89 388 1925 104 41 95 304 190 61 6894 13004 1077 388 106 254 573 934 596 299 239 144 3375 1082 2326 332 212 78 22 102 12966 210 106 498 24 8917 236 893 1357 36 1895 107 240 946 1013 20 505 183 4427 278 55 388 224 77 2980 304 106 900 429 110 22
internal_value=0.00117132 -0.0980579 25.8592 -0.252458 -0.257455 5.32896 5.20006 51.1094 20.391 65.0956 39.7001 0.935026 -0.393348 4.00898 16.8544 8.31358 28.0273 47.7578 14.9217 0.610237 3.47577 10.0585 -0.0479786 1.80775 12.3833 -0.477555 -0.0657187 6.83352 7.14718 25.5196 2.75462 0.503512 6.15548 1.575 17.7748 4.28436 0.469422 8.94164 22.3934 2.61954 4.70149 5.61206 1.45322 -0.131989 -0.497926 0.704888 2.4672 3.20335 6.16048 1.80908 0.256377 0.444084 -0.0996081 1.7741 3.20908 0.00831063 1.13418 -0.226121 1.43501 3.50889 12.5349 3.262 8.65704 -0.399584 2.87521 2.13425 1.26466 4.34465 -0.526554 2.12542 0.08968 0.344434 3.30045 0.558084 7.92974 4.22717 -0.144298 0.490982 4.01063 1.29942 4.92549 -0.298816 1.11802 0.711887 2.10758 3.76764 0.721377 -0.0890936 1.92573 3.02974 0.179562 0.624502 8.24699 1.01443
internal_weight=172908 172248 660 167484 167464 4764 4744 116 544 50 66 17131 150333 3433 374 1311 170 42 280 12486 2752 599 29469 4645 151 120864 5697 712 653 138 1457 3895 681 1589 129 1295 10897 416 94 1410 932 528 3235 25574 115167 5175 1315 363 398 1527 5722 3814 5651 463 994 10269 1708 15305 1514 318 183 81 255 25970 626 345 1182 75 89197 821 3346 3218 59 3820 153 628 5352 2376 46 566 338 9999 1355 118 961 368 626 5306 585 494 2453 1363 312 45
internal_count=172908 172248 660 167484 167464 4764 4744 116 544 50 66 17131 150333 3433 374 1311 170 42 280 12486 2752 599 29469 4645 151 120864 5697 712 653 138 1457 3895 681 1589 129 1295 10897 416 94 1410 932 528 3235 25574 115167 5175 1315 363 398 1527 5722 3814 5651 463 994 10269 1708 15305 1514 318 183 81 255 25970 626 345 1182 75 89197 821 3346 3218 59 3820 153 628 5352 2376 46 566 338 9999 1355 118 961 368 626 5306 585 494 2453 1363 312 45
is_linear=0
shrinkage=0.04


Tree=9
num_leaves=95
num_cat=0
split_feature=0 0 0 57 5 57 0 59 5 58 34 5 58 5 57 58 57 0 58 0 46 46 57 0 58 46 57 58 47 57 57 0 45 46 58 57 0 57 46 58 60 36 0 58 0 6 59 45 6 6 58 58 0 6 47 0 57 58 0 0 0 59 59 58 0 0 60 57 57 58 0 58 58 46 46 0 46 0 46 57 47 47 0 5 46 0 45 46 0 0 34 0 0 6
split_gain=2.56079e+08 8.3187e+07 5.2217e+07 1.93003e+07 1.56399e+07 1.01574e+07 1.01268e+07 9.54426e+06 8.10923e+06 4.96164e+06 5.03689e+06 2.81873e+06 2.64978e+06 2.46632e+06 2.26055e+06 1.95356e+06 1.8406e+06 1.33158e+06 964436 909089 883102 806790 783577 701081 661686 654025 538648 492211 485444 406281 404432 402619 385888 342249 311033 295503 289123 278548 244940 231329 216896 210744 202184 194494 179961 138458 128593 126938 119635 117387 112994 110242 100833 94010.2 88946.7 88791.3 83806 65976.5 62400.4 58022.1 56778.2 54334.2 53817.7 53428 51597.3 50470.2 50164.6 49343.1 49244.4 48505.8 47835.6 47389.5 47054.1 43584.6 42847.6 41224.2 38878 38761.6 37037.6 35473 33826 32375.8 30271.7 29314.9 29305.2 29227.1 27083.7 25982.4 24106.5 22868.4 21296.3 21248.7 20824.9 20545.5
threshold=482.50000000000006 112.50000000000001 1293.0000000000002 338.50000000000006 30.166666666666668 281.50000000000006 246.50000000000003 443.50000000000006 866.83333333333337 -16.659264445188043 1763.5000000000002 10.500000000000002 -21.418640824137793 62.166666666666679 16.500000000000004 -3.2258064321019768 66.500000000000014 628.50000000000011 -30.42357613135005 339.50000000000006 7.1666666666666705 8.6666666666666714 8.5000000000000018 165.50000000000003 -34.242852561017479 3.3333333333333335 60.500000000000007 -49.939891316184237 58.166666666666686 64.500000000000014 81.500000000000014 323.50000000000006 56.333333333333343 41.416666666666679 -16.659264445188043 54.500000000000007 176.50000000000003 74.500000000000014 0.16666666666666743 -30.42357613135005 -33.283427528428028 2.1250000000000004 74.500000000000014 -63.582884434270618 74.500000000000014 42.916666666666679 20.500000000000004 20.333333333333343 19.250000000000004 19.083333333333339 -8.3217909616740435 -4.9869108632541641 392.50000000000006 42.250000000000007 91.583333333333343 651.50000000000011 108.50000000000001 -66.510892005613115 178.50000000000003 163.50000000000003 35.500000000000007 156.50000000000003 151.50000000000003 -11.096452021277221 138.50000000000003 133.50000000000003 -63.877216397999852 30.500000000000004 37.500000000000007 -17.604314964789022 204.50000000000003 -59.952824047393506 -49.939891316184237 -6.450000000000002 0.83333333333333337 211.50000000000003 -2.1666666666666647 386.50000000000006 -3.9166666666666852 38.500000000000007 18.083333333333332 4.3333333333333321 96.500000000000014 20.500000000000004 7.5500000000000007 133.50000000000003 22.166666666666661 17.833333333333343 294.50000000000006 80.500000000000014 50.125000000000007 88.500000000000014 51.500000000000007 12.91666666666667
decision_type=2 2 2 2 2 2 2 2 2 2 2 2 2 2 2 2 2 2 2 2 2 2 2 2 2 2 2 2 2 2 2 2 2 2 2 2 2 2 2 2 2 2 2 2 2 2 2 2 2 2 2 2 2 2 2 2 2 2 2 2 2 2 2 2 2 2 2 2 2 2 2 2 2 2 2 2 2 2 2 2 2 2 2 2 2 2 2 2 2 2 2 2 2 2
left_child=1 3 8 4 11 6 14 9 12 -4 -11 25 27 20 18 24 34 30 43 35 40 38 39 50 57 41 36 -2 46 -19 -14 69 47 53 -10 88 64 44 49 71 66 74 60 -3 68 76 84 83 93 81 85 75 79 80 -35 -29 59 -8 -45 -28 -41 -34 -30 -44 -16 -52 -6 91 92 -26 -53 -15 -43 -51 -1 -25 -42 -33 -47 -21 -22 -13 -65 -23 -27 -20 -48 -55 -17 -73 -68 -46 -24 -40
right_child=2 5 7 -5 13 -7 15 -9 16 10 -12 21 17 22 26 19 -18 29 23 52 33 32 37 51 31 28 56 55 62 -31 -32 77 61 54 -36 -37 -38 -39 48 42 45 72 63 58 67 78 86 -49 -50 73 65 70 -54 87 -56 -57 -58 -59 -60 -61 -62 -63 -64 82 -66 -67 90 -69 -70 -71 -72 89 -74 -75 -76 -77 -78 -79 -80 -81 -82 -83 -84 -85 -86 -87 -88 -89 -90 -91 -92 -93 -94 -95
leaf_value=-0.51373250068861842 4.0598633539109006 0.13400927429263657 24.316005836155107 38.102424490792409 -0.25235861758196654 32.896593017578127 1.4659334857123238 73.600407502547554 17.687006555037065 38.057343405018685 62.414770856584823 -0.20953686421631051 14.046502084883432 -0.1219083272806696 3.8489953586972989 7.4444135134688043 34.846317886041135 19.153988461251988 2.21696519193276 9.6829864236582885 0.81781538968960921 0.3481799848290178 1.1605969851839859 3.785732764381152 5.2857584093437824 -0.21836429068693319 5.4352774231692402 9.4022727523311502 2.4831390664743824 24.794401601155602 19.348258579799108 7.6675189037054361 2.842038716283338 2.5030474031126344 25.681478777204244 10.494070318312872 6.1896186477661139 4.6708886305865125 -0.10223707804110782 -0.21334704078327527 0.24724274566174723 -0.46888589364441258 1.5233096687161194 1.6894938841046028 2.236346114694256 0.62381949179914264 0.2761713987506858 1.3036318841424432 0.27847050331193118 -0.17714783423003777 2.9018746155114488 4.6084850598819296 13.288776105398156 1.3004800724983216 4.8602116902669268 13.772564132125289 8.1427866794752042 4.0932237132390341 2.8153170083951551 7.1464809821633732 1.1195605153663486 5.7640966215587799 5.1134911092122399 1.8339282882560013 4.7622220516204834 3.6763761843854224 0.096188880967957732 3.2291855584690143 2.5107280569207182 6.5120212829289175 5.7347557606416597 0.47944564547389745 -0.3403093433608067 0.04659453015130062 -0.42161514196859295 4.6477839326576369 0.50890811773834754 9.171904533541932 0.94092088532240825 12.152096977233887 1.252044025979391 -0.36237351658257116 2.3638623302112927 0.62834983627598984 -0.026700091920592414 2.8459719162578732 0.88892916450017612 1.7519215648145561 8.5834882892546105 1.0439492449242525 0.38821881902367666 2.7545253916094379 1.7900112323600705 0.041259567827647045
leaf_weight=82753 20 110 22 20 510 20 20 22 21 45 27 5992 125 110 231 213 48 117 280 68 1013 1378 112 326 121 5422 82 30 42 47 41 141 28 153 69 104 199 84 2818 54 1532 6077 685 264 291 1124 435 332 3178 2256 277 198 82 607 32 26 91 95 118 101 866 20 20 584 255 341 1151 228 145 202 135 207 18310 3638 8992 168 2245 97 1266 47 409 3528 274 1063 1670 257 157 331 121 266 612 309 475 3680
leaf_count=82753 20 110 22 20 510 20 20 22 21 45 27 5992 125 110 231 213 48 117 280 68 1013 1378 112 326 121 5422 82 30 42 47 41 141 28 153 69 104 199 84 2818 54 1532 6077 685 264 291 1124 435 332 3178 2256 277 198 82 607 32 26 91 95 118 101 866 20 20 584 255 341 1151 228 145 202 135 207 18310 3638 8992 168 2245 97 1266 47 409 3528 274 1063 1670 257 157 331 121 266 612 309 475 3680
internal_value=0.00129212 -0.0940662 24.8506 -0.242335 -0.247142 5.11746 4.99343 49.1486 19.5887 42.7112 47.9215 -0.371366 16.6621 0.955725 3.8494 7.98396 28.0167 18.2261 3.20788 9.58595 0.62778 -0.0082233 1.72354 3.60153 6.46717 -0.453185 5.4993 9.72243 -0.0972926 20.911 15.4641 7.03647 0.633012 1.28079 24.0312 8.52439 4.88347 2.42754 -0.0803439 1.3429 0.430741 -0.476922 1.51253 1.61796 2.30382 0.553832 -0.12595 0.570603 0.0773926 -0.179361 2.95963 4.49334 11.8911 1.14993 2.93482 11.6377 7.01544 3.65305 2.04376 6.41353 1.04116 4.15276 3.39966 1.79271 4.33699 3.33451 0.0966722 2.70982 1.84147 6.07044 5.08094 0.624876 -0.372368 -0.0390577 -0.504709 4.08774 0.402872 8.31655 0.792122 10.7883 0.943516 -0.266211 2.00574 0.470403 -0.173245 2.52277 0.439935 1.4615 7.88152 0.798479 0.197737 2.50738 1.67213 -0.020974
internal_weight=172908 172248 660 167484 167464 4764 4744 116 544 94 72 151789 406 15675 3433 1311 138 330 2474 635 10985 27911 4690 1982 676 123878 959 76 7746 164 166 561 2821 2545 90 438 685 1644 25090 3046 8440 116132 2463 492 1560 6167 7684 2773 9676 15414 1155 827 197 2360 185 56 274 115 382 183 920 48 62 1543 486 618 2273 828 732 323 333 583 24387 5894 91745 494 3777 238 2390 115 1422 9520 858 2441 7092 537 592 938 334 473 1763 600 587 6498
internal_count=172908 172248 660 167484 167464 4764 4744 116 544 94 72 151789 406 15675 3433 1311 138 330 2474 635 10985 27911 4690 1982 676 123878 959 76 7746 164 166 561 2821 2545 90 438 685 1644 25090 3046 8440 116132 2463 492 1560 6167 7684 2773 9676 15414 1155 827 197 2360 185 56 274 115 382 183 920 48 62 1543 486 618 2273 828 732 323 333 583 24387 5894 91745 494 3777 238 2390 115 1422 9520 858 2441 7092 537 592 938 334 473 1763 600 587 6498
is_linear=0
shrinkage=0.04


Tree=10
num_leaves=95
num_cat=0
split_feature=0 0 0 57 5 57 0 48 32 4 3 32 5 57 57 57 44 32 57 44 5 0 44 44 0 44 44 0 57 57 45 57 57 45 57 60 57 57 57 44 0 0 57 5 5 0 57 57 0 60 44 44 57 5 47 44 5 0 0 44 0 0 45 44 57 0 5 60 44 44 2 60 44 57 60 60 57 0 61 0 0 44 0 5 57 57 57 1 44 57 44 0 57 57
split_gain=2.36456e+08 7.67144e+07 4.83086e+07 1.78574e+07 1.44196e+07 9.404e+06 9.34272e+06 8.95516e+06 7.61715e+06 7.45215e+06 4.04786e+06 2.58115e+06 2.323e+06 2.08905e+06 1.98489e+06 1.76972e+06 1.75717e+06 1.27517e+06 965528 909931 855207 825692 734358 717715 694668 541281 422037 408122 405937 369566 362580 350370 336617 324858 273556 265672 264590 257643 228742 215533 211752 202534 200645 176130 173824 163636 146082 141628 139659 130820 120826 107491 102584 97684.8 91970.1 88831.4 74228.3 73347.9 72120 70817 67736 64537.4 64285.8 63391 61278.5 58846.5 55744.4 55061.5 50836.5 48395.6 47520.5 44990.2 44933.7 43009.4 40925.6 36197.4 35879.1 34092.1 29667.9 29356 29182.4 29157.6 27947.4 27918 25759.5 25237.8 25107.2 23572.3 22359.8 21551.9 20119.5 19860.6 19396 19343.6
threshold=482.50000000000006 112.50000000000001 1293.0000000000002 338.50000000000006 28.166666666666668 281.50000000000006 246.50000000000003 165.79166666666671 767.25000000000011 1472.0000000000002 1389.0000000000002 55.125000000000007 9.5000000000000018 28.500000000000004 50.500000000000007 -6.4999999999999991 100.66666666666666 1700.7500000000002 -233.49999999999997 7.6666666666666705 163.50000000000003 339.50000000000006 6.666666666666667 8.333333333333341 651.50000000000011 3.3333333333333335 52.833333333333343 319.50000000000006 -32.499999999999993 -188.49999999999997 44.333333333333364 -135.49999999999997 83.500000000000014 42.166666666666664 150.50000000000003 -27.578149637207474 -37.499999999999993 54.500000000000007 -82.499999999999986 0.66666666666666752 174.50000000000003 82.500000000000014 68.500000000000014 44.166666666666679 3.5000000000000004 196.50000000000003 -12.499999999999998 -110.49999999999999 143.50000000000003 -59.908669662518655 -6.3333333333333295 15.666666666666671 -87.499999999999986 18.500000000000004 20.666666666666682 20.333333333333361 19.166666666666668 85.500000000000014 392.50000000000006 88.166666666666671 1021.5000000000001 386.50000000000006 79.333333333333343 0.33333333333333487 1.5000000000000002 146.50000000000003 43.500000000000007 -69.160835870018289 -0.66666666666666619 -0.83333333333337112 46.500000000000007 -39.98625970881087 0.66666666666666674 -155.49999999999997 -39.98625970881087 -66.614572118222 -38.499999999999993 196.50000000000003 153.50000000000003 271.50000000000006 147.50000000000003 8.166666666666659 171.50000000000003 18.833333333333339 -54.499999999999993 3.5000000000000004 31.500000000000004 77.500000000000014 4.3333333333333401 29.500000000000004 -4.6666666666666599 72.500000000000014 -188.49999999999997 38.500000000000007
decision_type=2 2 2 2 2 2 2 2 2 2 2 2 2 2 2 2 2 2 2 2 2 2 2 2 2 2 2 2 2 2 2 2 2 2 2 2 2 2 2 2 2 2 2 2 2 2 2 2 2 2 2 2 2 2 2 2 2 2 2 2 2 2 2 2 2 2 2 2 2 2 2 2 2 2 2 2 2 2 2 2 2 2 2 2 2 2 2 2 2 2 2 2 2 2
left_child=1 3 8 4 12 6 13 10 14 -9 -4 19 25 20 18 27 29 -12 -2 35 28 37 39 41 47 44 51 38 52 -10 55 92 40 54 -16 67 49 -17 73 53 80 50 57 63 72 90 76 -20 64 -22 75 81 82 74 83 66 -41 86 93 -35 -31 84 -32 -37 -30 -54 -21 -6 -46 -45 -69 -55 -1 -8 -14 -13 -43 -51 -28 -40 -15 -27 -3 -24 -33 -48 -25 -52 -50 -59 -38 -71 -29 -23
right_child=2 5 7 -5 11 -7 15 9 16 -11 17 23 22 32 34 21 -18 -19 24 30 36 58 33 42 -26 26 78 31 48 60 62 61 -34 59 -36 43 45 -39 79 56 -42 46 -44 69 68 -47 85 -49 88 77 87 -53 65 71 -56 -57 -58 89 -60 -61 -62 -63 -64 -65 -66 -67 -68 70 -70 91 -72 -73 -74 -75 -76 -77 -78 -79 -80 -81 -82 -83 -84 -85 -86 -87 -88 -89 -90 -91 -92 -93 -94 -95
leaf_value=-0.49354023982446266 7.3237925720214845 0.18382818196949205 20.50312050039118 36.650903640020459 -0.27976325823582904 31.643389834449405 1.9035080005811609 41.99069251427283 16.928624231089717 76.527577655498803 33.933537060546875 0.061353152999193361 -0.36171746485591089 4.2059932925723009 18.256322415259575 7.6064247272723016 34.960423399029359 52.152234913219111 9.2282501446759255 0.88899574098674083 0.8336787275549693 9.3708614232984644 0.25462058077192878 1.904176810701987 17.510845489501953 -0.17644029528867528 2.6421225653754341 3.3217388299107551 2.4537029212520971 22.867035667782741 3.0214866677308692 6.3569764639047479 7.3675077938723872 2.2802510292299334 24.522448568905101 0.29136554295035161 3.7021300702936508 10.078305297851562 5.254744039784307 -0.023677954072771814 6.2947816720238352 0.71857001948444277 4.3392601126812869 0.67833419658626459 -0.4207186163678503 5.2160081844764736 1.9104738630927995 13.414801330566407 3.3320302980337573 2.6368488622266195 1.2611908785502117 0.62350116279889956 1.5784801853212538 -0.23493047880590542 0.96404449126744041 1.7610937323859626 0.23473945212892189 2.5727520191669466 12.848453956314282 5.0742800467354909 28.287914608226103 8.9925710125358744 5.4995541381835942 0.5818178910871854 3.2290645262774298 2.575655138785379 1.381772083582288 0.027491464987633454 -0.30387454358838167 0.99258650165029638 0.36902287504096903 0.011271994794215517 -0.40007733581087679 4.0747075064522882 -0.20464243133679338 0.8689002084511025 1.451996512942844 3.7017732251485187 4.9169776553199407 6.3272397573370691 5.1259156581333709 0.070176289622041324 1.456972682909532 0.52440483249463687 7.8945893831073111 2.3900024607152113 2.4615452256944446 1.6558323958165069 4.0486175207189614 3.2583460257393972 4.3460797630272472 1.6347118845852939 5.2377647654215496 11.67613992055257
leaf_weight=82111 36 75 21 20 502 20 22 25 22 25 24 100 3964 217 61 312 32 21 26 985 38 58 1418 398 95 4406 26 29 495 83 77 64 153 61 33 2948 271 104 114 5931 186 135 93 1342 12051 306 490 123 200 85 707 317 233 1648 504 378 2539 255 78 20 33 97 24 2035 271 170 597 1492 11823 862 1157 4243 9182 69 8054 808 575 179 20 189 125 928 43 1087 105 323 224 398 184 139 202 87 23 47
leaf_count=82111 36 75 21 20 502 20 22 25 22 25 24 100 3964 217 61 312 32 21 26 985 38 58 1418 398 95 4406 26 29 495 83 77 64 153 61 33 2948 271 104 114 5931 186 135 93 1342 12051 306 490 123 200 85 707 317 233 1648 504 378 2539 255 78 20 33 97 24 2035 271 170 597 1492 11823 862 1157 4243 9182 69 8054 808 575 179 20 189 125 928 43 1087 105 323 224 398 184 139 202 87 23 47
